svm_type c_svc
kernel_type rbf
gamma 2
nr_class 2
total_sv 278
rho 2.855
label 1 -1
nr_sv 148 130
SV
13.24194678360705 1:0.291667 2:0.392602 3:0.101404 4:0.4 5:0.435564 6:0.102214 7:0.459016 8:0.485899 9:0.108437 10:0.477778 11:0.523741 12:0.120455 13:0.48855 14:0.504955 15:0.110527 16:0.494444 17:0.48818 18:0.115512 19:0.478992 20:0.445899 21:0.115637 22:0.457237 23:0.400558 24:0.120835 25:0.429708 26:0.33763 27:0.136239 
43.76390939998217 2:0.225737 3:0.03065 5:0.283384 6:0.031758 8:0.308497 9:0.033461 11:0.327768 12:0.044107 14:0.329619 15:0.045752 17:0.326542 18:0.044803 20:0.274739 21:0.040674 22:0.003289 23:0.207733 24:0.033211 26:0.137326 27:0.0284 
51.05380381875228 1:0.083333 2:0.431676 3:0.146127 4:0.275 5:0.545946 6:0.14765 7:0.377049 8:0.517019 9:0.164319 10:0.522222 11:0.518344 12:0.177879 13:0.587786 14:0.506816 15:0.164472 16:0.605556 17:0.50082 18:0.155618 19:0.596639 20:0.458933 21:0.132638 22:0.575658 23:0.432664 24:0.117459 25:0.578249 26:0.386587 27:0.125954 
191.4639848080479 1:0.125 2:0.413857 3:0.094905 4:0.275 5:0.462406 6:0.098466 7:0.327869 8:0.482169 9:0.120186 10:0.377778 11:0.525599 12:0.135167 13:0.389313 14:0.530461 15:0.13959 16:0.405556 17:0.502865 18:0.157549 19:0.401261 20:0.456253 21:0.16056 22:0.404605 23:0.409837 24:0.159575 25:0.409814 26:0.35401 27:0.171159 
37.91717390457852 1:0.083333 2:0.367664 3:0.055858 4:0.15 5:0.439064 6:0.04853 7:0.196721 8:0.456228 9:0.067141 10:0.233333 11:0.510653 12:0.073151 13:0.282443 14:0.556067 15:0.086133 16:0.322222 17:0.54765 18:0.081992 19:0.355042 20:0.551934 21:0.097287 22:0.373355 23:0.553022 24:0.097961 25:0.387268 26:0.502999 27:0.109673 
38.64632988428678 1:0.083333 2:0.287828 3:0.095311 4:0.1 5:0.369157 6:0.130534 7:0.163934 8:0.395373 9:0.153464 10:0.177778 11:0.428883 12:0.157991 13:0.175573 14:0.43442 15:0.144703 16:0.172222 17:0.424261 18:0.139362 19:0.172269 20:0.382323 21:0.11665 22:0.174342 23:0.314531 24:0.098268 25:0.172414 26:0.242812 27:0.097102 
155.5271475645315 1:0.083333 2:0.385183 3:0.057595 4:0.225 5:0.536215 6:0.07312 7:0.311475 8:0.565417 9:0.091193 10:0.355556 11:0.596239 12:0.096463 13:0.305344 14:0.603977 15:0.101149 16:0.266667 17:0.592908 18:0.110476 19:0.264706 20:0.557302 21:0.106995 22:0.276316 23:0.528371 24:0.105782 25:0.282493 26:0.490169 27:0.115607 
11.00016102878808 1:0.125 2:0.508953 3:0.260768 4:0.25 5:0.576111 6:0.258441 7:0.377049 8:0.623792 9:0.324365 10:0.455556 11:0.679738 12:0.355676 13:0.496183 14:0.679279 15:0.337449 16:0.519444 17:0.681664 18:0.367166 19:0.542017 20:0.634604 21:0.35641 22:0.569079 23:0.590784 24:0.33066 25:0.588859 26:0.492953 27:0.351919 
240.8704233991938 1:0.041667 2:0.213522 3:0.029501 4:0.15 5:0.262838 6:0.022298 7:0.213115 8:0.304939 9:0.031133 10:0.244444 11:0.379819 12:0.052077 13:0.229008 14:0.431005 15:0.056058 16:0.233333 17:0.451932 18:0.067313 19:0.239496 20:0.4549 21:0.078456 22:0.236842 23:0.446877 24:0.085734 25:0.230769 26:0.418985 27:0.094408 
111.5121302749888 1:0.083333 2:0.316533 3:0.057789 4:0.125 5:0.38967 6:0.05238 7:0.147541 8:0.423066 9:0.063308 10:0.177778 11:0.452998 12:0.06582 13:0.183206 14:0.488493 15:0.069485 16:0.216667 17:0.488658 18:0.086791 19:0.243697 20:0.467978 21:0.074396 22:0.254934 23:0.403565 24:0.050438 25:0.257294 26:0.312936 27:0.042621 
65.86900356370772 1:0.041667 2:0.338503 3:0.073831 4:0.125 5:0.428028 6:0.085364 7:0.213115 8:0.451956 9:0.138869 10:0.261111 11:0.51189 12:0.180855 13:0.290076 14:0.548135 15:0.198263 16:0.316667 17:0.532231 18:0.213657 19:0.327731 20:0.493396 21:0.204199 22:0.345395 23:0.46745 24:0.187074 25:0.350133 26:0.392033 27:0.186263 
25.02598727117424 1:0.125 2:0.43644 3:0.094564 4:0.325 5:0.517938 6:0.114996 7:0.442623 8:0.503524 9:0.173335 10:0.511111 11:0.551106 12:0.175229 13:0.549618 14:0.563787 15:0.164151 16:0.561111 17:0.535994 18:0.162744 19:0.554622 20:0.487897 21:0.143593 22:0.546053 23:0.434159 24:0.131011 25:0.534483 26:0.347264 27:0.138923 
114.855549733662 1:0.25 2:0.358204 3:0.040929 4:0.35 5:0.466368 6:0.102269 7:0.344262 8:0.572667 9:0.120872 10:0.377778 11:0.562096 12:0.134874 13:0.366412 14:0.578357 15:0.137814 16:0.338889 17:0.581893 18:0.142596 19:0.298319 20:0.541416 21:0.124739 22:0.263158 23:0.522983 24:0.111075 25:0.251989 26:0.504376 27:0.121196 
64.23175079142889 1:0.25 2:0.354656 3:0.048216 4:0.3 5:0.393355 6:0.061459 7:0.262295 8:0.50362 9:0.087992 10:0.277778 11:0.612142 12:0.102937 13:0.358779 14:0.639068 15:0.084841 16:0.388889 17:0.610376 18:0.090513 19:0.378151 20:0.591065 21:0.084738 22:0.360197 23:0.583631 24:0.097993 25:0.335544 26:0.544889 27:0.096852 
110.4451221162673 1:0.333333 2:0.291646 3:0.045255 4:0.35 5:0.341496 6:0.05097 7:0.360656 8:0.475256 9:0.087901 10:0.366667 11:0.555234 12:0.091924 13:0.366412 14:0.532492 15:0.08214 16:0.383333 17:0.520691 18:0.087807 19:0.361345 20:0.487116 21:0.089291 22:0.335526 23:0.445551 24:0.09888 25:0.32626 26:0.388309 27:0.119541 
54.3697049087538 1:0.125 2:0.530645 3:0.098798 4:0.2 5:0.621836 6:0.123045 7:0.245902 8:0.665906 9:0.179249 10:0.272222 11:0.719127 12:0.214884 13:0.28626 14:0.713829 15:0.23335 16:0.263889 17:0.665746 18:0.257147 19:0.231092 20:0.589362 21:0.229638 22:0.212171 23:0.543514 24:0.210094 25:0.196286 26:0.472144 27:0.21624 
103.1584903432649 2:0.257008 3:0.034555 5:0.376039 6:0.061864 7:0.04918 8:0.424445 9:0.085053 10:0.122222 11:0.455091 12:0.106654 13:0.152672 14:0.46298 15:0.11159 16:0.188889 17:0.463953 18:0.122531 19:0.22479 20:0.436302 21:0.122008 22:0.246711 23:0.408375 24:0.125791 25:0.262599 26:0.362831 27:0.143024 
98.21974949584694 1:0.208333 2:0.501775 3:0.158563 4:0.35 5:0.531093 6:0.123489 7:0.409836 8:0.539764 9:0.141383 10:0.377778 11:0.571112 12:0.17271 13:0.335878 14:0.543315 15:0.160932 16:0.327778 17:0.554075 18:0.175513 19:0.315126 20:0.528672 21:0.186722 22:0.292763 23:0.521348 24:0.198453 25:0.279841 26:0.489538 27:0.226939 
0.2223397523209436 1:0.166667 2:0.200511 3:0.020574 4:0.35 5:0.245352 6:0.017921 7:0.557377 8:0.287861 9:0.036223 10:0.711111 11:0.331942 12:0.047912 13:0.78626 14:0.326526 15:0.05778 16:0.838889 17:0.29942 18:0.066313 19:0.87395 20:0.232426 21:0.057213 22:0.888158 23:0.14953 24:0.046872 25:0.875332 26:0.083436 27:0.049134 
31.96619577702489 1:0.041667 2:0.342044 3:0.048116 4:0.1 5:0.423805 6:0.046667 7:0.147541 8:0.44358 9:0.061308 10:0.177778 11:0.509373 12:0.068187 13:0.229008 14:0.56547 15:0.081227 16:0.286111 17:0.570088 18:0.090142 19:0.323529 20:0.568408 21:0.098255 22:0.351974 23:0.564941 24:0.104302 25:0.371353 26:0.509281 27:0.110539 
0.8623083268319564 1:0.416667 2:0.675525 3:0.286156 4:0.475 5:0.803878 6:0.267399 7:0.491803 8:0.804747 9:0.30502 10:0.5 11:0.835031 12:0.336264 13:0.48855 14:0.804288 15:0.344437 16:0.525 17:0.743355 18:0.322604 19:0.52521 20:0.673608 21:0.299493 22:0.536184 23:0.627853 24:0.290209 25:0.530504 26:0.553928 27:0.303874 
152.6738382641071 1:0.083333 2:0.417044 3:0.097149 4:0.175 5:0.493361 6:0.079893 7:0.262295 8:0.500631 9:0.096149 10:0.344444 11:0.517531 12:0.112474 13:0.374046 14:0.514679 15:0.107082 16:0.388889 17:0.490178 18:0.113314 19:0.39916 20:0.440317 21:0.113026 22:0.394737 23:0.390269 24:0.110111 25:0.383289 26:0.326467 27:0.127846 
66.08549146814809 2:0.186527 3:0.038139 4:0.15 5:0.32279 6:0.048366 7:0.229508 8:0.417141 9:0.064197 10:0.266667 11:0.495282 12:0.080903 13:0.290076 14:0.560179 15:0.080856 16:0.294444 17:0.600266 18:0.114456 19:0.315126 20:0.604869 21:0.13624 22:0.330592 23:0.59228 24:0.130445 25:0.314324 26:0.584862 27:0.211531 
72.07027168339141 1:0.083333 2:0.290274 3:0.071504 4:0.1 5:0.461748 6:0.114599 7:0.098361 8:0.565534 9:0.199641 10:0.122222 11:0.579343 12:0.210963 13:0.125954 14:0.586192 15:0.210083 16:0.125 17:0.561992 18:0.209616 19:0.12605 20:0.503991 21:0.18848 22:0.128289 23:0.458952 24:0.181663 25:0.128647 26:0.37246 27:0.184522 
107.8790143647545 2:0.471968 3:0.117953 4:0.075 5:0.554978 6:0.102835 7:0.180328 8:0.573115 9:0.149294 10:0.222222 11:0.611392 12:0.135061 13:0.236641 14:0.59263 15:0.131265 16:0.238889 17:0.600485 18:0.132719 19:0.222689 20:0.54878 21:0.119038 22:0.203947 23:0.524843 24:0.118009 25:0.202918 26:0.48984 27:0.12852 
27.16813567431439 1:0.25 2:0.279525 3:0.069891 4:0.25 5:0.342775 6:0.074441 7:0.295082 8:0.398351 9:0.095278 10:0.411111 11:0.465564 12:0.13107 13:0.465649 14:0.488034 15:0.125659 16:0.477778 17:0.467389 18:0.12985 19:0.478992 20:0.449375 21:0.121279 22:0.457237 23:0.443045 24:0.122203 25:0.450928 26:0.397541 27:0.130963 
28.81133527279892 1:0.083333 2:0.371402 3:0.137812 4:0.15 5:0.411172 6:0.076016 7:0.147541 8:0.492823 9:0.149524 10:0.144444 11:0.565967 12:0.258329 13:0.152672 14:0.549155 15:0.226883 16:0.158333 17:0.525592 18:0.220849 19:0.153361 20:0.471361 21:0.195516 22:0.144737 23:0.42288 24:0.178501 25:0.132626 26:0.372758 27:0.192626 
43.17490797830391 2:0.358965 3:0.059312 4:0.075 5:0.453525 6:0.074558 7:0.180328 8:0.473937 9:0.096547 10:0.277778 11:0.511182 12:0.100569 13:0.320611 14:0.508152 15:0.095322 16:0.338889 17:0.480862 18:0.101322 19:0.357143 20:0.424109 21:0.10059 22:0.360197 23:0.377185 24:0.094936 25:0.342175 26:0.319338 27:0.111166 
18.34246606690387 1:0.416667 2:0.493963 3:0.199079 4:0.55 5:0.555809 6:0.155846 7:0.639344 8:0.5075 9:0.179512 10:0.666667 11:0.527169 12:0.190186 13:0.641221 14:0.529256 15:0.174091 16:0.65 17:0.489346 18:0.172224 19:0.668067 20:0.426373 21:0.157399 22:0.682566 23:0.359692 24:0.149727 25:0.696286 26:0.283853 27:0.15874 
10.84186987185286 1:0.416667 2:0.440935 3:0.146248 4:0.525 5:0.490802 6:0.136779 7:0.508197 8:0.602123 9:0.181247 10:0.438889 11:0.648969 12:0.229257 13:0.381679 14:0.649478 15:0.219856 16:0.333333 17:0.62677 18:0.227689 19:0.289916 20:0.590938 21:0.21373 22:0.266447 23:0.552739 24:0.204974 25:0.250663 26:0.460818 27:0.210465 
51.50690478739288 1:0.375 2:0.318749 3:0.128961 4:0.475 5:0.370316 6:0.088833 7:0.52459 8:0.351876 9:0.114534 10:0.522222 11:0.424529 12:0.142821 13:0.48855 14:0.49197 15:0.1445 16:0.466667 17:0.499281 18:0.144766 19:0.445378 20:0.436781 21:0.130208 22:0.4375 23:0.404667 24:0.123075 25:0.435013 26:0.330002 27:0.129227 
3.660450195785348 1:0.125 2:0.431599 3:0.093873 4:0.2 5:0.554696 6:0.11537 7:0.245902 8:0.653847 9:0.15497 10:0.333333 11:0.663109 12:0.157005 13:0.381679 14:0.61675 15:0.164858 16:0.430556 17:0.5967 18:0.189989 19:0.476891 20:0.531998 21:0.177389 22:0.518092 23:0.463332 24:0.171775 25:0.555703 26:0.402337 27:0.196586 
87.35963899576895 2:0.159765 3:0.01867 5:0.193342 6:0.018107 7:0.032787 8:0.241113 9:0.029936 10:0.1 11:0.269246 12:0.045032 13:0.167939 14:0.288572 15:0.050924 16:0.2 17:0.287551 18:0.060767 19:0.197479 20:0.24901 21:0.060003 22:0.197368 23:0.182328 24:0.054827 25:0.193634 26:0.120644 27:0.056979 
225.2161933503566 2:0.287391 3:0.032308 5:0.357328 6:0.062635 7:0.04918 8:0.4463 9:0.08385 10:0.133333 11:0.487223 12:0.087236 13:0.19084 14:0.482596 15:0.089184 16:0.238889 17:0.462416 18:0.09569 19:0.268908 20:0.412816 21:0.091524 22:0.292763 23:0.352506 24:0.091253 25:0.295756 26:0.301617 27:0.101797 
50.87246133557223 2:0.264434 3:0.035552 5:0.407156 6:0.049529 7:0.016393 8:0.439626 9:0.086465 10:0.022222 11:0.469996 12:0.094654 13:0.034351 14:0.472664 15:0.089512 16:0.063889 17:0.466074 18:0.091514 19:0.090336 20:0.431361 21:0.07789 22:0.149671 23:0.383268 24:0.071517 25:0.168435 26:0.363074 27:0.090266 
4.093566597276136 1:0.375 2:0.15166 3:0.013965 4:0.575 5:0.224651 6:0.013558 7:0.655738 8:0.277421 9:0.03145 10:0.677778 11:0.318986 12:0.040442 13:0.648855 14:0.345099 15:0.043423 16:0.627778 17:0.336291 18:0.044242 19:0.596639 20:0.289641 21:0.034756 22:0.559211 23:0.23487 24:0.026084 25:0.538462 26:0.179902 27:0.021823 
2.23180149482682 1:0.458333 2:0.519902 3:0.243795 4:0.7 5:0.594089 6:0.205496 7:0.852459 8:0.592884 9:0.240465 10:0.922222 11:0.598743 12:0.257781 13:0.908397 14:0.592762 15:0.228478 16:0.894444 17:0.547009 18:0.224794 19:0.890756 20:0.486338 21:0.197989 22:0.898026 23:0.428565 24:0.183073 25:0.885942 26:0.372722 27:0.194159 
38.19867431201011 1:0.541667 2:0.135315 3:0.015384 4:0.575 5:0.23707 6:0.025593 7:0.606557 8:0.316039 9:0.035996 10:0.6 11:0.348403 12:0.045193 13:0.572519 14:0.358738 15:0.0476 16:0.555556 17:0.347725 18:0.051216 19:0.537815 20:0.303467 21:0.043194 22:0.523026 23:0.255403 24:0.036377 25:0.509284 26:0.19903 27:0.032182 
18.8351467751392 1:0.75 2:0.247893 3:0.051079 4:0.675 5:0.379395 6:0.058251 7:0.606557 8:0.436371 9:0.066868 10:0.555556 11:0.479487 12:0.071116 13:0.496183 14:0.472792 15:0.07022 16:0.461111 17:0.425867 18:0.072141 19:0.42437 20:0.345499 21:0.059997 22:0.401316 23:0.271802 24:0.044735 25:0.403183 26:0.202723 27:0.033201 
13.68229041717433 1:0.125 2:0.322508 3:0.054749 4:0.275 5:0.355822 6:0.072753 7:0.295082 8:0.36014 9:0.099425 10:0.3 11:0.378214 12:0.112742 13:0.305344 14:0.376522 15:0.110424 16:0.3 17:0.366458 18:0.109858 19:0.273109 20:0.326054 21:0.099979 22:0.253289 23:0.269305 24:0.091912 25:0.217507 26:0.218267 27:0.097502 
2.28542170042338 2:0.24521 3:0.033735 5:0.296425 6:0.032706 8:0.329563 9:0.045185 11:0.37277 12:0.053814 14:0.388122 15:0.056615 17:0.383458 18:0.060895 19:0.004202 20:0.341919 21:0.047387 22:0.003289 23:0.275585 24:0.037206 26:0.197553 27:0.030808 
6.033867964978786 2:0.180063 3:0.033742 4:0.05 5:0.304398 6:0.050563 7:0.213115 8:0.37076 9:0.055975 10:0.333333 11:0.405679 12:0.045267 13:0.374046 14:0.404205 15:0.041449 16:0.377778 17:0.392898 18:0.040031 19:0.365546 20:0.34339 21:0.033778 22:0.358553 23:0.274625 24:0.026423 25:0.352785 26:0.20209 27:0.021669 
3.301316838781519 1:0.333333 2:0.211443 3:0.027115 4:0.475 5:0.277351 6:0.03903 7:0.508197 8:0.341545 9:0.048869 10:0.5 11:0.424269 12:0.076936 13:0.442748 14:0.502617 15:0.128743 16:0.427778 17:0.575091 18:0.169222 19:0.460084 20:0.590736 21:0.166509 22:0.498355 23:0.593765 24:0.21037 25:0.529178 26:0.564298 27:0.243842 
15.16492959325177 1:0.083333 2:0.581648 3:0.201535 4:0.225 5:0.641652 6:0.269048 7:0.327869 8:0.642286 9:0.337297 10:0.344444 11:0.699563 12:0.37762 13:0.381679 14:0.683008 15:0.331186 16:0.416667 17:0.674227 18:0.337418 19:0.457983 20:0.612514 21:0.324865 22:0.490132 23:0.577005 24:0.305656 25:0.525199 26:0.544364 27:0.348287 
256 1:0.041667 2:0.351309 3:0.060899 4:0.1 5:0.412872 6:0.037832 7:0.131148 8:0.419501 9:0.060325 10:0.155556 11:0.458033 12:0.06677 13:0.160305 14:0.488398 15:0.072087 16:0.194444 17:0.502745 18:0.080413 19:0.226891 20:0.464139 21:0.075211 22:0.248355 23:0.403044 24:0.050528 25:0.257294 26:0.321079 27:0.042051 
23.31192915193297 2:0.370877 3:0.081936 4:0.075 5:0.428922 6:0.057038 7:0.131148 8:0.442475 9:0.067218 10:0.188889 11:0.508601 12:0.092072 13:0.244275 14:0.558198 15:0.083867 16:0.288889 17:0.598339 18:0.105009 19:0.336134 20:0.572795 21:0.104513 22:0.360197 23:0.566044 24:0.097814 25:0.371353 26:0.533336 27:0.11909 
59.70547307053665 2:0.238884 3:0.029954 5:0.367529 6:0.045802 7:0.032787 8:0.451592 9:0.066747 10:0.066667 11:0.488589 12:0.069569 13:0.10687 14:0.499844 15:0.07174 16:0.127778 17:0.488872 18:0.074902 19:0.161765 20:0.447218 21:0.066991 22:0.190789 23:0.394079 24:0.058896 25:0.206897 26:0.310435 27:0.046143 
256 2:0.30059 3:0.065222 5:0.329393 6:0.062669 7:0.016393 8:0.387071 9:0.077178 10:0.033333 11:0.467816 12:0.078565 13:0.08397 14:0.495124 15:0.080255 16:0.127778 17:0.475314 18:0.098817 19:0.132353 20:0.434329 21:0.093303 22:0.136513 23:0.388394 24:0.085009 25:0.155172 26:0.340795 27:0.088712 
59.37857886596115 1:0.291667 2:0.461876 3:0.100308 4:0.35 5:0.605553 6:0.092628 7:0.344262 8:0.709199 9:0.119144 10:0.344444 11:0.779504 12:0.167547 13:0.312977 14:0.759646 15:0.157583 16:0.305556 17:0.741258 18:0.186164 19:0.302521 20:0.706485 21:0.180365 22:0.315789 23:0.700966 24:0.172586 25:0.30504 26:0.647345 27:0.193574 
27.25297689646965 2:0.266113 3:0.037943 4:0.0375 5:0.455999 6:0.097348 7:0.065574 8:0.601589 9:0.117474 10:0.105556 11:0.70774 12:0.147133 13:0.118321 14:0.742433 15:0.188997 16:0.116667 17:0.746485 18:0.226749 19:0.113445 20:0.734586 21:0.200545 22:0.113487 23:0.730522 24:0.189243 25:0.111406 26:0.680563 27:0.200765 
50.48404012362223 1:0.5 2:0.184569 3:0.033715 4:0.375 5:0.269984 6:0.026537 7:0.295082 8:0.30891 9:0.030046 10:0.233333 11:0.342234 12:0.040832 13:0.175573 14:0.385207 15:0.044426 16:0.152778 17:0.443544 18:0.08669 19:0.163866 20:0.443377 21:0.091446 22:0.175987 23:0.425297 24:0.074443 25:0.180371 26:0.402993 27:0.081323 
1.111749383224584 1:0.166667 2:0.440672 3:0.119891 4:0.325 5:0.464287 6:0.102991 7:0.42623 8:0.456456 9:0.126359 10:0.422222 11:0.507001 12:0.144693 13:0.396947 14:0.55714 15:0.150761 16:0.394444 17:0.524987 18:0.156556 19:0.390756 20:0.449386 21:0.133833 22:0.388158 23:0.40921 24:0.118962 25:0.384615 26:0.346121 27:0.135189 
65.62892917911188 1:0.208333 2:0.296852 3:0.018896 4:0.325 5:0.29465 6:0.035328 7:0.393443 8:0.343147 9:0.064552 10:0.311111 11:0.424048 12:0.088357 13:0.259542 14:0.463603 15:0.090608 16:0.233333 17:0.457844 18:0.090407 19:0.214286 20:0.443191 21:0.088648 22:0.220395 23:0.431715 24:0.078169 25:0.225464 26:0.380358 27:0.082027 
2.112066423436377 1:0.958333 2:0.227588 3:0.019444 4:1 5:0.362284 6:0.101025 7:0.901639 8:0.473633 9:0.140405 10:0.8 11:0.524529 12:0.11878 13:0.679389 14:0.569812 15:0.125709 16:0.605556 17:0.578502 18:0.140565 19:0.567227 20:0.626215 21:0.15807 22:0.549342 23:0.674848 24:0.181154 25:0.551724 26:0.635104 27:0.185977 
29.70560973641076 1:0.041667 2:0.22548 3:0.040076 4:0.125 5:0.31458 6:0.043096 7:0.196721 8:0.386842 9:0.060677 10:0.255556 11:0.479317 12:0.07988 13:0.290076 14:0.500435 15:0.091379 16:0.294444 17:0.495492 18:0.08905 19:0.289916 20:0.477585 21:0.084092 22:0.282895 23:0.460943 24:0.074712 25:0.275862 26:0.400226 27:0.06788 
0.8060647644775274 1:0.916667 2:0.262432 3:0.030073 4:0.875 5:0.40406 6:0.099884 7:0.786885 8:0.522228 9:0.141977 10:0.711111 11:0.568246 12:0.120837 13:0.625954 14:0.60354 15:0.129014 16:0.577778 17:0.60242 18:0.145851 19:0.554622 20:0.654885 21:0.173656 22:0.546053 23:0.700511 24:0.189767 25:0.559682 26:0.668198 27:0.203609 
0.3198100111853012 1:0.125 2:0.415868 3:0.08684 4:0.15 5:0.61118 6:0.119418 7:0.295082 8:0.678865 9:0.117278 10:0.394444 11:0.689412 12:0.174499 13:0.454198 14:0.644771 15:0.201198 16:0.486111 17:0.579708 18:0.225249 19:0.506303 20:0.544914 21:0.222229 22:0.539474 23:0.52392 24:0.230583 25:0.564987 26:0.442393 27:0.24278 
53.84937191593849 1:0.166667 2:0.292056 3:0.023136 4:0.25 5:0.38811 6:0.030943 7:0.409836 8:0.424873 9:0.05612 10:0.466667 11:0.463431 12:0.064667 13:0.480916 14:0.438824 15:0.066376 16:0.477778 17:0.42062 18:0.065024 19:0.453782 20:0.375824 21:0.053642 22:0.447368 23:0.305614 24:0.038783 25:0.445623 26:0.23808 27:0.032076 
11.71135795090153 1:0.375 2:0.38528 3:0.139905 4:0.375 5:0.626169 6:0.12942 7:0.327869 8:0.815989 9:0.153445 10:0.355556 11:0.852218 12:0.174565 13:0.343511 14:0.851531 15:0.195444 16:0.322222 17:0.827603 18:0.210181 19:0.319328 20:0.770815 21:0.203543 22:0.332237 23:0.719742 24:0.19307 25:0.352785 26:0.636659 27:0.199559 
96.70166392554344 1:0.041667 2:0.300398 3:0.07441 4:0.15 5:0.406123 6:0.071792 7:0.196721 8:0.467044 9:0.092453 10:0.255556 11:0.522969 12:0.095965 13:0.328244 14:0.533748 15:0.100058 16:0.35 17:0.503845 18:0.098427 19:0.298319 20:0.452959 21:0.084795 22:0.279605 23:0.431786 24:0.082505 25:0.267905 26:0.397919 27:0.099611 
44.32042468757387 2:0.253572 3:0.035119 5:0.354024 6:0.039499 8:0.398653 9:0.053811 10:0.011111 11:0.429442 12:0.056519 13:0.007634 14:0.45099 15:0.056254 16:0.005556 17:0.437604 18:0.058896 19:0.004202 20:0.378374 21:0.047793 22:0.003289 23:0.300295 24:0.039519 26:0.226629 27:0.031881 
5.176569945787858 1:0.041667 2:0.197267 3:0.02841 4:0.175 5:0.257031 6:0.032583 7:0.295082 8:0.254925 9:0.042749 10:0.333333 11:0.283677 12:0.04344 13:0.305344 14:0.292199 15:0.046166 16:0.277778 17:0.279211 18:0.05165 19:0.260504 20:0.227051 21:0.050104 22:0.246711 23:0.158363 24:0.045978 25:0.233422 26:0.105994 27:0.047941 
256 2:0.222256 3:0.025811 5:0.363674 6:0.037632 7:0.016393 8:0.447079 9:0.077206 10:0.055556 11:0.510895 12:0.071913 13:0.08397 14:0.514278 15:0.073704 16:0.108333 17:0.477567 18:0.070503 19:0.12605 20:0.424984 21:0.058444 22:0.151316 23:0.372779 24:0.05231 25:0.172414 26:0.306792 27:0.050817 
28.49556774339217 2:0.336305 3:0.038823 4:0.175 5:0.428548 6:0.050644 7:0.360656 8:0.423397 9:0.057856 10:0.422222 11:0.444399 12:0.066661 13:0.381679 14:0.467692 15:0.06467 16:0.355556 17:0.463518 18:0.05859 19:0.344538 20:0.402694 21:0.049031 22:0.355263 23:0.342637 24:0.036773 25:0.355438 26:0.26478 27:0.030647 
230.4955211692588 1:0.041667 2:0.422467 3:0.061326 4:0.1 5:0.437641 6:0.069123 7:0.147541 8:0.524318 9:0.083877 10:0.177778 11:0.584991 12:0.110235 13:0.183206 14:0.612151 15:0.107147 16:0.177778 17:0.621761 18:0.116812 19:0.178571 20:0.600433 21:0.114749 22:0.195724 23:0.643023 24:0.127973 25:0.214854 26:0.632361 27:0.167523 
111.7422615233756 1:0.083333 2:0.462398 3:0.157252 4:0.175 5:0.516503 6:0.087525 7:0.262295 8:0.51941 9:0.097414 10:0.288889 11:0.563833 12:0.102402 13:0.29771 14:0.590692 15:0.101039 16:0.305556 17:0.575802 18:0.10704 19:0.310924 20:0.519187 21:0.096477 22:0.292763 23:0.483894 24:0.086537 25:0.281167 26:0.450231 27:0.086648 
188.8111744508669 2:0.238345 3:0.027124 5:0.294231 6:0.036177 8:0.422818 9:0.0679 10:0.044444 11:0.513201 12:0.082695 13:0.08397 14:0.515259 15:0.070504 16:0.113889 17:0.477542 18:0.070593 19:0.12605 20:0.417532 21:0.060973 22:0.148026 23:0.373449 24:0.053219 25:0.167109 26:0.320513 27:0.050074 
18.01615217782308 1:0.041667 2:0.471937 3:0.068545 4:0.325 5:0.641009 6:0.10344 7:0.557377 8:0.602185 9:0.139505 10:0.555556 11:0.738596 12:0.214908 13:0.48855 14:0.800867 15:0.225734 16:0.438889 17:0.782087 18:0.236514 19:0.407563 20:0.732015 21:0.221769 22:0.365132 23:0.731863 24:0.199343 25:0.33687 26:0.669975 27:0.200918 
119.9241902413961 2:0.269458 3:0.022784 4:0.0375 5:0.355587 6:0.054191 7:0.131148 8:0.456576 9:0.095118 10:0.161111 11:0.536452 12:0.086664 13:0.194656 14:0.633838 15:0.126988 16:0.219444 17:0.668712 18:0.143641 19:0.235294 20:0.659969 21:0.134255 22:0.245066 23:0.652084 24:0.129174 25:0.251989 26:0.622203 27:0.158556 
52.286502009468 2:0.317042 3:0.050738 4:0.025 5:0.374419 6:0.047616 7:0.016393 8:0.441675 9:0.051941 10:0.011111 11:0.472604 12:0.056392 13:0.007634 14:0.465902 15:0.058505 16:0.005556 17:0.452292 18:0.057744 19:0.004202 20:0.393131 21:0.04512 22:0.006579 23:0.319374 24:0.033219 25:0.002653 26:0.246516 27:0.033042 
189.9069074181059 1:0.041667 2:0.371308 3:0.045057 4:0.05 5:0.494469 6:0.051918 7:0.057377 8:0.491214 9:0.070619 10:0.05 11:0.48326 12:0.086678 13:0.034351 14:0.47341 15:0.082924 16:0.025 17:0.467393 18:0.08954 19:0.069328 20:0.450115 21:0.081048 22:0.113487 23:0.412555 24:0.066508 25:0.139257 26:0.35029 27:0.065294 
30.10205238659546 1:0.125 2:0.509427 3:0.149144 4:0.325 5:0.600773 6:0.13882 7:0.459016 8:0.544369 9:0.165738 10:0.566667 11:0.554003 12:0.170316 13:0.625954 14:0.515653 15:0.165203 16:0.661111 17:0.492822 18:0.161355 19:0.642857 20:0.446673 21:0.132002 22:0.611842 23:0.406509 24:0.110772 25:0.594164 26:0.388579 27:0.128319 
186.9742715382923 2:0.308217 3:0.04409 4:0.025 5:0.454317 6:0.055352 7:0.032787 8:0.466524 9:0.087383 10:0.038889 11:0.48047 12:0.091842 13:0.034351 14:0.47596 15:0.085916 16:0.058333 17:0.468722 18:0.090324 19:0.086135 20:0.43566 21:0.076754 22:0.133224 23:0.39596 24:0.067268 25:0.149867 26:0.375425 27:0.087253 
8.464286530597262 1:0.083333 2:0.459045 3:0.101443 4:0.225 5:0.485248 6:0.106137 7:0.295082 8:0.558076 9:0.118049 10:0.322222 11:0.625266 12:0.152862 13:0.335878 14:0.664571 15:0.151252 16:0.344444 17:0.702892 18:0.19095 19:0.37395 20:0.706224 21:0.214752 22:0.384868 23:0.704941 24:0.193059 25:0.381963 26:0.651254 27:0.213131 
0.9854440995723366 1:0.166667 2:0.409869 3:0.123044 4:0.325 5:0.599315 6:0.17778 7:0.491803 8:0.688473 9:0.219284 10:0.577778 11:0.731594 12:0.245294 13:0.541985 14:0.760313 15:0.243751 16:0.511111 17:0.774783 18:0.258592 19:0.466387 20:0.712421 21:0.213877 22:0.430921 23:0.663005 24:0.20054 25:0.411141 26:0.593775 27:0.210984 
13.23634621910991 1:0.083333 2:0.423354 3:0.214493 4:0.1 5:0.570892 6:0.210468 7:0.098361 8:0.589963 9:0.203003 10:0.094444 11:0.628541 12:0.200505 13:0.08397 14:0.715247 15:0.206068 16:0.097222 17:0.748817 18:0.231032 19:0.111345 20:0.722843 21:0.195346 22:0.118421 23:0.725491 24:0.168929 25:0.118037 26:0.695247 27:0.183826 
226.8402459549068 2:0.230477 3:0.012653 5:0.354237 6:0.019407 7:0.04918 8:0.394139 9:0.045696 10:0.1 11:0.484841 12:0.079918 13:0.137405 14:0.546555 15:0.08846 16:0.194444 17:0.566785 18:0.094322 19:0.247899 20:0.524992 21:0.084951 22:0.273026 23:0.484763 24:0.078261 25:0.29443 26:0.427942 27:0.085304 
122.6859572654246 1:0.125 2:0.401999 3:0.087495 4:0.175 5:0.505406 6:0.099823 7:0.262295 8:0.564735 9:0.135079 10:0.322222 11:0.645797 12:0.133878 13:0.328244 14:0.685318 15:0.169332 16:0.35 17:0.710432 18:0.216101 19:0.361345 20:0.715877 21:0.214547 22:0.384868 23:0.715014 24:0.205084 25:0.395225 26:0.663643 27:0.215581 
3.96031992242803 1:0.125 2:0.474283 3:0.184962 4:0.3 5:0.637654 6:0.190993 7:0.491803 8:0.701143 9:0.229034 10:0.544444 11:0.743713 12:0.247239 13:0.519084 14:0.757605 15:0.242175 16:0.488889 17:0.759092 18:0.243351 19:0.462185 20:0.690214 21:0.214528 22:0.440789 23:0.648813 24:0.194954 25:0.427056 26:0.590529 27:0.208549 
18.44573122398863 1:0.0625 2:0.435308 3:0.094497 4:0.075 5:0.564763 6:0.120963 7:0.073771 8:0.623254 9:0.171113 10:0.083333 11:0.672219 12:0.201879 13:0.068702 14:0.729284 15:0.198419 16:0.075 17:0.745967 18:0.21882 19:0.086135 20:0.713685 21:0.183556 22:0.09704 23:0.681572 24:0.167643 25:0.100796 26:0.649116 27:0.187803 
6.72978804192234 1:0.291667 2:0.348953 3:0.044959 4:0.375 5:0.433383 6:0.070708 7:0.442623 8:0.468747 9:0.094829 10:0.488889 11:0.502944 12:0.136605 13:0.541985 14:0.543139 15:0.152284 16:0.580556 17:0.508572 18:0.162143 19:0.607143 20:0.448509 21:0.153853 22:0.626645 23:0.426455 24:0.168396 25:0.643236 26:0.37177 27:0.166767 
132.3146673773857 1:0.125 2:0.426336 3:0.102862 4:0.225 5:0.499173 6:0.096122 7:0.311475 8:0.508994 9:0.114637 10:0.344444 11:0.547178 12:0.148781 13:0.358779 14:0.581237 15:0.153261 16:0.355556 17:0.561804 18:0.130403 19:0.352941 20:0.499029 21:0.110734 22:0.345395 23:0.445598 24:0.090123 25:0.318302 26:0.408812 27:0.0857 
1.894441328824836 1:0.083333 2:0.253481 3:0.164113 4:0.125 5:0.353745 6:0.197504 7:0.278689 8:0.436848 9:0.262549 10:0.366667 11:0.518446 12:0.332514 13:0.435115 14:0.542267 15:0.324423 16:0.494444 17:0.534697 18:0.344425 19:0.546218 20:0.500692 21:0.337287 22:0.572368 23:0.466329 24:0.316068 25:0.586207 26:0.414654 27:0.34131 
110.8156810978131 2:0.47567 3:0.089221 4:0.05 5:0.570937 6:0.079833 7:0.147541 8:0.637276 9:0.121388 10:0.233333 11:0.708867 12:0.160765 13:0.282443 14:0.727013 15:0.15046 16:0.3 17:0.733431 18:0.177493 19:0.319328 20:0.732745 21:0.202663 22:0.322368 23:0.745684 24:0.203522 25:0.323607 26:0.674018 27:0.21248 
153.8984681655221 2:0.320284 3:0.070607 4:0.025 5:0.304047 6:0.076014 7:0.04918 8:0.358744 9:0.084671 10:0.111111 11:0.445976 12:0.086012 13:0.160305 14:0.486165 15:0.085973 16:0.161111 17:0.492435 18:0.098297 19:0.151261 20:0.453148 21:0.100608 22:0.152961 23:0.40937 24:0.09451 25:0.168435 26:0.342317 27:0.101459 
256 1:0.041667 2:0.337919 3:0.095758 4:0.075 5:0.445591 6:0.07208 7:0.114754 8:0.530166 9:0.082402 10:0.133333 11:0.564296 12:0.111965 13:0.152672 14:0.591758 15:0.109499 16:0.155556 17:0.616468 18:0.120289 19:0.165966 20:0.597042 21:0.112944 22:0.172697 23:0.608068 24:0.117605 25:0.180371 26:0.614329 27:0.148942 
61.21730549047116 1:0.083333 2:0.40582 3:0.081592 4:0.275 5:0.480195 6:0.097803 7:0.409836 8:0.525787 9:0.119851 10:0.366667 11:0.566182 12:0.121024 13:0.320611 14:0.540411 15:0.112388 16:0.3 17:0.508752 18:0.124161 19:0.281513 20:0.482883 21:0.121541 22:0.286184 23:0.438498 24:0.088906 25:0.291777 26:0.371042 27:0.084002 
100.2809794333273 1:0.25 2:0.363816 3:0.077146 4:0.275 5:0.406999 6:0.089482 7:0.278689 8:0.400974 9:0.116929 10:0.3 11:0.420796 12:0.127691 13:0.282443 14:0.419286 15:0.119284 16:0.277778 17:0.396585 18:0.125936 19:0.277311 20:0.35214 21:0.115307 22:0.243421 23:0.320058 24:0.103988 25:0.214854 26:0.283442 27:0.122634 
53.34477809668795 2:0.091458 3:0.005806 4:0.075 5:0.258058 6:0.045214 7:0.213115 8:0.354838 9:0.06006 10:0.3 11:0.376188 12:0.072868 13:0.374046 14:0.430244 15:0.080386 16:0.411111 17:0.426841 18:0.092281 19:0.411765 20:0.420814 21:0.103697 22:0.424342 23:0.391961 24:0.099562 25:0.419098 26:0.347736 27:0.104527 
3.032863951899896 1:0.020833 2:0.331274 3:0.096312 4:0.05 5:0.485279 6:0.154296 7:0.065574 8:0.550289 9:0.208261 10:0.072222 11:0.675285 12:0.187872 13:0.091603 14:0.76697 15:0.215102 16:0.116667 17:0.765695 18:0.223402 19:0.132353 20:0.724564 21:0.199476 22:0.129934 23:0.759566 24:0.181251 25:0.122016 26:0.741759 27:0.18813 
31.29135053696326 2:0.488819 3:0.12068 4:0.1 5:0.619495 6:0.162467 7:0.172131 8:0.650501 9:0.227279 10:0.205556 11:0.702033 12:0.25292 13:0.187023 14:0.725889 15:0.246249 16:0.177778 17:0.71278 18:0.245776 19:0.17437 20:0.637738 21:0.222574 22:0.171053 23:0.578123 24:0.202301 25:0.168435 26:0.491839 27:0.203551 
72.05769090820564 1:0.291667 2:0.320783 3:0.075886 4:0.3 5:0.365837 6:0.078035 7:0.393443 8:0.417124 9:0.081203 10:0.433333 11:0.450043 12:0.095619 13:0.48855 14:0.456098 15:0.108388 16:0.522222 17:0.460548 18:0.14068 19:0.554622 20:0.4232 21:0.13689 22:0.565789 23:0.373821 24:0.118362 25:0.543767 26:0.346819 27:0.128845 
17.99226203396703 1:0.375 2:0.387534 3:0.133039 4:0.4 5:0.502003 6:0.188345 7:0.508197 8:0.546304 9:0.213284 10:0.522222 11:0.576801 12:0.199792 13:0.48855 14:0.625115 15:0.197907 16:0.483333 17:0.633007 18:0.216631 19:0.495798 20:0.584802 21:0.20306 22:0.486842 23:0.592141 24:0.200749 25:0.488064 26:0.548802 27:0.2277 
74.77921414584701 1:0.166667 2:0.454904 3:0.085762 4:0.2 5:0.546788 6:0.089118 7:0.245902 8:0.542035 9:0.125488 10:0.333333 11:0.557859 12:0.14712 13:0.351145 14:0.555232 15:0.153631 16:0.355556 17:0.563005 18:0.170533 19:0.352941 20:0.529083 21:0.157736 22:0.351974 23:0.470253 24:0.137695 25:0.34748 26:0.406425 27:0.142497 
78.82990944352984 2:0.29052 3:0.029898 5:0.360707 6:0.066959 7:0.114754 8:0.459525 9:0.08738 10:0.2 11:0.497552 12:0.094652 13:0.259542 14:0.497701 15:0.089244 16:0.294444 17:0.468317 18:0.096312 19:0.319328 20:0.412387 21:0.092634 22:0.319079 23:0.370743 24:0.085795 25:0.309019 26:0.306771 27:0.09805 
7.212386651641897 1:0.083333 2:0.543005 3:0.147941 4:0.1875 5:0.690483 6:0.136119 7:0.254098 8:0.734419 9:0.213876 10:0.216667 11:0.757436 12:0.281327 13:0.198473 14:0.732863 15:0.260438 16:0.191667 17:0.711068 18:0.259684 19:0.184874 20:0.670389 21:0.228649 22:0.179276 23:0.607327 24:0.204094 25:0.167109 26:0.50624 27:0.210407 
1.076165811923034 1:0.416667 2:0.555193 3:0.172979 4:0.6 5:0.59355 6:0.184347 7:0.754098 8:0.589875 9:0.215434 10:0.822222 11:0.620785 12:0.233031 13:0.832061 14:0.596705 15:0.216121 16:0.85 17:0.556629 18:0.213291 19:0.848739 20:0.497006 21:0.19998 22:0.822368 23:0.454669 24:0.186045 25:0.785146 26:0.40524 27:0.211877 
5.272725471720424 1:0.125 2:0.34154 3:0.061406 4:0.225 5:0.449178 6:0.114382 7:0.360656 8:0.494478 9:0.141745 10:0.488889 11:0.538449 12:0.159891 13:0.557252 14:0.533774 15:0.150896 16:0.555556 17:0.518336 18:0.15577 19:0.546218 20:0.462853 21:0.138293 22:0.536184 23:0.396711 24:0.123195 25:0.514589 26:0.345455 27:0.129157 
3.818539594230362 1:0.375 2:0.165577 3:0.015881 4:0.45 5:0.255016 6:0.028434 7:0.491803 8:0.310943 9:0.044155 10:0.455556 11:0.444744 12:0.123204 13:0.412214 14:0.524739 15:0.15129 16:0.405556 17:0.573551 18:0.160722 19:0.443277 20:0.625801 21:0.219232 22:0.498355 23:0.625046 24:0.223027 25:0.539788 26:0.548188 27:0.232825 
2.33141308018888 1:0.5 2:0.500273 3:0.306824 4:0.5 5:0.671742 6:0.263363 7:0.508197 8:0.744317 9:0.268575 10:0.555556 11:0.786647 12:0.308954 13:0.572519 14:0.792333 15:0.32774 16:0.588889 17:0.759881 18:0.379819 19:0.609244 20:0.694923 21:0.330873 22:0.595395 23:0.664282 24:0.321258 25:0.587533 26:0.600627 27:0.357805 
256 2:0.241788 3:0.047341 5:0.311257 6:0.049423 8:0.381866 9:0.079267 10:0.055556 11:0.489171 12:0.122773 13:0.114504 14:0.49463 15:0.099767 16:0.161111 17:0.520386 18:0.099392 19:0.193277 20:0.521086 21:0.086632 22:0.230263 23:0.493793 24:0.07797 25:0.259947 26:0.432555 27:0.079279 
13.89498564445235 1:0.25 2:0.350214 3:0.0604 4:0.325 5:0.49977 6:0.112771 7:0.52459 8:0.626455 9:0.181905 10:0.644444 11:0.639243 12:0.185543 13:0.580153 14:0.730704 15:0.239681 16:0.516667 17:0.771748 18:0.258476 19:0.44958 20:0.724393 21:0.224659 22:0.391447 23:0.706297 24:0.207835 25:0.34748 26:0.658372 27:0.210685 
53.31229373614493 1:0.083333 2:0.362254 3:0.118111 4:0.125 5:0.474631 6:0.141844 7:0.213115 8:0.524187 9:0.184896 10:0.255556 11:0.552221 12:0.218158 13:0.244275 14:0.577655 15:0.21059 16:0.247222 17:0.591111 18:0.219334 19:0.25 20:0.560822 21:0.204399 22:0.241776 23:0.510811 24:0.186764 25:0.230769 26:0.421098 27:0.196401 
91.57114139445538 1:0.166667 2:0.362142 3:0.080583 4:0.35 5:0.350774 6:0.102596 7:0.393443 8:0.373755 9:0.119217 10:0.422222 11:0.485507 12:0.14745 13:0.40458 14:0.50343 15:0.127736 16:0.394444 17:0.483227 18:0.131237 19:0.386555 20:0.445169 21:0.123953 22:0.391447 23:0.404845 24:0.123342 25:0.392573 26:0.334807 27:0.125548 
61.91315940005377 2:0.20948 3:0.034812 4:0.05 5:0.278131 6:0.04649 7:0.163934 8:0.298332 9:0.065627 10:0.233333 11:0.323858 12:0.083847 13:0.244275 14:0.333585 15:0.086673 16:0.255556 17:0.328423 18:0.091771 19:0.247899 20:0.29279 21:0.087601 22:0.226974 23:0.229232 24:0.080644 25:0.214854 26:0.168657 27:0.080566 
83.20110197781372 2:0.225023 3:0.021923 5:0.326951 6:0.048791 7:0.04918 8:0.439007 9:0.085002 10:0.116667 11:0.547188 12:0.090125 13:0.183206 14:0.614641 15:0.11092 16:0.219444 17:0.637937 18:0.131624 19:0.264706 20:0.631983 21:0.121539 22:0.291118 23:0.637044 24:0.127128 25:0.299735 26:0.61888 27:0.158729 
109.6485225239707 2:0.230751 3:0.020652 5:0.346434 6:0.054369 7:0.163934 8:0.40294 9:0.072259 10:0.288889 11:0.436549 12:0.086294 13:0.290076 14:0.472263 15:0.090197 16:0.277778 17:0.491177 18:0.086489 19:0.281513 20:0.460999 21:0.084642 22:0.273026 23:0.425268 24:0.076885 25:0.251989 26:0.384082 27:0.081787 
6.60670930029563 1:0.041667 2:0.323801 3:0.098349 4:0.1 5:0.3759 6:0.063628 7:0.098361 8:0.457902 9:0.13774 10:0.1 11:0.524976 12:0.247371 13:0.114504 14:0.531131 15:0.221424 16:0.125 17:0.523149 18:0.216057 19:0.12395 20:0.473885 21:0.190078 22:0.125 23:0.414408 24:0.175734 25:0.124668 26:0.358819 27:0.190616 
103.5687987017851 1:0.333333 2:0.412031 3:0.131662 4:0.275 5:0.472125 6:0.116802 7:0.221311 8:0.508595 9:0.202299 10:0.25 11:0.617355 12:0.207157 13:0.28626 14:0.645556 15:0.204408 16:0.3 17:0.632711 18:0.214254 19:0.302521 20:0.552423 21:0.189425 22:0.279605 23:0.526662 24:0.172116 25:0.27321 26:0.484154 27:0.175652 
6.90606295020862 1:0.541667 2:0.137373 3:0.014986 4:0.675 5:0.191566 6:0.017421 7:0.819672 8:0.217983 9:0.025843 10:0.877778 11:0.273821 12:0.039282 13:0.847328 14:0.320598 15:0.042119 16:0.783333 17:0.329412 18:0.043155 19:0.710084 20:0.298789 21:0.03612 22:0.638158 23:0.250578 24:0.030825 25:0.575597 26:0.202133 27:0.029029 
22.29722752498223 1:0.375 2:0.399079 3:0.131769 4:0.475 5:0.427672 6:0.103674 7:0.508197 8:0.447578 9:0.122349 10:0.522222 11:0.507418 12:0.127026 13:0.496183 14:0.527492 15:0.123387 16:0.477778 17:0.495906 18:0.139822 19:0.483193 20:0.457272 21:0.144851 22:0.483553 23:0.401669 24:0.142388 25:0.464191 26:0.337896 27:0.162042 
72.41819726114545 2:0.27192 3:0.053154 4:0.05 5:0.323452 6:0.066167 7:0.163934 8:0.379555 9:0.095976 10:0.244444 11:0.441214 12:0.136111 13:0.29771 14:0.45486 15:0.136292 16:0.311111 17:0.445214 18:0.144002 19:0.319328 20:0.399102 21:0.140496 22:0.342105 23:0.344764 24:0.129557 25:0.366048 26:0.268275 27:0.130931 
10.67761422167014 1:0.416667 2:0.455796 3:0.136409 4:0.5 5:0.504747 6:0.146651 7:0.491803 8:0.625355 9:0.212946 10:0.444444 11:0.669033 12:0.240743 13:0.374046 14:0.65482 15:0.22307 16:0.313889 17:0.625185 18:0.224367 19:0.264706 20:0.584642 21:0.208781 22:0.243421 23:0.547826 24:0.201556 25:0.232095 26:0.456768 27:0.206845 
81.01304440870595 2:0.431952 3:0.111889 4:0.075 5:0.559435 6:0.151347 7:0.213115 8:0.584083 9:0.193309 10:0.233333 11:0.624444 12:0.226852 13:0.232824 14:0.629994 15:0.224064 16:0.230556 17:0.632667 18:0.235075 19:0.22479 20:0.598978 21:0.216156 22:0.217105 23:0.537163 24:0.195231 25:0.20557 26:0.443959 27:0.203048 
35.18203361117878 2:0.367572 3:0.049205 4:0.05 5:0.474314 6:0.093046 7:0.196721 8:0.536653 9:0.109373 10:0.333333 11:0.556017 12:0.140663 13:0.427481 14:0.546564 15:0.137245 16:0.483333 17:0.550543 18:0.167848 19:0.529412 20:0.512953 21:0.158499 22:0.564145 23:0.436657 24:0.142583 25:0.592838 26:0.34803 27:0.157769 
256 1:0.166667 2:0.370398 3:0.083061 4:0.175 5:0.433473 6:0.123334 7:0.245902 8:0.468697 9:0.141437 10:0.322222 11:0.495249 12:0.141884 13:0.343511 14:0.547584 15:0.133467 16:0.355556 17:0.566091 18:0.147654 19:0.361345 20:0.523111 21:0.129221 22:0.358553 23:0.458895 24:0.107684 25:0.366048 26:0.388507 27:0.106921 
39.8835584773292 1:0.208333 2:0.222227 3:0.022339 4:0.275 5:0.245259 6:0.023809 7:0.295082 8:0.29649 9:0.028759 10:0.233333 11:0.374489 12:0.044266 13:0.198473 14:0.424998 15:0.064422 16:0.211111 17:0.442402 18:0.07303 19:0.214286 20:0.439236 21:0.076063 22:0.217105 23:0.445199 24:0.081388 25:0.222812 26:0.416367 27:0.098388 
0.6748625956402663 1:0.625 2:0.417165 3:0.238479 4:0.8 5:0.513899 6:0.203323 7:0.934426 8:0.528992 9:0.233439 10:0.988889 11:0.567327 12:0.241847 13:0.954198 14:0.553272 15:0.221754 16:0.933333 17:0.530908 18:0.215234 19:0.911765 20:0.471669 21:0.191655 22:0.914474 23:0.416827 24:0.172936 25:0.912467 26:0.361168 27:0.182805 
1.336193449097765 1:0.125 2:0.29732 3:0.039056 4:0.475 5:0.395327 6:0.038884 7:0.672131 8:0.392533 9:0.057394 10:0.755556 11:0.48142 12:0.125802 13:0.763359 14:0.554028 15:0.228935 16:0.786111 17:0.566315 18:0.256005 19:0.783613 20:0.525481 21:0.245441 22:0.779605 23:0.528346 24:0.253854 25:0.782493 26:0.492807 27:0.272282 
28.13982779873096 1:0.291667 2:0.215229 3:0.030657 4:0.4 5:0.214873 6:0.026992 7:0.442623 8:0.234397 9:0.029777 10:0.411111 11:0.263413 12:0.03486 13:0.351145 14:0.271577 15:0.035857 16:0.316667 17:0.26688 18:0.04204 19:0.298319 20:0.21562 21:0.038121 22:0.279605 23:0.140989 24:0.036177 25:0.249337 26:0.094198 27:0.040085 
5.725174739404477 1:0.291667 2:0.325335 3:0.068711 4:0.45 5:0.432476 6:0.076355 7:0.590164 8:0.442655 9:0.106761 10:0.644444 11:0.486116 12:0.127105 13:0.633588 14:0.48608 15:0.126904 16:0.611111 17:0.462661 18:0.126398 19:0.596639 20:0.447412 21:0.158351 22:0.592105 23:0.435249 24:0.180975 25:0.598143 26:0.416281 27:0.251274 
256 1:0.125 2:0.371274 3:0.108925 4:0.175 5:0.508086 6:0.100249 7:0.213115 8:0.526673 9:0.115165 10:0.233333 11:0.56125 12:0.126473 13:0.259542 14:0.544485 15:0.123185 16:0.283333 17:0.50813 18:0.134815 19:0.289916 20:0.469105 21:0.127298 22:0.296053 23:0.415985 24:0.11764 25:0.297082 26:0.366609 27:0.123346 
14.51940210979381 1:0.333333 2:0.515097 3:0.173415 4:0.4 5:0.588109 6:0.150486 7:0.42623 8:0.615054 9:0.16668 10:0.466667 11:0.659246 12:0.167571 13:0.458015 14:0.657857 15:0.166765 16:0.497222 17:0.608781 18:0.182123 19:0.518908 20:0.547773 21:0.171615 22:0.549342 23:0.489458 24:0.149973 25:0.554377 26:0.400952 27:0.141687 
0.6250913706562728 1:0.458333 2:0.306413 3:0.101431 4:0.425 5:0.385202 6:0.074083 7:0.360656 8:0.356603 9:0.083086 10:0.333333 11:0.461939 12:0.109062 13:0.351145 14:0.542801 15:0.152795 16:0.388889 17:0.548723 18:0.168963 19:0.39916 20:0.501795 21:0.162103 22:0.373355 23:0.494347 24:0.155378 25:0.346154 26:0.43629 27:0.160099 
26.25646687715005 1:0.041667 2:0.435467 3:0.172325 4:0.2125 5:0.582699 6:0.152633 7:0.270492 8:0.670876 9:0.173315 10:0.311111 11:0.715238 12:0.184616 13:0.320611 14:0.694473 15:0.164789 16:0.341667 17:0.667637 18:0.155491 19:0.346639 20:0.606844 21:0.14027 22:0.386513 23:0.556732 24:0.129718 25:0.401857 26:0.487097 27:0.135626 
256 1:0.041667 2:0.376357 3:0.077049 4:0.175 5:0.441369 6:0.088101 7:0.245902 8:0.477097 9:0.116342 10:0.311111 11:0.523603 12:0.137132 13:0.332061 14:0.516838 15:0.138311 16:0.355556 17:0.494868 18:0.167045 19:0.369748 20:0.467096 21:0.174292 22:0.368421 23:0.430576 24:0.165634 25:0.370027 26:0.379401 27:0.18618 
2.208485911070222 1:0.75 2:0.163992 3:0.042563 4:0.825 5:0.17797 6:0.029233 7:0.901639 8:0.199385 9:0.031322 10:0.966667 11:0.25395 12:0.051117 13:0.984733 14:0.26217 15:0.046405 16:0.994444 17:0.24558 18:0.041401 19:1 20:0.194831 21:0.030305 22:1 23:0.100353 24:0.018671 25:1 26:0.013356 27:0.010618 
26.95958630774787 1:0.375 2:0.348782 3:0.113491 4:0.45 5:0.46104 6:0.114892 7:0.459016 8:0.458758 9:0.133292 10:0.444444 11:0.563333 12:0.141302 13:0.419847 14:0.610922 15:0.158699 16:0.411111 17:0.616519 18:0.167917 19:0.39916 20:0.633997 21:0.178959 22:0.404605 23:0.660052 24:0.203107 25:0.408488 26:0.608009 27:0.212311 
16.26914587673835 1:0.416667 2:0.57933 3:0.138219 4:0.375 5:0.696729 6:0.15063 7:0.311475 8:0.68773 9:0.201028 10:0.255556 11:0.816493 12:0.191131 13:0.244275 14:0.86545 15:0.188904 16:0.277778 17:0.82292 18:0.206804 19:0.323529 20:0.757059 21:0.203777 22:0.338816 23:0.706859 24:0.191929 25:0.344828 26:0.599262 27:0.20098 
44.11603757325268 1:0.25 2:0.420652 3:0.124082 4:0.325 5:0.484138 6:0.150285 7:0.409836 8:0.507402 9:0.201697 10:0.438889 11:0.555002 12:0.238439 13:0.442748 14:0.563323 15:0.246433 16:0.441667 17:0.546629 18:0.253843 19:0.432773 20:0.517927 21:0.239381 22:0.424342 23:0.471656 24:0.208051 25:0.404509 26:0.394592 27:0.203277 
256 1:0.041667 2:0.33998 3:0.027612 4:0.075 5:0.344257 6:0.032441 7:0.073771 8:0.393013 9:0.053836 10:0.05 11:0.47874 12:0.07625 13:0.072519 14:0.495249 15:0.070218 16:0.080556 17:0.470017 18:0.07516 19:0.073529 20:0.433364 21:0.067308 22:0.070724 23:0.403403 24:0.065926 25:0.091512 26:0.349003 27:0.072783 
110.7885426504915 2:0.164276 3:0.02058 5:0.230036 6:0.017581 8:0.246743 9:0.023663 11:0.306703 12:0.06795 13:0.015267 14:0.370893 15:0.113529 16:0.033333 17:0.408862 18:0.148416 19:0.052521 20:0.394417 21:0.149631 22:0.064145 23:0.348561 24:0.144368 25:0.06366 26:0.301537 27:0.161173 
100.7708419807038 2:0.431423 3:0.04338 4:0.1 5:0.529347 6:0.050277 7:0.229508 8:0.517343 9:0.077445 10:0.3 11:0.57823 12:0.088685 13:0.29771 14:0.598424 15:0.082342 16:0.3 17:0.586059 18:0.091157 19:0.287815 20:0.573714 21:0.09306 22:0.271382 23:0.552928 24:0.086927 25:0.258621 26:0.50588 27:0.099469 
0.2225099395643925 1:0.458333 2:0.21838 3:0.048432 4:0.55 5:0.270344 6:0.036447 7:0.754098 8:0.29843 9:0.048563 10:0.855556 11:0.297568 12:0.046948 13:0.885496 14:0.288802 15:0.040922 16:0.911111 17:0.261368 18:0.040021 19:0.915966 20:0.193161 21:0.031075 22:0.914474 23:0.099636 24:0.023779 25:0.901857 26:0.021662 27:0.02084 
44.10344262243555 2:0.281233 3:0.055373 4:0.025 5:0.436768 6:0.058294 7:0.04918 8:0.556816 9:0.101813 10:0.088889 11:0.645391 12:0.153789 13:0.103053 14:0.699259 15:0.186399 16:0.102778 17:0.725713 18:0.209325 19:0.105042 20:0.71304 21:0.196349 22:0.111842 23:0.71246 24:0.182507 25:0.104775 26:0.67429 27:0.197186 
142.7044620163966 1:0.166667 2:0.245058 3:0.015876 4:0.2 5:0.309493 6:0.029204 7:0.196721 8:0.356632 9:0.040185 10:0.233333 11:0.409105 12:0.051301 13:0.274809 14:0.421746 15:0.056836 16:0.305556 17:0.405988 18:0.057923 19:0.352941 20:0.361402 21:0.04979 22:0.384868 23:0.291822 24:0.035252 25:0.413793 26:0.213282 27:0.025263 
29.57362995990624 1:0.416667 2:0.386398 3:0.107087 4:0.55 5:0.401367 6:0.142717 7:0.655738 8:0.506806 9:0.227357 10:0.738889 11:0.576501 12:0.252831 13:0.751908 14:0.560358 15:0.239159 16:0.736111 17:0.539847 18:0.247639 19:0.720588 20:0.490615 21:0.238417 22:0.713816 23:0.442747 24:0.234594 25:0.702918 26:0.37768 27:0.24881 
8.075336407717488 1:0.25 2:0.348375 3:0.056085 4:0.55 5:0.402078 6:0.067241 7:0.737705 8:0.390701 9:0.106671 10:0.844444 11:0.424509 12:0.109833 13:0.858779 14:0.467619 15:0.181985 16:0.855556 17:0.471046 18:0.202415 19:0.842437 20:0.436958 21:0.20068 22:0.827303 23:0.402346 24:0.198659 25:0.814324 26:0.356482 27:0.210206 
256 2:0.205085 3:0.026745 4:0.025 5:0.30608 6:0.038352 7:0.114754 8:0.355756 9:0.059664 10:0.211111 11:0.406676 12:0.062984 13:0.259542 14:0.450769 15:0.05968 16:0.261111 17:0.484067 18:0.074612 19:0.260504 20:0.458349 21:0.081718 22:0.25 23:0.443305 24:0.073661 25:0.246684 26:0.409039 27:0.084474 
228.3153424405097 2:0.273315 3:0.030892 4:0.025 5:0.33801 6:0.02786 7:0.04918 8:0.37159 9:0.044758 10:0.066667 11:0.418205 12:0.055341 13:0.122137 14:0.485261 15:0.071486 16:0.177778 17:0.509025 18:0.089237 19:0.214286 20:0.459874 21:0.067608 22:0.233553 23:0.418234 24:0.054751 25:0.245358 26:0.369515 27:0.056738 
80.37328899473144 1:0.125 2:0.378232 3:0.066489 4:0.2 5:0.449764 6:0.053634 7:0.262295 8:0.474533 9:0.07309 10:0.288889 11:0.520087 12:0.081114 13:0.328244 14:0.543022 15:0.085852 16:0.377778 17:0.525338 18:0.083297 19:0.390756 20:0.532923 21:0.093805 22:0.401316 23:0.541001 24:0.09769 25:0.393899 26:0.502435 27:0.105626 
192.5819693584225 2:0.198487 3:0.073016 4:0.05 5:0.295129 6:0.085191 7:0.098361 8:0.359421 9:0.080625 10:0.122222 11:0.47467 12:0.113531 13:0.152672 14:0.559094 15:0.126536 16:0.194444 17:0.539339 18:0.109105 19:0.226891 20:0.488411 21:0.094356 22:0.25 23:0.463871 24:0.083203 25:0.254642 26:0.424739 27:0.083546 
5.283610567291185 1:0.208333 2:0.195656 3:0.017735 4:0.475 5:0.261181 6:0.030419 7:0.672131 8:0.272744 9:0.036936 10:0.8 11:0.290811 12:0.039231 13:0.854962 14:0.278959 15:0.040266 16:0.888889 17:0.264384 18:0.046312 19:0.89916 20:0.214422 21:0.04174 22:0.898026 23:0.136023 24:0.036698 25:0.888594 26:0.063321 27:0.033421 
13.08375599187987 1:0.666667 2:0.435412 3:0.19207 4:0.75 5:0.516068 6:0.185487 7:0.819672 8:0.551659 9:0.222136 10:0.877778 11:0.580461 12:0.24869 13:0.900763 14:0.580293 15:0.241966 16:0.9 17:0.550272 18:0.241694 19:0.882353 20:0.479055 21:0.209138 22:0.875 23:0.409018 24:0.178711 25:0.854111 26:0.33948 27:0.173238 
41.77330399378484 2:0.482842 3:0.084943 4:0.075 5:0.602089 6:0.084106 7:0.163934 8:0.659712 9:0.123169 10:0.266667 11:0.720456 12:0.143691 13:0.29771 14:0.724574 15:0.149603 16:0.316667 17:0.714734 18:0.168044 19:0.302521 20:0.717679 21:0.182543 22:0.299342 23:0.714151 24:0.18578 25:0.297082 26:0.663215 27:0.209043 
77.32888050346735 2:0.271093 3:0.077026 5:0.409989 6:0.067151 7:0.081967 8:0.527075 9:0.122246 10:0.211111 11:0.601632 12:0.120632 13:0.305344 14:0.609113 15:0.124804 16:0.372222 17:0.592709 18:0.145418 19:0.418067 20:0.554386 21:0.164063 22:0.475329 23:0.495194 24:0.15383 25:0.519894 26:0.408337 27:0.181971 
8.701368377900351 1:0.625 2:0.403237 3:0.186849 4:0.7 5:0.458048 6:0.185358 7:0.770492 8:0.471763 9:0.203369 10:0.788889 11:0.478806 12:0.200322 13:0.732824 14:0.48896 15:0.180358 16:0.716667 17:0.47504 18:0.177188 19:0.722689 20:0.409718 21:0.159428 22:0.728618 23:0.336963 24:0.147595 25:0.736074 26:0.260689 27:0.157036 
90.87062431071432 2:0.230466 3:0.044866 4:0.1 5:0.352291 6:0.04959 7:0.311475 8:0.385637 9:0.044414 10:0.444444 11:0.394709 12:0.04783 13:0.450382 14:0.395589 15:0.042425 16:0.433333 17:0.385184 18:0.041142 19:0.403361 20:0.336759 21:0.034902 22:0.388158 23:0.268818 24:0.026687 25:0.376658 26:0.1978 27:0.02042 
-2.78295583208274 1:0.020833 2:0.536507 3:0.1757 4:0.075 5:0.683286 6:0.22964 7:0.172131 8:0.790762 9:0.421849 10:0.238889 11:0.888138 12:0.466742 13:0.282443 14:0.897073 15:0.402683 16:0.322222 17:0.890002 18:0.435382 19:0.359244 20:0.856651 21:0.435414 22:0.396382 23:0.817332 24:0.382976 25:0.431034 26:0.703149 27:0.388461 
-203.0126542314856 1:0.041667 2:0.408216 3:0.157794 4:0.2125 5:0.517623 6:0.208376 7:0.319672 8:0.518839 9:0.168948 10:0.355556 11:0.58381 12:0.177375 13:0.351145 14:0.581607 15:0.169737 16:0.377778 17:0.549689 18:0.182955 19:0.39916 20:0.506757 21:0.172697 22:0.399671 23:0.453772 24:0.163604 25:0.387268 26:0.385234 27:0.173005 
-43.99310557851321 2:0.257756 3:0.033981 5:0.333883 6:0.041841 7:0.04918 8:0.365589 9:0.043302 10:0.1 11:0.394729 12:0.041334 13:0.129771 14:0.397392 15:0.041261 16:0.15 17:0.419122 18:0.073672 19:0.17437 20:0.411749 21:0.102348 22:0.200658 23:0.37746 24:0.107464 25:0.204244 26:0.328928 27:0.136094 
-57.55670447925241 2:0.308552 3:0.069402 5:0.387206 6:0.069329 7:0.098361 8:0.408544 9:0.064419 10:0.211111 11:0.41976 12:0.068774 13:0.251908 14:0.407788 15:0.074338 16:0.266667 17:0.396693 18:0.07656 19:0.264706 20:0.336479 21:0.065018 22:0.266447 23:0.250762 24:0.05257 25:0.265252 26:0.181627 27:0.043949 
-256 2:0.282135 3:0.065408 4:0.025 5:0.393046 6:0.07845 7:0.139344 8:0.421158 9:0.086963 10:0.255556 11:0.4685 12:0.112157 13:0.312977 14:0.508007 15:0.111641 16:0.325 17:0.52059 18:0.113626 19:0.317227 20:0.507237 21:0.106658 22:0.300987 23:0.490927 24:0.098516 25:0.287798 26:0.444437 27:0.105248 
-59.88030892421557 1:0.166667 2:0.325162 3:0.101681 4:0.175 5:0.465194 6:0.119623 7:0.311475 8:0.542783 9:0.129313 10:0.372222 11:0.573482 12:0.154311 13:0.335878 14:0.602928 15:0.136078 16:0.283333 17:0.601271 18:0.130956 19:0.245798 20:0.557202 21:0.12562 22:0.215461 23:0.531562 24:0.112731 25:0.193634 26:0.477506 27:0.115176 
-141.4780469101274 1:0.020833 2:0.216068 3:0.063815 4:0.0375 5:0.332547 6:0.040806 7:0.02459 8:0.406537 9:0.094384 10:0.016667 11:0.481109 12:0.088339 13:0.01145 14:0.544534 15:0.116828 16:0.058333 17:0.559879 18:0.106436 19:0.094538 20:0.496961 21:0.086282 22:0.123355 23:0.435727 24:0.075759 25:0.15252 26:0.377333 27:0.075086 
-75.39048340058088 1:0.125 2:0.398571 3:0.10581 4:0.2625 5:0.464721 6:0.112815 7:0.385246 8:0.488284 9:0.141513 10:0.483333 11:0.507902 12:0.168855 13:0.526718 14:0.49657 15:0.169624 16:0.544444 17:0.478797 18:0.183575 19:0.554622 20:0.448127 21:0.177884 22:0.554276 23:0.420988 24:0.171596 25:0.54244 26:0.383774 27:0.19133 
-11.85893348703703 1:0.333333 2:0.40245 3:0.129574 4:0.35 5:0.43226 6:0.108868 7:0.327869 8:0.495783 9:0.150989 10:0.255556 11:0.560758 12:0.159338 13:0.206107 14:0.576056 15:0.137674 16:0.166667 17:0.531702 18:0.132776 19:0.138655 20:0.475367 21:0.118451 22:0.115132 23:0.437112 24:0.102074 25:0.090186 26:0.394273 27:0.0973 
-47.28544278589363 1:0.291667 2:0.411319 3:0.046622 4:0.4625 5:0.462839 6:0.080336 7:0.606557 8:0.470972 9:0.127428 10:0.677778 11:0.500249 12:0.17812 13:0.721374 14:0.487334 15:0.16965 16:0.747222 17:0.458237 18:0.184232 19:0.754202 20:0.402957 21:0.178012 22:0.751645 23:0.32379 24:0.158338 25:0.746684 26:0.235523 27:0.158123 
-26.04550089871482 1:0.291667 2:0.298325 3:0.050288 4:0.2875 5:0.387957 6:0.035164 7:0.229508 8:0.488885 9:0.054425 10:0.205556 11:0.567401 12:0.081072 13:0.209924 14:0.619741 15:0.093737 16:0.244444 17:0.64388 18:0.095935 19:0.256303 20:0.642545 21:0.093146 22:0.266447 23:0.638381 24:0.091837 25:0.271883 26:0.580967 27:0.100836 
-69.0361983717187 1:0.4375 2:0.218935 3:0.04365 4:0.475 5:0.304947 6:0.053745 7:0.491803 8:0.366992 9:0.082434 10:0.472222 11:0.434666 12:0.102669 13:0.435115 14:0.459781 15:0.105739 16:0.405556 17:0.443514 18:0.107472 19:0.388655 20:0.381779 21:0.095999 22:0.373355 23:0.300895 24:0.08224 25:0.359416 26:0.218435 27:0.075499 
-221.5868237259729 1:0.083333 2:0.221324 3:0.013621 4:0.2 5:0.350283 6:0.023861 7:0.319672 8:0.4509 9:0.028941 10:0.388889 11:0.49907 12:0.052724 13:0.40458 14:0.47801 15:0.074409 16:0.419444 17:0.435861 18:0.090377 19:0.426471 20:0.405693 21:0.091692 22:0.427632 23:0.352054 24:0.08468 25:0.420424 26:0.28161 27:0.085472 
-70.14177420218807 2:0.407702 3:0.074044 5:0.538809 6:0.061236 7:0.032787 8:0.617219 9:0.099129 10:0.066667 11:0.659566 12:0.128853 13:0.053435 14:0.672278 15:0.129395 16:0.072222 17:0.660191 18:0.140409 19:0.077731 20:0.639602 21:0.139913 22:0.110197 23:0.64287 24:0.146344 25:0.140584 26:0.64493 27:0.227598 
-256 2:0.219291 3:0.025722 5:0.313342 6:0.030479 8:0.374257 9:0.042441 10:0.022222 11:0.422639 12:0.060935 13:0.053435 14:0.444825 15:0.065274 16:0.1 17:0.43115 18:0.068918 19:0.134454 20:0.378581 21:0.058687 22:0.144737 23:0.33026 24:0.043463 25:0.140584 26:0.277897 27:0.039608 
-14.53015870508908 1:0.166667 2:0.343057 3:0.033218 4:0.2375 5:0.423842 6:0.035439 7:0.286885 8:0.439355 9:0.051809 10:0.305556 11:0.455448 12:0.068904 13:0.305344 14:0.453239 15:0.072022 16:0.294444 17:0.429796 18:0.079065 19:0.285714 20:0.3672 21:0.071694 22:0.284539 23:0.30207 24:0.064673 25:0.281167 26:0.246084 27:0.065741 
-8.034162947951931 2:0.23578 3:0.022896 4:0.0375 5:0.345915 6:0.047721 7:0.106557 8:0.440224 9:0.063949 10:0.15 11:0.618172 12:0.174859 13:0.20229 14:0.752195 15:0.254719 16:0.244444 17:0.74886 18:0.264825 19:0.247899 20:0.743352 21:0.221152 22:0.253289 23:0.78177 24:0.216644 25:0.255968 26:0.762066 27:0.237585 
-17.61521651072866 1:0.3125 2:0.20321 3:0.036305 4:0.325 5:0.284528 6:0.032878 7:0.319672 8:0.311195 9:0.039536 10:0.294444 11:0.325074 12:0.036103 13:0.244275 14:0.337089 15:0.036515 16:0.211111 17:0.339728 18:0.042076 19:0.201681 20:0.304456 21:0.03782 22:0.194079 23:0.241516 24:0.034145 25:0.180371 26:0.208169 27:0.039193 
-256 2:0.381013 3:0.097635 4:0.05 5:0.377643 6:0.074033 7:0.081967 8:0.394378 9:0.080829 10:0.088889 11:0.454623 12:0.080936 13:0.125954 14:0.490519 15:0.075743 16:0.158333 17:0.504385 18:0.084894 19:0.170168 20:0.477321 21:0.085199 22:0.177632 23:0.445709 24:0.081134 25:0.183024 26:0.419595 27:0.095821 
-10.93349645872354 1:0.041667 2:0.374366 3:0.094653 4:0.25 5:0.395769 6:0.087063 7:0.360656 8:0.393148 9:0.125427 10:0.433333 11:0.420896 12:0.134435 13:0.48855 14:0.42313 15:0.120309 16:0.513889 17:0.399611 18:0.122406 19:0.464286 20:0.394618 21:0.132107 22:0.398026 23:0.396656 24:0.129946 25:0.346154 26:0.368995 27:0.136551 
-9.643387772160253 1:0.125 2:0.470433 3:0.095853 4:0.25 5:0.538001 6:0.077678 7:0.278689 8:0.627196 9:0.123323 10:0.272222 11:0.758478 12:0.193403 13:0.290076 14:0.776253 15:0.201912 16:0.319444 17:0.710573 18:0.226061 19:0.313025 20:0.655277 21:0.218632 22:0.309211 23:0.677125 24:0.216549 25:0.311671 26:0.667229 27:0.241139 
-25.22360825773541 2:0.327529 3:0.035171 5:0.400636 6:0.040365 7:0.040984 8:0.35795 9:0.04765 10:0.072222 11:0.454323 12:0.068606 13:0.099237 14:0.555586 15:0.116798 16:0.138889 17:0.607625 18:0.11781 19:0.201681 20:0.603637 21:0.107545 22:0.238487 23:0.586615 24:0.122677 25:0.253316 26:0.536277 27:0.145788 
-13.80845345030147 1:0.041667 2:0.373498 3:0.045472 4:0.1 5:0.419059 6:0.059375 7:0.180328 8:0.578087 9:0.155438 10:0.233333 11:0.696054 12:0.197 13:0.225191 14:0.74452 15:0.223302 16:0.222222 17:0.733177 18:0.238359 19:0.22479 20:0.711869 21:0.232508 22:0.21875 23:0.720467 24:0.221121 25:0.209549 26:0.69183 27:0.232788 
-1.380990113851731 1:0.0625 2:0.043368 3:0.00259 4:0.1375 5:0.089094 6:0.004098 7:0.237705 8:0.136476 9:0.0079 10:0.327778 11:0.225177 12:0.027259 13:0.381679 14:0.280917 15:0.035179 16:0.419444 17:0.282518 18:0.036462 19:0.432773 20:0.293535 21:0.060028 22:0.399671 23:0.325424 24:0.085979 25:0.362069 26:0.340233 27:0.112789 
-92.30401117509795 2:0.308524 3:0.02855 5:0.320162 6:0.028603 8:0.325682 9:0.040971 10:0.005556 11:0.388225 12:0.061197 13:0.003817 14:0.424194 15:0.077626 16:0.019444 17:0.434281 18:0.083737 19:0.044118 20:0.402477 21:0.075287 22:0.064145 23:0.374607 24:0.062614 25:0.078249 26:0.34696 27:0.086201 
-0.7915922270462603 1:0.333333 2:0.245218 3:0.023453 4:0.325 5:0.332147 6:0.040833 7:0.295082 8:0.423752 9:0.10661 10:0.266667 11:0.539665 12:0.190684 13:0.293893 14:0.545945 15:0.158466 16:0.322222 17:0.502985 18:0.150592 19:0.336134 20:0.461451 21:0.129377 22:0.351974 23:0.417132 24:0.11029 25:0.359416 26:0.344571 27:0.11712 
-0.8849858468814366 1:0.4375 2:0.423121 3:0.23153 4:0.425 5:0.659219 6:0.204564 7:0.385246 8:0.841282 9:0.267702 10:0.366667 11:0.932289 12:0.27855 13:0.343511 14:0.964902 15:0.27003 16:0.305556 17:0.992235 18:0.270479 19:0.294118 20:0.988038 21:0.265202 22:0.289474 23:0.97078 24:0.259212 25:0.277188 26:0.895454 27:0.297866 
-10.4499300935661 1:0.583333 2:0.247393 3:0.042925 4:0.45 5:0.426996 6:0.049964 7:0.360656 8:0.513816 9:0.061138 10:0.333333 11:0.575781 12:0.074049 13:0.354962 14:0.591598 15:0.07909 16:0.358333 17:0.566879 18:0.08342 19:0.336134 20:0.534822 21:0.076219 22:0.309211 23:0.608054 24:0.124709 25:0.298408 26:0.650243 27:0.215918 
-256 1:0.104167 2:0.375415 3:0.052123 4:0.175 5:0.413963 6:0.066022 7:0.229508 8:0.457531 9:0.081954 10:0.255556 11:0.501552 12:0.086951 13:0.248092 14:0.522791 15:0.08221 16:0.236111 17:0.527441 18:0.090279 19:0.226891 20:0.534396 21:0.086758 22:0.231908 23:0.557007 24:0.093494 25:0.232095 26:0.524469 27:0.099445 
-51.14759267348796 2:0.344368 3:0.044076 4:0.05 5:0.457528 6:0.037228 7:0.106557 8:0.476176 9:0.054013 10:0.138889 11:0.478355 12:0.076054 13:0.148855 14:0.470949 15:0.07133 16:0.136111 17:0.478989 18:0.077891 19:0.134454 20:0.486838 21:0.085357 22:0.157895 23:0.502963 24:0.093375 25:0.190981 26:0.471045 27:0.098972 
-145.5819544143138 1:0.041667 2:0.362796 3:0.070602 4:0.15 5:0.379895 6:0.061747 7:0.196721 8:0.448327 9:0.077309 10:0.233333 11:0.54536 12:0.104837 13:0.248092 14:0.545547 15:0.106077 16:0.255556 17:0.577787 18:0.114225 19:0.262605 20:0.543019 21:0.112672 22:0.256579 23:0.521018 24:0.122203 25:0.262599 26:0.491934 27:0.14946 
-79.38234425281657 1:0.395833 2:0.313136 3:0.1039 4:0.4375 5:0.424291 6:0.126703 7:0.42623 8:0.538756 9:0.171068 10:0.405556 11:0.649045 12:0.201127 13:0.366412 14:0.688774 15:0.196734 16:0.341667 17:0.671784 18:0.207783 19:0.323529 20:0.627612 21:0.207101 22:0.310855 23:0.604985 24:0.210148 25:0.299735 26:0.539757 27:0.244015 
-4.390323417941014 1:0.041667 2:0.218878 3:0.059685 4:0.0875 5:0.413025 6:0.166997 7:0.172131 8:0.52745 9:0.232901 10:0.188889 11:0.646542 12:0.275128 13:0.19084 14:0.66048 15:0.256817 16:0.183333 17:0.618682 18:0.247037 19:0.170168 20:0.565774 21:0.206134 22:0.172697 23:0.53592 24:0.183323 25:0.180371 26:0.460138 27:0.191854 
-256 1:0.020833 2:0.177812 3:0.012027 4:0.0375 5:0.316463 6:0.059636 7:0.040984 8:0.417201 9:0.108336 10:0.116667 11:0.461867 12:0.093959 13:0.156489 14:0.470736 15:0.07812 16:0.175 17:0.465841 18:0.079475 19:0.212185 20:0.411103 21:0.069116 22:0.254934 23:0.350511 24:0.056913 25:0.282493 26:0.299229 27:0.056608 
-3.817677584399155 1:0.395833 2:0.153718 3:0.02482 4:0.4375 5:0.239082 6:0.037213 7:0.393443 8:0.321573 9:0.056311 10:0.338889 11:0.395745 12:0.072364 13:0.29771 14:0.414757 15:0.068457 16:0.269444 17:0.390932 18:0.063539 19:0.243697 20:0.358264 21:0.054012 22:0.215461 23:0.307755 24:0.046492 25:0.189655 26:0.268202 27:0.065498 
-139.6786817070905 1:0.083333 2:0.3077 3:0.05788 4:0.1375 5:0.391567 6:0.049417 7:0.155738 8:0.444283 9:0.096753 10:0.161111 11:0.48819 12:0.12172 13:0.167939 14:0.498884 15:0.118219 16:0.166667 17:0.481042 18:0.137941 19:0.189076 20:0.433432 21:0.122354 22:0.203947 23:0.359432 24:0.102496 25:0.21618 26:0.293814 27:0.114524 
-110.5741785800868 2:0.223361 3:0.01808 4:0.025 5:0.274603 6:0.017941 7:0.040984 8:0.435404 9:0.123891 10:0.072222 11:0.549836 12:0.185611 13:0.122137 14:0.539227 15:0.145427 16:0.138889 17:0.531388 18:0.130728 19:0.138655 20:0.506237 21:0.111637 22:0.138158 23:0.502028 24:0.10424 25:0.155172 26:0.471621 27:0.132385 
-45.43477219119113 1:0.020833 2:0.361088 3:0.022867 4:0.1125 5:0.51445 6:0.083702 7:0.204918 8:0.578756 9:0.16621 10:0.25 11:0.588033 12:0.183835 13:0.263359 14:0.550921 15:0.172437 16:0.286111 17:0.501928 18:0.191067 19:0.298319 20:0.468173 21:0.187932 22:0.317434 23:0.433357 24:0.188056 25:0.322281 26:0.520236 27:0.404003 
-7.835967484314861 1:0.020833 2:0.169356 3:0.016265 4:0.0375 5:0.271642 6:0.05241 7:0.057377 8:0.369814 9:0.107267 10:0.122222 11:0.456853 12:0.126267 13:0.156489 14:0.477221 15:0.129006 16:0.155556 17:0.491537 18:0.12963 19:0.147059 20:0.461643 21:0.105108 22:0.172697 23:0.433002 24:0.086234 25:0.20557 26:0.390085 27:0.084879 
-1.261788478152563 1:0.270833 2:0.598336 3:0.341954 4:0.35 5:0.656381 6:0.324638 7:0.401639 8:0.739881 9:0.540569 10:0.45 11:0.798716 12:0.585679 13:0.477099 14:0.810697 15:0.540947 16:0.472222 17:0.788973 18:0.546248 19:0.455882 20:0.748568 21:0.515183 22:0.434211 23:0.728203 24:0.481118 25:0.416446 26:0.668162 27:0.507082 
-92.36502787677733 2:0.401894 3:0.106593 5:0.487709 6:0.104862 7:0.065574 8:0.54581 9:0.144977 10:0.133333 11:0.670879 12:0.185833 13:0.183206 14:0.696644 15:0.187293 16:0.180556 17:0.690932 18:0.208507 19:0.17437 20:0.654724 21:0.181214 22:0.175987 23:0.695186 24:0.175491 25:0.19496 26:0.691416 27:0.205493 
-11.42888620495456 1:0.25 2:0.169923 3:0.015305 4:0.275 5:0.231571 6:0.011258 7:0.245902 8:0.2977 9:0.017781 10:0.183333 11:0.377126 12:0.025684 13:0.145038 14:0.413021 15:0.039703 16:0.125 17:0.423133 18:0.058176 19:0.132353 20:0.40056 21:0.052652 22:0.138158 23:0.357839 24:0.047263 25:0.129973 26:0.3066 27:0.042973 
-193.5968924325196 1:0.166667 2:0.354909 3:0.021377 4:0.2375 5:0.428811 6:0.041926 7:0.262295 8:0.478621 9:0.088561 10:0.288889 11:0.537527 12:0.113721 13:0.305344 14:0.55643 15:0.110632 16:0.325 17:0.562189 18:0.125628 19:0.32563 20:0.541164 21:0.12523 22:0.315789 23:0.503386 24:0.121141 25:0.287798 26:0.473354 27:0.132419 
-185.0237693703596 1:0.25 2:0.441126 3:0.127478 4:0.325 5:0.4693 6:0.114607 7:0.360656 8:0.492571 9:0.13205 10:0.411111 11:0.505601 12:0.145525 13:0.454198 14:0.498461 15:0.138514 16:0.475 17:0.494677 18:0.137814 19:0.470588 20:0.470192 21:0.130343 22:0.447368 23:0.465906 24:0.119247 25:0.437666 26:0.436541 27:0.13254 
-45.84755615943502 2:0.267411 3:0.047793 5:0.358069 6:0.054214 7:0.090164 8:0.403143 9:0.057618 10:0.166667 11:0.432918 12:0.057978 13:0.187023 14:0.458115 15:0.052665 16:0.177778 17:0.492139 18:0.065951 19:0.178571 20:0.505692 21:0.07055 22:0.179276 23:0.515447 24:0.066823 25:0.193634 26:0.481473 27:0.076291 
-164.148418585015 2:0.294043 3:0.061739 5:0.340515 6:0.083739 7:0.180328 8:0.412366 9:0.083559 10:0.311111 11:0.468339 12:0.097323 13:0.366412 14:0.489243 15:0.097825 16:0.383333 17:0.494358 18:0.112287 19:0.386555 20:0.469597 21:0.112551 22:0.388158 23:0.438137 24:0.108553 25:0.38992 26:0.389585 27:0.116571 
-128.9431982689233 1:0.166667 2:0.388741 3:0.067033 4:0.3 5:0.407343 6:0.087901 7:0.360656 8:0.402729 9:0.099154 10:0.388889 11:0.431077 12:0.091579 13:0.396947 14:0.445216 15:0.081998 16:0.4 17:0.437664 18:0.081267 19:0.415966 20:0.4074 21:0.078821 22:0.442434 23:0.368507 24:0.074012 25:0.441645 26:0.33607 27:0.080027 
-256 1:0.020833 2:0.276893 3:0.03933 4:0.0125 5:0.416023 6:0.060656 7:0.040984 8:0.521347 9:0.089437 10:0.083333 11:0.583054 12:0.079516 13:0.133588 14:0.558043 15:0.081223 16:0.169444 17:0.522465 18:0.085447 19:0.207983 20:0.478476 21:0.076337 22:0.231908 23:0.4144 24:0.065097 25:0.245358 26:0.334325 27:0.064013 
-65.13860427854027 1:0.104167 2:0.439601 3:0.058647 4:0.275 5:0.497382 6:0.099259 7:0.377049 8:0.523502 9:0.125362 10:0.455556 11:0.577518 12:0.171624 13:0.507634 14:0.573884 15:0.173225 16:0.527778 17:0.5427 18:0.195992 19:0.531513 20:0.497896 21:0.205893 22:0.534539 23:0.436587 24:0.187872 25:0.537135 26:0.35712 27:0.190785 
-160.9972324919419 1:0.083333 2:0.20845 3:0.015165 4:0.1375 5:0.221003 6:0.015706 7:0.155738 8:0.264024 9:0.060592 10:0.188889 11:0.348101 12:0.108599 13:0.209924 14:0.397829 15:0.118575 16:0.227778 17:0.410561 18:0.135219 19:0.247899 20:0.377926 21:0.126778 22:0.271382 23:0.327029 24:0.114426 25:0.290451 26:0.260609 27:0.121705 
-35.82364118998215 1:0.520833 2:0.076378 3:0.025096 4:0.6125 5:0.166206 6:0.041372 7:0.655738 8:0.231275 9:0.045337 10:0.661111 11:0.288313 12:0.043632 13:0.637405 14:0.311347 15:0.035523 16:0.619444 17:0.298119 18:0.033796 19:0.602941 20:0.274404 21:0.027361 22:0.587171 23:0.203484 24:0.017402 25:0.56366 26:0.167535 27:0.021267 
-177.3014481866029 1:0.1875 2:0.51392 3:0.138917 4:0.275 5:0.595471 6:0.100096 7:0.295082 8:0.558245 9:0.159369 10:0.288889 11:0.563826 12:0.205224 13:0.282443 14:0.553129 15:0.205126 16:0.272222 17:0.519296 18:0.213752 19:0.262605 20:0.469729 21:0.190414 22:0.264803 23:0.419909 24:0.166162 25:0.255968 26:0.340638 27:0.170006 
-23.52963537610516 1:0.0625 2:0.531484 3:0.126953 4:0.2375 5:0.705505 6:0.119059 7:0.368852 8:0.709951 9:0.186571 10:0.5 11:0.760801 12:0.22412 13:0.538168 14:0.758706 15:0.234654 16:0.575 17:0.723831 18:0.257619 19:0.57563 20:0.684399 21:0.239291 22:0.565789 23:0.658948 24:0.227913 25:0.566313 26:0.591332 27:0.247843 
-62.1519431681732 1:0.041667 2:0.468017 3:0.09413 4:0.0875 5:0.576216 6:0.143534 7:0.139344 8:0.608275 9:0.18941 10:0.166667 11:0.629206 12:0.187838 13:0.164122 14:0.631185 15:0.161363 16:0.155556 17:0.637243 18:0.166605 19:0.170168 20:0.602752 21:0.157078 22:0.194079 23:0.55665 24:0.151655 25:0.221485 26:0.485384 27:0.157985 
-42.01257894945878 1:0.25 2:0.302511 3:0.019166 4:0.2875 5:0.365836 6:0.044152 7:0.311475 8:0.414563 9:0.052861 10:0.35 11:0.456993 12:0.06276 13:0.332061 14:0.47351 15:0.074231 16:0.313889 17:0.481064 18:0.087691 19:0.298319 20:0.46867 21:0.106744 22:0.3125 23:0.458386 24:0.122481 25:0.330239 26:0.396588 27:0.135389 
-32.31127654049747 1:0.270833 2:0.254661 3:0.044703 4:0.2375 5:0.455301 6:0.116818 7:0.254098 8:0.609533 9:0.146022 10:0.266667 11:0.659947 12:0.140781 13:0.259542 14:0.671455 15:0.133733 16:0.283333 17:0.713044 18:0.158287 19:0.321429 20:0.687784 21:0.165792 22:0.366776 23:0.69026 24:0.158474 25:0.404509 26:0.651377 27:0.173904 
-91.94389269659845 2:0.32764 3:0.0796 5:0.364313 6:0.071878 7:0.04918 8:0.375481 9:0.073468 10:0.1 11:0.436857 12:0.085849 13:0.175573 14:0.470979 15:0.086138 16:0.261111 17:0.481545 18:0.094234 19:0.331933 20:0.433598 21:0.086387 22:0.378289 23:0.366975 24:0.078827 25:0.397878 26:0.309571 27:0.081548 
-0.2784328231425781 1:0.3125 2:0.339289 3:0.077864 4:0.2875 5:0.653314 6:0.129837 7:0.311475 8:0.900961 9:0.30061 10:0.438889 11:1 12:0.291494 13:0.473282 14:0.93589 15:0.281494 16:0.483333 17:0.87804 18:0.318261 19:0.493697 20:0.793935 21:0.308199 22:0.493421 23:0.755063 24:0.315709 25:0.493369 26:0.702787 27:0.370507 
-140.0516282669021 2:0.347841 3:0.02937 4:0.025 5:0.390485 6:0.042843 7:0.065574 8:0.427206 9:0.06079 10:0.077778 11:0.458557 12:0.066722 13:0.068702 14:0.460474 15:0.061272 16:0.05 17:0.445648 18:0.059672 19:0.037815 20:0.38262 21:0.049286 22:0.049342 23:0.306969 24:0.037393 25:0.066313 26:0.2402 27:0.028426 
-74.6440762121739 2:0.299311 3:0.013953 4:0.075 5:0.367752 6:0.023477 7:0.114754 8:0.401193 9:0.046289 10:0.166667 11:0.51156 12:0.103366 13:0.198473 14:0.564912 15:0.137227 16:0.227778 17:0.546819 18:0.138376 19:0.243697 20:0.479795 21:0.123897 22:0.274671 23:0.411454 24:0.123546 25:0.289125 26:0.348843 27:0.141025 
-17.60509593401438 2:0.054354 3:0.003409 5:0.090866 6:0.006061 7:0.032787 8:0.133805 9:0.01027 10:0.088889 11:0.158401 12:0.010025 13:0.08397 14:0.212287 15:0.023516 16:0.061111 17:0.279535 18:0.06039 19:0.046219 20:0.302238 21:0.082451 22:0.037829 23:0.278887 24:0.074006 25:0.037135 26:0.223235 27:0.069264 
-16.67434477308994 2:0.141476 3:0.00997 4:0.0375 5:0.232883 6:0.026923 7:0.139344 8:0.319112 9:0.045838 10:0.188889 11:0.394517 12:0.066334 13:0.236641 14:0.462099 15:0.097487 16:0.261111 17:0.533497 18:0.152863 19:0.281513 20:0.549552 21:0.177672 22:0.296053 23:0.531372 24:0.150426 25:0.297082 26:0.483703 27:0.152959 
-256 1:0.104167 2:0.41978 3:0.039167 4:0.2125 5:0.492041 6:0.034569 7:0.311475 8:0.531172 9:0.062121 10:0.35 11:0.586627 12:0.083016 13:0.351145 14:0.600101 15:0.083263 16:0.341667 17:0.57164 18:0.090935 19:0.319328 20:0.521813 21:0.079771 22:0.299342 23:0.470941 24:0.070764 25:0.286472 26:0.406211 27:0.073292 
-118.0806730247187 1:0.354167 2:0.381253 3:0.172547 4:0.4 5:0.422954 6:0.166364 7:0.42623 8:0.450871 9:0.171608 10:0.427778 11:0.484711 12:0.164352 13:0.412214 14:0.504338 15:0.141011 16:0.397222 17:0.496643 18:0.145047 19:0.384454 20:0.449865 21:0.128438 22:0.378289 23:0.41391 24:0.115117 25:0.371353 26:0.355875 27:0.113577 
-256 2:0.299622 3:0.064377 5:0.371436 6:0.05881 7:0.040984 8:0.414399 9:0.066863 10:0.083333 11:0.445448 12:0.070351 13:0.114504 14:0.458488 15:0.069198 16:0.122222 17:0.488494 18:0.095494 19:0.12395 20:0.491127 21:0.102788 22:0.151316 23:0.455514 24:0.080821 25:0.189655 26:0.384409 27:0.085713 
-97.44940893568642 1:0.041667 2:0.422177 3:0.060531 4:0.1875 5:0.445389 6:0.091514 7:0.229508 8:0.454089 9:0.127808 10:0.266667 11:0.473807 12:0.152558 13:0.332061 14:0.476509 15:0.152099 16:0.377778 17:0.451732 18:0.167849 19:0.397059 20:0.398865 21:0.157184 22:0.414474 23:0.340403 24:0.139873 25:0.421751 26:0.269086 27:0.137383 
-35.32650464077449 1:0.145833 2:0.580742 3:0.174749 4:0.2375 5:0.624082 6:0.140697 7:0.254098 8:0.627812 9:0.183192 10:0.272222 11:0.657587 12:0.193788 13:0.282443 14:0.624368 15:0.163799 16:0.313889 17:0.579344 18:0.156644 19:0.346639 20:0.517578 21:0.134161 22:0.330592 23:0.47702 24:0.110167 25:0.298408 26:0.434484 27:0.098271 
-75.79404542742878 1:0.041667 2:0.321511 3:0.061035 4:0.125 5:0.448531 6:0.042953 7:0.172131 8:0.476615 9:0.067307 10:0.183333 11:0.510063 12:0.083558 13:0.171756 14:0.505011 15:0.080519 16:0.155556 17:0.480989 18:0.086049 19:0.153361 20:0.449288 21:0.075926 22:0.166118 23:0.437824 24:0.073537 25:0.180371 26:0.423208 27:0.085911 
-15.84894036885698 1:0.166667 2:0.23992 3:0.047978 4:0.225 5:0.313746 6:0.045763 7:0.270492 8:0.340189 9:0.068225 10:0.294444 11:0.429066 12:0.099146 13:0.274809 14:0.474801 15:0.111263 16:0.241667 17:0.479332 18:0.12203 19:0.205882 20:0.449332 21:0.143605 22:0.180921 23:0.429151 24:0.139125 25:0.165782 26:0.374879 27:0.143338 
-11.35313792389972 1:0.229167 2:0.514437 3:0.209404 4:0.475 5:0.612931 6:0.252219 7:0.590164 8:0.642786 9:0.314827 10:0.605556 11:0.721375 12:0.332173 13:0.549618 14:0.712482 15:0.28345 16:0.513889 17:0.686186 18:0.283737 19:0.5 20:0.689386 21:0.262152 22:0.485197 23:0.706487 24:0.251982 25:0.481432 26:0.68908 27:0.284603 
-256 2:0.169499 3:0.031817 4:0.0125 5:0.269589 6:0.03708 7:0.098361 8:0.36396 9:0.056618 10:0.15 11:0.444454 12:0.055643 13:0.187023 14:0.467574 15:0.059762 16:0.211111 17:0.446945 18:0.070982 19:0.212185 20:0.409888 21:0.067352 22:0.220395 23:0.381505 24:0.066275 25:0.230769 26:0.329664 27:0.06758 
-121.2658773730079 2:0.415945 3:0.055045 4:0.1 5:0.484523 6:0.083999 7:0.155738 8:0.518062 9:0.096881 10:0.166667 11:0.586266 12:0.112858 13:0.183206 14:0.687968 15:0.121224 16:0.216667 17:0.753563 18:0.160671 19:0.266807 20:0.737362 21:0.163684 22:0.309211 23:0.705241 24:0.171303 25:0.342175 26:0.667474 27:0.198444 
-26.74397229823472 2:0.156212 3:0.036611 4:0.0375 5:0.331995 6:0.10271 7:0.122951 8:0.455949 9:0.14425 10:0.205556 11:0.515496 12:0.179437 13:0.232824 14:0.528234 15:0.184227 16:0.258333 17:0.517769 18:0.199081 19:0.283613 20:0.498699 21:0.186477 22:0.305921 23:0.505193 24:0.198503 25:0.344828 26:0.474971 27:0.226608 
-9.69715682284297 1:0.166667 2:0.435026 3:0.140255 4:0.325 5:0.482733 6:0.157708 7:0.52459 8:0.471064 9:0.197776 10:0.6 11:0.488915 12:0.201754 13:0.576336 14:0.50974 15:0.18233 16:0.533333 17:0.531641 18:0.200477 19:0.491597 20:0.508491 21:0.181963 22:0.460526 23:0.489361 24:0.16822 25:0.429708 26:0.449504 27:0.18417 
-20.85864129929208 1:0.020833 2:0.356196 3:0.129516 4:0.0875 5:0.42623 6:0.092585 7:0.122951 8:0.443198 9:0.14375 10:0.138889 11:0.599331 12:0.182176 13:0.118321 14:0.653497 15:0.164246 16:0.108333 17:0.62246 18:0.171367 19:0.090336 20:0.625264 21:0.15928 22:0.09704 23:0.616193 24:0.152651 25:0.135279 26:0.543776 27:0.15345 
-9.745249493338468 1:0.125 2:0.521031 3:0.173629 4:0.075 5:0.657908 6:0.198206 7:0.098361 8:0.723046 9:0.233154 10:0.083333 11:0.763581 12:0.256588 13:0.087786 14:0.790264 15:0.238799 16:0.094444 17:0.768345 18:0.2503 19:0.113445 20:0.685149 21:0.219064 22:0.134868 23:0.618389 24:0.203192 25:0.147215 26:0.536117 27:0.201961 
-40.92144559322512 1:0.125 2:0.392409 3:0.025031 4:0.15 5:0.382302 6:0.064785 7:0.114754 8:0.401173 9:0.068951 10:0.111111 11:0.439413 12:0.078406 13:0.122137 14:0.44363 15:0.07896 16:0.138889 17:0.432153 18:0.089836 19:0.155462 20:0.407743 21:0.082235 22:0.174342 23:0.369706 24:0.069012 25:0.185676 26:0.319009 27:0.068485 
-66.81112841002053 1:0.104167 2:0.280357 3:0.062334 4:0.1375 5:0.404633 6:0.072999 7:0.180328 8:0.431758 9:0.090561 10:0.227778 11:0.49469 12:0.099241 13:0.255725 14:0.575793 15:0.151278 16:0.3 17:0.595217 18:0.183518 19:0.348739 20:0.545708 21:0.156257 22:0.375 23:0.500902 24:0.141131 25:0.364721 26:0.475236 27:0.151784 
-77.40692747628543 1:0.229167 2:0.43832 3:0.134648 4:0.2625 5:0.454403 6:0.123644 7:0.245902 8:0.507218 9:0.150943 10:0.25 11:0.589884 12:0.169455 13:0.29771 14:0.606887 15:0.149489 16:0.35 17:0.600817 18:0.1668 19:0.365546 20:0.554262 21:0.143033 22:0.371711 23:0.507471 24:0.13276 25:0.370027 26:0.451949 27:0.135741 
-31.1537507790846 1:0.166667 2:0.470236 3:0.209033 4:0.3 5:0.505653 6:0.179606 7:0.368852 8:0.514912 9:0.189843 10:0.422222 11:0.5546 12:0.19736 13:0.435115 14:0.583592 15:0.196877 16:0.455556 17:0.594629 18:0.209836 19:0.478992 20:0.547217 21:0.20118 22:0.488487 23:0.517913 24:0.187648 25:0.486737 26:0.480754 27:0.224895 
-39.58977610763717 1:0.166667 2:0.319525 3:0.009029 4:0.35 5:0.364145 6:0.042284 7:0.418033 8:0.405014 9:0.059818 10:0.438889 11:0.455478 12:0.074201 13:0.354962 14:0.513919 15:0.079248 16:0.327778 17:0.577956 18:0.115501 19:0.323529 20:0.599228 21:0.113019 22:0.325658 23:0.58204 24:0.121565 25:0.335544 26:0.571161 27:0.169084 
-43.8492206322293 2:0.286714 3:0.173397 4:0.125 5:0.438972 6:0.234422 7:0.213115 8:0.535485 9:0.269359 10:0.194444 11:0.593535 12:0.234525 13:0.175573 14:0.662233 15:0.224222 16:0.166667 17:0.641432 18:0.210578 19:0.159664 20:0.585701 21:0.200069 22:0.152961 23:0.54766 24:0.187188 25:0.157825 26:0.498288 27:0.198591 
-256 1:0.020833 2:0.34766 3:0.125208 4:0.0875 5:0.422876 6:0.098146 7:0.163934 8:0.448633 9:0.106302 10:0.222222 11:0.498551 12:0.113148 13:0.236641 14:0.518476 15:0.105047 16:0.277778 17:0.51715 18:0.104829 19:0.306723 20:0.479728 21:0.105081 22:0.351974 23:0.428755 24:0.092676 25:0.376658 26:0.361508 27:0.091133 
-19.01210973150166 2:0.155016 3:0.023702 5:0.301643 6:0.049685 7:0.073771 8:0.415652 9:0.059078 10:0.083333 11:0.488607 12:0.076048 13:0.076336 14:0.608471 15:0.103532 16:0.075 17:0.706098 18:0.145493 19:0.094538 20:0.6973 21:0.135896 22:0.110197 23:0.682856 24:0.107539 25:0.124668 26:0.600803 27:0.112752 
-73.82893670657964 1:0.041667 2:0.134626 3:0.008567 4:0.1125 5:0.18881 6:0.008473 7:0.180328 8:0.230945 9:0.015066 10:0.222222 11:0.324688 12:0.055004 13:0.21374 14:0.410632 15:0.078489 16:0.236111 17:0.450411 18:0.096569 19:0.258403 20:0.443416 21:0.102749 22:0.279605 23:0.425135 24:0.11525 25:0.29443 26:0.399674 27:0.136836 
-57.1578786093539 2:0.183654 3:0.017856 5:0.261071 6:0.036385 8:0.347473 9:0.069003 11:0.418296 12:0.074276 13:0.061069 14:0.43265 15:0.061154 16:0.122222 17:0.410979 18:0.063404 19:0.155462 20:0.348752 21:0.057308 22:0.174342 23:0.296467 24:0.049431 25:0.183024 26:0.23196 27:0.045522 
-114.3079016602214 1:0.1875 2:0.485341 3:0.109221 4:0.225 5:0.586682 6:0.131758 7:0.303279 8:0.648297 9:0.174533 10:0.338889 11:0.677345 12:0.204186 13:0.335878 14:0.683819 15:0.18762 16:0.308333 17:0.694051 18:0.192249 19:0.271008 20:0.692552 21:0.194494 22:0.248355 23:0.695423 24:0.166397 25:0.237401 26:0.620547 27:0.169344 
-256 1:0.104167 2:0.373248 3:0.063464 4:0.175 5:0.444535 6:0.065494 7:0.254098 8:0.49864 9:0.098215 10:0.311111 11:0.564352 12:0.116496 13:0.328244 14:0.610967 15:0.122048 16:0.341667 17:0.616373 18:0.154519 19:0.342437 20:0.557544 21:0.150898 22:0.34375 23:0.507066 24:0.139881 25:0.342175 26:0.430504 27:0.1495 
-21.90634287309514 1:0.020833 2:0.306269 3:0.129816 4:0.1 5:0.467818 6:0.19284 7:0.270492 8:0.518555 9:0.20469 10:0.372222 11:0.530836 12:0.194084 13:0.39313 14:0.569436 15:0.176731 16:0.375 17:0.609991 18:0.168086 19:0.329832 20:0.600621 21:0.144128 22:0.307566 23:0.578793 24:0.125279 25:0.299735 26:0.503535 27:0.133035 
-146.1628229821512 2:0.346119 3:0.083575 4:0.125 5:0.527312 6:0.097881 7:0.196721 8:0.573219 9:0.159048 10:0.233333 11:0.52887 12:0.144687 13:0.259542 14:0.532222 15:0.13518 16:0.266667 17:0.545645 18:0.152881 19:0.264706 20:0.548241 21:0.184453 22:0.230263 23:0.577033 24:0.17864 25:0.193634 26:0.572215 27:0.197549 
-98.7541663386201 1:0.041667 2:0.416313 3:0.044453 4:0.175 5:0.437618 6:0.059289 7:0.262295 8:0.454971 9:0.095519 10:0.283333 11:0.541086 12:0.138041 13:0.301527 14:0.556968 15:0.161133 16:0.3 17:0.535796 18:0.17936 19:0.302521 20:0.48184 21:0.172329 22:0.297697 23:0.414507 24:0.148921 25:0.29443 26:0.323468 27:0.146107 
-22.92096992353416 2:0.359906 3:0.061622 5:0.375804 6:0.073741 7:0.02459 8:0.438931 9:0.111728 10:0.105556 11:0.579283 12:0.201234 13:0.152672 14:0.548227 15:0.140647 16:0.177778 17:0.541823 18:0.138141 19:0.197479 20:0.514286 21:0.122494 22:0.213816 23:0.484495 24:0.130303 25:0.206897 26:0.487879 27:0.192805 
-158.0181705840684 1:0.125 2:0.340353 3:0.097022 4:0.1125 5:0.446621 6:0.079614 7:0.172131 8:0.475766 9:0.111546 10:0.272222 11:0.502887 12:0.112164 13:0.30916 14:0.482313 15:0.089278 16:0.308333 17:0.462965 18:0.084846 19:0.313025 20:0.423637 21:0.074418 22:0.34375 23:0.380511 24:0.065341 25:0.370027 26:0.344884 27:0.062621 
-21.92624893942542 1:0.125 2:0.526209 3:0.10443 4:0.2375 5:0.539885 6:0.139392 7:0.278689 8:0.588551 9:0.171589 10:0.261111 11:0.649201 12:0.201362 13:0.244275 14:0.646729 15:0.191322 16:0.247222 17:0.627072 18:0.1834 19:0.273109 20:0.589625 21:0.163841 22:0.291118 23:0.567767 24:0.162971 25:0.279841 26:0.527474 27:0.176675 
-140.4609590693053 2:0.1911 3:0.013482 5:0.330466 6:0.028809 7:0.040984 8:0.441085 9:0.04617 10:0.1 11:0.523499 12:0.082463 13:0.152672 14:0.587068 15:0.081887 16:0.194444 17:0.588745 18:0.085358 19:0.210084 20:0.545729 21:0.08322 22:0.225329 23:0.55698 24:0.090785 25:0.230769 26:0.564316 27:0.114517 
-79.57823833101703 1:0.270833 2:0.196605 3:0.024632 4:0.275 5:0.243275 6:0.018499 7:0.270492 8:0.242531 9:0.022104 10:0.283333 11:0.314706 12:0.033656 13:0.278626 14:0.376596 15:0.044428 16:0.275 17:0.382752 18:0.055496 19:0.247899 20:0.357684 21:0.059367 22:0.215461 23:0.363621 24:0.066747 25:0.209549 26:0.353584 27:0.086124 
-61.39773473919319 2:0.293182 3:0.094342 4:0.05 5:0.345522 6:0.064791 7:0.057377 8:0.37868 9:0.061506 10:0.072222 11:0.429503 12:0.085337 13:0.080153 14:0.445044 15:0.081277 16:0.097222 17:0.418348 18:0.072995 19:0.107143 20:0.35442 21:0.057339 22:0.108553 23:0.290229 24:0.04448 25:0.104775 26:0.223822 27:0.036577 
-53.39934567332666 1:0.229167 2:0.256137 3:0.043475 4:0.2 5:0.472006 6:0.115649 7:0.204918 8:0.580657 9:0.144647 10:0.327778 11:0.630355 12:0.146107 13:0.427481 14:0.620449 15:0.144721 16:0.477778 17:0.56337 18:0.159331 19:0.502101 20:0.471062 21:0.153018 22:0.524671 23:0.38517 24:0.14042 25:0.537135 26:0.299622 27:0.141176 
-256 1:0.041667 2:0.326088 3:0.049828 4:0.025 5:0.393341 6:0.043065 7:0.016393 8:0.412574 9:0.046781 10:0.022222 11:0.460066 12:0.093941 13:0.049618 14:0.499537 15:0.116293 16:0.086111 17:0.502968 18:0.106172 19:0.117647 20:0.471931 21:0.08652 22:0.131579 23:0.438738 24:0.070884 25:0.144562 26:0.417834 27:0.083635 
-14.92796262237024 1:0.104167 2:0.195594 3:0.069282 4:0.0625 5:0.308218 6:0.116479 7:0.090164 8:0.364202 9:0.117198 10:0.133333 11:0.421682 12:0.122088 13:0.171756 14:0.46658 15:0.132623 16:0.197222 17:0.494129 18:0.147705 19:0.243697 20:0.475957 21:0.128576 22:0.263158 23:0.447872 24:0.110425 25:0.233422 26:0.435552 27:0.126671 
-76.02552102134031 2:0.237188 3:0.012372 5:0.36907 6:0.047484 7:0.032787 8:0.468598 9:0.082014 10:0.111111 11:0.510791 12:0.081488 13:0.133588 14:0.519794 15:0.084651 16:0.166667 17:0.565361 18:0.110627 19:0.186975 20:0.540874 21:0.10106 22:0.182566 23:0.504512 24:0.087845 25:0.169761 26:0.447268 27:0.088921 
-140.7830234368664 2:0.252551 3:0.026533 4:0.1 5:0.358741 6:0.040992 7:0.147541 8:0.399644 9:0.047818 10:0.155556 11:0.49684 12:0.071514 13:0.148855 14:0.572548 15:0.083177 16:0.141667 17:0.583255 18:0.098687 19:0.14916 20:0.536515 21:0.095484 22:0.161184 23:0.514404 24:0.08681 25:0.175066 26:0.502138 27:0.094051 
-143.7971987960003 1:0.104167 2:0.403955 3:0.085701 4:0.1625 5:0.46087 6:0.071348 7:0.196721 8:0.480528 9:0.099435 10:0.216667 11:0.543055 12:0.113096 13:0.240458 14:0.560023 15:0.108645 16:0.275 17:0.551981 18:0.107262 19:0.302521 20:0.509603 21:0.097259 22:0.319079 23:0.450105 24:0.086948 25:0.332891 26:0.363381 27:0.093043 
-79.96122550971015 2:0.237276 3:0.0222 5:0.314574 6:0.03077 8:0.343027 9:0.040394 11:0.37089 12:0.045911 14:0.394847 15:0.074351 16:0.019444 17:0.394006 18:0.078931 19:0.035714 20:0.35656 21:0.068841 22:0.050987 23:0.335796 24:0.062139 25:0.064987 26:0.303951 27:0.06952 
-2.544965476485516 1:0.520833 2:0.16497 3:0.034941 4:0.5875 5:0.289603 6:0.108981 7:0.581967 8:0.426247 9:0.193762 10:0.55 11:0.506624 12:0.179579 13:0.5 14:0.541144 15:0.174487 16:0.469444 17:0.572805 18:0.196249 19:0.462185 20:0.57602 21:0.211127 22:0.472039 23:0.582175 24:0.241067 25:0.474801 26:0.553284 27:0.308482 
-173.5604244041386 2:0.283837 3:0.025284 4:0.1 5:0.346411 6:0.034617 7:0.245902 8:0.340048 9:0.047721 10:0.344444 11:0.341344 12:0.05841 13:0.381679 14:0.358146 15:0.055524 16:0.366667 17:0.357771 18:0.057664 19:0.327731 20:0.316732 21:0.04626 22:0.292763 23:0.26182 24:0.033905 25:0.257294 26:0.199988 27:0.029812 
-23.91748020369871 1:0.270833 2:0.467932 3:0.044548 4:0.4375 5:0.502462 6:0.078219 7:0.54918 8:0.481855 9:0.11775 10:0.588889 11:0.506044 12:0.164056 13:0.553435 14:0.518771 15:0.161501 16:0.519444 17:0.504282 18:0.163964 19:0.481092 20:0.482171 21:0.152352 22:0.463816 23:0.465062 24:0.142885 25:0.454907 26:0.404487 27:0.150303 
-0.4512149001516131 1:0.270833 2:0.661002 3:0.41487 4:0.4 5:0.751027 6:0.305314 7:0.52459 8:0.715439 9:0.361675 10:0.583333 11:0.733499 12:0.423217 13:0.60687 14:0.707914 15:0.421224 16:0.627778 17:0.671216 18:0.444344 19:0.642857 20:0.637886 21:0.409714 22:0.634868 23:0.62745 24:0.403117 25:0.624668 26:0.579482 27:0.445749 
-8.421552112738077 1:0.208333 2:0.195324 3:0.01101 4:0.275 5:0.224672 6:0.014028 7:0.377049 8:0.280085 9:0.017692 10:0.4 11:0.354884 12:0.02542 13:0.39313 14:0.396217 15:0.041114 16:0.352778 17:0.435825 18:0.072871 19:0.334034 20:0.458049 21:0.095257 22:0.322368 23:0.462622 24:0.094062 25:0.309019 26:0.424274 27:0.101984 
-0.5384462607694714 1:0.395833 2:0.362988 3:0.131747 4:0.525 5:0.52064 6:0.252486 7:0.631148 8:0.617903 9:0.32864 10:0.666667 11:0.690615 12:0.412144 13:0.656489 14:0.750598 15:0.49384 16:0.655556 17:0.746752 18:0.497654 19:0.649306 20:0.749984 21:0.47704 22:0.644878 23:0.745177 24:0.450299 25:0.644704 26:0.687749 27:0.494255 
-33.20448694573421 1:0.333333 2:0.491689 3:0.252435 4:0.3875 5:0.660137 6:0.153077 7:0.368852 8:0.686855 9:0.14439 10:0.311111 11:0.711138 12:0.166002 13:0.244275 14:0.702463 15:0.159595 16:0.244444 17:0.680779 18:0.173231 19:0.237395 20:0.633113 21:0.163232 22:0.226974 23:0.622887 24:0.147202 25:0.21618 26:0.599083 27:0.158291 
-188.1710224948763 1:0.020833 2:0.376343 3:0.058913 4:0.0375 5:0.48225 6:0.082914 7:0.04918 8:0.524006 9:0.101308 10:0.05 11:0.553609 12:0.118751 13:0.057252 14:0.54863 15:0.113662 16:0.066667 17:0.507714 18:0.117591 19:0.07563 20:0.431181 21:0.108406 22:0.078947 23:0.355029 24:0.096743 25:0.076923 26:0.264156 27:0.098879 
-52.84824688927079 2:0.254904 3:0.030092 4:0.0375 5:0.328256 6:0.020599 7:0.106557 8:0.376738 9:0.020733 10:0.144444 11:0.412251 12:0.028418 13:0.175573 14:0.421062 15:0.033898 16:0.191667 17:0.44531 18:0.039185 19:0.201681 20:0.427604 21:0.052001 22:0.203947 23:0.389051 24:0.05208 25:0.193634 26:0.364343 27:0.069873 
-128.0145385484689 2:0.408789 3:0.07369 4:0.025 5:0.526995 6:0.09316 7:0.081967 8:0.57013 9:0.0856 10:0.177778 11:0.67009 12:0.116165 13:0.225191 14:0.710002 15:0.140895 16:0.266667 17:0.679533 18:0.157776 19:0.27521 20:0.679295 21:0.148874 22:0.284539 23:0.704911 24:0.163665 25:0.285146 26:0.65331 27:0.181541 
-34.8720973407674 1:0.395833 2:0.468097 3:0.073963 4:0.5125 5:0.477434 6:0.106092 7:0.57377 8:0.508559 9:0.157079 10:0.616667 11:0.575973 12:0.173234 13:0.614504 14:0.574521 15:0.1733 16:0.588889 17:0.551201 18:0.201633 19:0.563025 20:0.526967 21:0.197556 22:0.544408 23:0.532772 24:0.197955 25:0.518568 26:0.508907 27:0.229131 
-37.04802526192181 1:0.583333 2:0.449261 3:0.242983 4:0.7 5:0.473327 6:0.233873 7:0.770492 8:0.467885 9:0.258143 10:0.794444 11:0.529206 12:0.244082 13:0.793893 14:0.534195 15:0.22004 16:0.788889 17:0.521964 18:0.230347 19:0.789916 20:0.462021 21:0.221137 22:0.789474 23:0.402655 24:0.202368 25:0.785146 26:0.33122 27:0.214134 
-1.455049475864577 1:0.083333 2:0.318077 3:0.119323 4:0.2 5:0.352664 6:0.096655 7:0.237705 8:0.371298 9:0.111522 10:0.272222 11:0.427577 12:0.125942 13:0.332061 14:0.472192 15:0.125068 16:0.366667 17:0.487715 18:0.121482 19:0.35084 20:0.470517 21:0.111136 22:0.309211 23:0.518815 24:0.183524 25:0.275862 26:0.545494 27:0.248114 
-84.44202482075471 1:0.083333 2:0.469575 3:0.087603 4:0.15 5:0.643661 6:0.077991 7:0.196721 8:0.724989 9:0.116864 10:0.283333 11:0.755574 12:0.153204 13:0.293893 14:0.753302 15:0.16355 16:0.263889 17:0.730693 18:0.185356 19:0.252101 20:0.67403 21:0.179994 22:0.266447 23:0.656893 24:0.168302 25:0.289125 26:0.596588 27:0.182029 
-26.33606245636739 1:0.270833 2:0.443812 3:0.112159 4:0.25 5:0.656981 6:0.099532 7:0.270492 8:0.741654 9:0.144531 10:0.305556 11:0.78319 12:0.184599 13:0.335878 14:0.762375 15:0.202536 16:0.363889 17:0.71437 18:0.235049 19:0.348739 20:0.667635 21:0.228981 22:0.304276 23:0.656122 24:0.213579 25:0.270557 26:0.584505 27:0.223487 
-13.39848281746615 1:0.1875 2:0.429125 3:0.172414 4:0.275 5:0.528316 6:0.214446 7:0.344262 8:0.589832 9:0.294099 10:0.377778 11:0.66114 12:0.364634 13:0.370229 14:0.644737 15:0.327127 16:0.327778 17:0.604553 18:0.325974 19:0.296218 20:0.582683 21:0.306914 22:0.269737 23:0.58399 24:0.25007 25:0.236074 26:0.578171 27:0.282297 
-1.979436597125207 1:0.104167 2:0.200158 3:0.024111 4:0.15 5:0.27574 6:0.053004 7:0.122951 8:0.364145 9:0.075221 10:0.1 11:0.443864 12:0.081075 13:0.179389 14:0.459331 15:0.08309 16:0.233333 17:0.434308 18:0.098767 19:0.245798 20:0.382171 21:0.089234 22:0.25 23:0.359458 24:0.077797 25:0.245358 26:0.316372 27:0.077528 
-24.25079887227914 1:0.166667 2:0.469811 3:0.065881 4:0.275 5:0.477377 6:0.081962 7:0.360656 8:0.466304 9:0.096244 10:0.372222 11:0.554097 12:0.103465 13:0.358779 14:0.644353 15:0.154988 16:0.372222 17:0.701702 18:0.226511 19:0.394958 20:0.710737 21:0.222641 22:0.40625 23:0.721192 24:0.206938 25:0.383289 26:0.702579 27:0.231098 
-3.156338717332678 1:0.4375 2:0.131726 3:0.016052 4:0.4125 5:0.230684 6:0.035987 7:0.377049 8:0.295043 9:0.045822 10:0.311111 11:0.3762 12:0.053299 13:0.259542 14:0.471181 15:0.072295 16:0.244444 17:0.535023 18:0.099795 19:0.256303 20:0.553986 21:0.114877 22:0.28125 23:0.569239 24:0.12465 25:0.314324 26:0.538817 27:0.15003 
-51.04767309315321 1:0.416667 2:0.226587 3:0.050368 4:0.425 5:0.347297 6:0.087448 7:0.385246 8:0.410738 9:0.111753 10:0.333333 11:0.450259 12:0.103232 13:0.29771 14:0.458562 15:0.096534 16:0.272222 17:0.43983 18:0.109643 19:0.243697 20:0.401453 21:0.108654 22:0.248355 23:0.362082 24:0.114084 25:0.267905 26:0.310492 27:0.117531 
-55.23845052731212 1:0.0625 2:0.436295 3:0.07784 4:0.1375 5:0.592481 6:0.093373 7:0.295082 8:0.654169 9:0.098644 10:0.388889 11:0.709212 12:0.149061 13:0.385496 14:0.785661 15:0.188306 16:0.391667 17:0.784648 18:0.248163 19:0.392857 20:0.744772 21:0.200319 22:0.386513 23:0.726735 24:0.212855 25:0.377984 26:0.684959 27:0.228791 
-225.8766196640712 2:0.201757 3:0.022062 5:0.267609 6:0.018248 8:0.355628 9:0.047108 10:0.038889 11:0.474361 12:0.059917 13:0.125954 14:0.54227 15:0.066367 16:0.244444 17:0.542236 18:0.083496 19:0.30042 20:0.518375 21:0.081409 22:0.307566 23:0.492802 24:0.075268 25:0.318302 26:0.436095 27:0.073621 
-39.98838180112151 2:0.297233 3:0.023503 4:0.025 5:0.297508 6:0.038064 7:0.032787 8:0.293973 9:0.057165 10:0.044444 11:0.317777 12:0.066986 13:0.072519 14:0.36755 15:0.06336 16:0.1 17:0.389304 18:0.070011 19:0.111345 20:0.357681 21:0.073051 22:0.136513 23:0.293164 24:0.063984 25:0.132626 26:0.229611 27:0.065655 
-43.91429190028705 1:0.1875 2:0.448085 3:0.126686 4:0.3 5:0.509206 6:0.081527 7:0.377049 8:0.479901 9:0.10132 10:0.383333 11:0.481028 12:0.108846 13:0.332061 14:0.479481 15:0.095033 16:0.3 17:0.472858 18:0.096217 19:0.298319 20:0.429725 21:0.084194 22:0.292763 23:0.365563 24:0.070867 25:0.287798 26:0.291401 27:0.065351 
-12.81561558447793 1:0.520833 2:0.149532 3:0.017529 4:0.5875 5:0.256783 6:0.030674 7:0.590164 8:0.381983 9:0.132879 10:0.566667 11:0.483329 12:0.164818 13:0.515267 14:0.50486 15:0.14092 16:0.494444 17:0.497353 18:0.152541 19:0.457983 20:0.452729 21:0.136565 22:0.427632 23:0.416351 24:0.121213 25:0.403183 26:0.387413 27:0.118191 
-16.04289410173812 1:0.416667 2:0.274627 3:0.043654 4:0.5 5:0.285515 6:0.052455 7:0.54918 8:0.289867 9:0.065889 10:0.566667 11:0.322756 12:0.072257 13:0.549618 14:0.363342 15:0.07522 16:0.527778 17:0.368165 18:0.08038 19:0.504202 20:0.337526 21:0.072709 22:0.481908 23:0.297825 24:0.079656 25:0.454907 26:0.27513 27:0.092975 
