svm_type c_svc
kernel_type linear
nr_class 15
total_sv 2460
rho 0.486082 0.486182 -0.867705 0.304284 0.238722 -0.263628 -0.0053314 0.784633 0.329987 0.452046 -0.805076 -0.421938 -0.147727 -0.118569 0.243676 -0.926345 0.352298 -0.41146 -0.6296 -0.424629 -0.186464 -0.011667 0.108897 -0.894521 -0.683824 -0.792366 -0.999502 -0.929782 -0.272838 -0.786143 -1.00131 -0.785084 -0.397331 -0.48963 -0.211281 -0.895702 -0.962216 -0.658143 -0.697316 1.3025 1.07985 0.801678 0.802808 0.956267 0.925997 1.24441 0.829009 0.694293 0.997205 0.752717 -0.31698 -0.933349 -0.531317 -0.0220015 0.00246314 0.399499 -1.43037 -0.689815 -0.999982 -0.991347 -0.419356 -0.337327 0.406885 0.250888 0.154083 -1.19269 -0.72177 -0.208463 -0.324785 0.25 0.373396 0.824479 0.747657 -0.718755 0.000878223 -0.0281575 -0.117523 0.414995 0.390075 0.69936 -0.71021 -0.26963 -0.10534 -0.275987 0.06064 0.294703 -0.935612 -0.724242 -0.412572 -0.366866 0.0863232 -0.922096 -1.0009 -0.513185 -0.552077 -1.1703 -0.721072 -0.795153 -0.635454 0.559928 1.07219 0.658735 0.227269 0.178564 -0.0885746
label 196 458 677 884 630 598 403 758 897 985 984 658 581 789 564
nr_sv 235 157 243 38 234 222 97 191 354 273 161 82 86 63 24
SV
0 0 0 0 0 0 0 1 0 0 0 0 0 0 5:1 10:1 16:1 24:1 95:1 
0 0 0 0 0 0 0 1 0 0 0 0 0 0 3:1 5:1 23:1 24:1 
0 0 0 0 0 0 0 1 0 0 0 0 0 0 5:1 13:1 27:1 32:1 
0 0 0 0 0 0 0 1 0 0 0 0 0 0 1:1 5:1 27:1 
0 0 0 0 0 0 0 1 1 0.2970165167059232 0 0 0 0 5:1 10:1 27:1 
0 0 0 0 0 0 0 0.4308580997407402 0 0 0 0 0 0 1:1 5:1 6:1 55:1 110:1 116:1 125:1 
0 0 0 0 0 0 0 1 0 0 0 0.1738018860837564 0 0 5:1 23:1 24:1 
0 0 0 0 0 0 0 1 0 0 0 0 0 0 3:1 5:1 16:1 24:1 
0 0.07105868333374935 0.1906732279006844 0.09311792490505114 0 0.09283792572648879 0.07627423593157168 1 0.2904189331848237 0.3627379829760897 0.1217982654282355 0.1471807422421019 0 0 3:1 5:1 36:1 129:1 223:1 
0 0 0 0 0 0 0 1 0 0 0 0.005446342441131969 0 0 5:1 10:1 27:1 120:1 134:1 
0 0 0 0 0 0 0 1 0 0 0 0 0 0 1:1 5:1 6:1 24:1 32:1 
0 0 0 0.5967647838999552 0.5278735899632458 0.2097358490428958 0.1190121495801607 1 0.2801055348461628 1 0.04955471792356296 0.1855640520971995 0.2359942078803514 0 3:1 9:1 11:1 16:1 18:1 153:1 
0 0 0 0 0 0 0 1 0 0 0 0 0 0 3:1 5:1 10:1 110:1 116:1 125:1 
0 0 0 0 0 0 0 0.000648064956455071 0 0 0 0 0 0 1:1 3:1 27:1 55:1 361:1 
0 0 0 0 0 0 0 1 0 0 0 0 0 0 1:1 3:1 5:1 25:1 27:1 
0 0 0 0 0 0 0 1 0 0 0 0 0 0 1:1 3:1 5:1 25:1 27:1 
0 0 0 0 0 0 0 0.495906814354075 0 0 0 0 0 0 3:1 55:1 110:1 116:1 125:1 360:1 
0 0 0 0 0 0 0 0.2935945318687865 0 0 0 0 0 0 1:1 5:1 24:1 77:1 126:1 
0 0 0 0 0 0 0 1 0 0 0 0 0 0 1:1 5:1 16:1 24:1 95:1 
0 0 0 0 0 0 0 0.9131384722140252 0.04039518615699829 0.0903387132675583 0 0 0 0 5:1 182:1 
0 0 0.1346473517126034 0 0 0 0 1 0 0 0.08640413870277812 0 0 0 6:1 16:1 24:1 153:1 
0 0 0 0 0 0 0 1 0 0 0 0 0 0 5:1 13:1 27:1 32:1 
0 0 0 0 0 0 0 1 0 0 0 0 0 0 5:1 13:1 16:1 24:1 
0 0.1800788975181121 0 0 0 0.1235051047546674 0.01820804952104151 1 0.03035321049902111 0 0 0 0.1026534398269831 0 3:1 9:1 10:1 11:1 27:1 121:1 188:1 
0 0.7853283643115221 0.1501928049638424 0.595953755872322 0 0 0 1 0.02390401051780634 1 0.2262385843017815 0 0 0.159340384120131 1:1 6:1 27:1 
0 0 0 0 0 0 0 0 0 0 0 0 0.0004373311073501564 0.01976584655216739 9:1 10:1 11:1 27:1 77:1 80:1 
0 0 0 0 0 0 0 1 0 0 0 0 0 0 16:1 24:1 26:1 162:1 
0 0 0 0 0 0 0 1 0 0 0 0 0 0 1:1 16:1 24:1 57:1 97:1 
0 0 0 0 0 0 0 1 0 0 0 0 0 0 3:1 5:1 13:1 27:1 55:1 
0 0 0 0 0 0 0 0.8074800741590049 0 0 0 0 0 0 1:1 5:1 6:1 27:1 55:1 
0 0 0 0 0 0 0 1 0 0 0 0 0 0 1:1 5:1 24:1 112:1 679:1 
0 0 0 0 0 0.5814914763513754 0 1 0 0 0 0 0 0 1:1 2:1 24:1 57:1 
0 0 0 0 0.01888125903633474 0 0 1 0 0 0.004695254449047725 0 0 0 1:1 18:1 23:1 24:1 53:1 88:1 123:1 
0 0 0 0 0 0 0 1 0 0 0 0 0 0 3:1 5:1 10:1 25:1 27:1 
0.366054784211651 0.7311745889937785 0 0.3651383140439873 1 0.2506998966862906 0.7416787756143288 1 0.8721620174484551 1 0 0.3314662674334145 0 0.1408108700244331 1:1 5:1 137:1 
0 0 0 0 0 0 0 0 0 0 0 0 0.01351701380459302 0.01156478930766579 5:1 77:1 110:1 287:1 
0 0 0 0 0 0 0 1 0 0 0 0 0 0 1:1 3:1 27:1 56:1 240:1 
0 0 0.03640814862617828 0 0 0 0 1 0 0.213783573734911 0.02668757271313971 0 0.2169928915961489 0 2:1 23:1 90:1 97:1 116:1 
0 0 0 0 0 0 0 1 0 0 0 0 0 0 9:1 10:1 11:1 18:1 27:1 77:1 140:1 
0.8696002161885439 1 0 0.8455122876325826 0.4792826091002224 0.7757994805087561 0.5481816512581643 1 0.8338132123445576 0.9281458733327043 0.02047860681312356 0.3227793841355412 0.353109829667034 0.3830600825953918 1:1 2:1 141:1 997:1 
0 0 0 0 0 0 0 1 0 0 0.01536682342989097 0 0 0 1:1 6:1 24:1 77:1 
0 0 0.0362306915649421 0 0 0 0 1 0 0 0 0 0.1832250505996834 0 16:1 24:1 137:1 
0.4412500584881194 0 0 0 0.2198770935997288 0 0.7945093689717527 0 0 0 0 0 0.05585867076691765 0.10748887731612 10:1 24:1 25:1 26:1 110:1 
0.09124262137520076 0.8411021743723543 0 0.468168853707621 0.2794277034391841 0.2534153696513213 0 1 0.2501778237525586 0.1752886577001232 0.02909195401924396 0.1090833301916959 0 0.1319086743740537 3:1 110:1 116:1 120:1 
0 0 0 0 0 0 0 0.1519602470487384 0 0 0 0 0 0 1:1 3:1 5:1 27:1 55:1 
0.1068351715083197 0.1206694686986906 0 0 0.1417531001469176 0.2249112570656058 0.2090328654503098 1 0.1295944610370021 0 0 0.08850477674064228 0 0.02211715260131158 1:1 2:1 18:1 53:1 57:1 147:1 
0 0 0 0 0 0 0 1 0 0 0 0 0 0 1:1 5:1 6:1 24:1 77:1 
0 0 0 0 0 0 0 1 0 0 0 0 0 0 1:1 3:1 5:1 24:1 77:1 
0 0 0 0 0.4770380599343187 0 0 1 0 0 0 0 0 0 1:1 5:1 27:1 41:1 
0 0 0 0 0 0 0 0.5513429753722014 0 0 0 0 0 0 3:1 27:1 55:1 
0 0 0 0 0 0 0 0.6534720064672692 0 0 0 0 0 0 5:1 13:1 25:1 27:1 
0 0 0 0 0 0.06183638356855745 0 1 0 0 0 0 0 0 1:1 2:1 18:1 23:1 24:1 53:1 88:1 119:1 
0 0 0 0 0 0 0 1 0 0 0 0 0 0 1:1 5:1 6:1 32:1 127:1 
0 0 0 0 0 0 0 1 0 0 0 0 0 0 1:1 5:1 27:1 55:1 
0 0 0 0 0 0 0 1 0 0 0 0 0 0 1:1 5:1 6:1 27:1 32:1 
0 0.5791910129943071 0 0 0 0.5961826250865121 0 1 0 0 0 0 0 0 3:1 9:1 10:1 11:1 25:1 27:1 
0 0 0 0 0 0 0 1 0 0 0 0 0 0 1:1 3:1 5:1 27:1 55:1 
0 0 0 0 0 0 0 1 0 0 0 0 0 0 1:1 3:1 5:1 55:1 
0 0 0 0 0 0 0 0.06611294653941736 0 0 0 0 0 0 5:1 13:1 27:1 55:1 
0 0 0 0 0 0 0 1 0 0 0 0 0 0 5:1 6:1 27:1 
0 0 0 0 0 0 0 1 0 0 0 0 0 0 1:1 5:1 6:1 25:1 27:1 
0 0 0 0 0 0 0 1 0 0 0 0 0 0 1:1 5:1 6:1 27:1 129:1 
0 0 0 0 0 0 0 1 0 0 0 0 0 0 3:1 5:1 16:1 24:1 89:1 
0 0 0 0 0 0 0 1 0 0 0 0 0 0 3:1 5:1 27:1 55:1 
0 0 0 0 0 0 0 1 0 0 0 0 0 0 1:1 5:1 27:1 55:1 
0 0 0 0 0 0 0 1 0 0 0 0 0 0 1:1 5:1 16:1 24:1 95:1 
0 0 0 0 0 0 0 1 0 0 0 0 0 0 1:1 2:1 16:1 18:1 24:1 53:1 90:1 
0 0 0 0 0 0 0 1 0 0 0 0 0 0 1:1 5:1 6:1 27:1 32:1 
0 0 0 0 0 0 0 1 0 0 0 0 0 0 1:1 5:1 6:1 27:1 56:1 
0 0 0.03027667817159973 0 0.01421593120328674 0 0 1 0 0 0.1110192169748969 0 0 0 1:1 6:1 18:1 27:1 32:1 
0 0 0 0 0 0 0 1 0 0 0 0 0 0 1:1 3:1 5:1 27:1 188:1 
0 0 0 0 0 0 0 1 0 0 0 0 0 0 5:1 16:1 24:1 
0 0 0 0 0.8783374665543799 0 0 1 0 0 0 0.5724779539769539 0 0 3:1 9:1 11:1 18:1 27:1 
0 0.9920706864790029 0 0 0 0 0 1 0 0 0 0 0 0 1:1 6:1 24:1 25:1 
0.02496366732071635 0 0.02550775183701079 0 0 0 0 1 0 0.14257260921201 0.01616825592135549 0 0.1532949607534349 0 5:1 16:1 89:1 134:1 
0 0 0 0 0 0.03981824384840192 0 1 0 0.04007758455731986 0 0 0 0 2:1 13:1 16:1 24:1 88:1 102:1 
0 0 0 0 0 0 0 1 0 0 0 0 0 0 5:1 16:1 24:1 182:1 
0 0 0 0 0 0 0 0.8736497361099933 0 0 0 0 0 0 9:1 11:1 16:1 18:1 24:1 134:1 182:1 
0 0 0 0 0 0 0 1 0 0 0 0 0 0 2:1 10:1 16:1 18:1 24:1 53:1 90:1 152:1 
0 0 0 0 0 0 0 1 0 0 0 0 0 0 1:1 3:1 5:1 25:1 27:1 
0 0 0 0 0 0 0 0.5144407612191384 0 0 0 0 0 0 5:1 6:1 13:1 25:1 27:1 
0 0 0 0 0 0 0 0.5184529241967289 0 0 0 0 0 0 3:1 5:1 25:1 27:1 
0 0 0 0 0 0 0 1 0 0 0 0 0 0 3:1 5:1 13:1 27:1 920:1 
0 0 0 0 0 0 0 0.7684371325902998 0 0 0 0 0 0 1:1 3:1 5:1 25:1 127:1 
0 0 0 0 0 0 0 1 0 0 0 0 0 0 5:1 6:1 27:1 41:1 
0 0 0 0 0 0 0 1 0 0 0 0 0 0 1:1 5:1 6:1 27:1 55:1 
0.3659687721575953 1 0 0.7825899377032287 1 0 1 1 0.4857943828949811 0.1411957266694496 0 0 0 0.140529381093914 1:1 5:1 41:1 
0 0 0 0 0 0 0 1 0 0 0 0 0 0 3:1 5:1 16:1 24:1 
0 0 0 0 0 0 0 1 0 0 0 0 0 0 3:1 5:1 16:1 24:1 137:1 
0 0 0 0 0.7328914133958153 0 0.307099765062233 1 0 0.9198946008378756 0 0 0 0 1:1 5:1 6:1 56:1 
0 0.09994018779698312 0.02478634014066563 0 0.6550989187677428 0 0.3385835832123069 1 0.2146477413926739 0.68577465617224 0.0419597821238647 0.005679043279054241 0.07745892691178276 0.0269147241972604 11:1 18:1 109:1 842:1 
0 0.5907314513135675 0 0.3644748902178994 0.7525754904405861 0.2789320875055165 0.3767169221346842 0 0.8708425193786684 1 0 0.4413247723545463 0 0 3:1 5:1 77:1 
0 1 0 0.5312453853524933 1 0 1 1 0.6256088397773688 1 0 0 0 0 1:1 5:1 6:1 25:1 
0 0 0 0.1032343378457806 0.04369671083702761 0.02964469347560849 0 1 0.3247338945536037 0.5105679101862761 0 0.1081803301700668 0 0 3:1 5:1 10:1 110:1 188:1 
0 0 0 0 0 0 0 1 0 0 0 0 0 0 1:1 2:1 18:1 23:1 24:1 53:1 90:1 152:1 
0 0 0 0 0 0 0 0.6051262624802844 0 0 0 0 0 0 1:1 5:1 6:1 55:1 127:1 
0 0 0 0 0 0 0 1 0 0 0 0 0 0 1:1 6:1 11:1 18:1 27:1 120:1 
0 0 0 0 0 0 0 1 0 0 0 0 0 0 1:1 5:1 55:1 110:1 113:1 116:1 125:1 
0 0.07000198925948004 0 0 0.3234181469988073 0.1381370386890082 0.2626651693862449 1 0.260101099224597 0.1115006630741032 0 0.2011085679835778 0 0 1:1 9:1 11:1 18:1 127:1 410:1 
0 0 0 0 0 0 0 0.8512620028812894 0 0 0 0 0 0 1:1 3:1 25:1 27:1 325:1 
0 0 0 0 0 0 0 1 0 0 0.1330105095700042 0 0 0 3:1 16:1 18:1 24:1 137:1 
0 0 0 0 0 0 0 1 0 0 0 0 0 0 1:1 3:1 5:1 55:1 
0 0 0 0 0.976533453037987 0 0 0.9927572071479942 0 0 0 0 0 0 3:1 18:1 24:1 25:1 
0 0 0 0 0 0 0 0.9996307119851542 0 0 0 0 0 0 6:1 9:1 11:1 18:1 24:1 182:1 235:1 
0 0 0 0 0 0 0 1 0 0 0 0 0 0 1:1 3:1 5:1 27:1 56:1 
0 0.3775187038293416 0 0.08534196338667803 0.8651694848353824 0 0.1482087831540837 0.7141419469870265 0 0 0 0 0 0 1:1 3:1 5:1 25:1 223:1 
0 0 0 0 0 0 0 1 0 0 0 0 0 0 5:1 13:1 55:1 116:1 125:1 
0 0 0 0 0 0 0 1 0 0 0 0 0 0 1:1 6:1 27:1 32:1 
0 0 0 0 0 0 0 1 0 0 0.005950127712319089 0 0 0 3:1 16:1 24:1 89:1 
0 0 0 0 0 0 0 1 0 0 0 0 0 0 5:1 6:1 55:1 
0.3075226822165656 0.6017883391263916 0.0273314726614971 0.4102265653874031 0.09410687384894117 0.3814000250936713 0.06864216443960362 1 1 0.2296411965490195 0.0562193387024382 0.4285129151843011 0.01736914539785813 0.07223177941634831 3:1 13:1 52:1 56:1 
0 0 0 0 0.1230045112734205 0.06938207339501015 0 0.5990450564980383 0 0 0 0 0 0 3:1 9:1 11:1 13:1 18:1 55:1 
0 0 0 0 0.01314586111898037 0.07540380221546474 0 1 0 0.1012684812213287 0 0 0 0 3:1 13:1 110:1 116:1 125:1 
0 0 0 0 0 0 0 1 0 0 0 0 0 0 1:1 5:1 27:1 126:1 
0 0 0 0 0 0 0 1 0 0 0 0 0 0 1:1 5:1 6:1 24:1 25:1 
0 0 0 0 0 0 0 0.4384573261983734 0 0 0 0 0 0 1:1 6:1 9:1 11:1 18:1 25:1 27:1 
0 0 0 0 0 0 0 1 0 0 0 0 0 0 1:1 5:1 27:1 55:1 
0.6200500519494231 0.7028146422131785 0.01734610234329738 0.2164296525888644 0.4493172201664362 0.2290610942819568 0.277397013359144 0.0004984463887995074 0.1198864634070845 0.1260893346836459 0.02482122103279509 0.06823199686245832 0.1655350061184642 0.1267691802787036 13:1 25:1 164:1 327:1 
0 0 0 0 0 0 0 0.9423005511923485 0 0 0 0 0 0 1:1 5:1 27:1 77:1 
0 0.1395011060861328 0 0 1 0 1 1 0 0.2228778279569885 0.0156663666658204 0.04841277945574957 0 0 1:1 9:1 11:1 18:1 55:1 
0.8697047053891435 1 0 0.8456154283303343 0.4795434093344882 0.3921990975636152 0.5480552063080415 1 0.8335079513452428 0.7142446538085985 0 0.2721402382639398 0.136240241720693 0.3829534754369601 1:1 2:1 90:1 97:1 
0 0 0 0 0.3488245502784967 0 0.2252605205587859 1 0.2175774773372594 0.8145945765290955 0.02268563231347843 0 0 0 1:1 5:1 23:1 95:1 
0.5165008980933361 0.5134940980551737 0 0.2637826665031873 0.8233193447294488 0.2512539940897375 0.690588279588512 0.9981388442351136 0.9806114622137615 0.9973460316311099 0 0.5784930898977605 0.2021033197791555 0.2944579394246399 5:1 182:1 
0 0 0 0 0 0 0 1 0 0 0 0 0 0 5:1 13:1 27:1 56:1 
0 0 0 0 1 0 0 1 0 0 0 0 0 0 5:1 6:1 13:1 25:1 
0 0 0 0 0 0 0 1 0 0 0 0 0 0 3:1 5:1 16:1 24:1 137:1 
0 0 0 0 0 0 0 1 0 0 0 0 0 0 5:1 16:1 24:1 196:1 
0 0 0 0 0 0 0 1 0 0 0 0 0 0 5:1 24:1 89:1 
0 0 0 0 0 0 0 0.792406898136845 0 0 0 0 0 0 3:1 5:1 24:1 77:1 
0 0 0 0 0 0 0 1 0 0 0 0 0 0 3:1 5:1 89:1 
0 0 0.09835756121068367 0.305792513017667 0 0 0 1 0 0.2312227976062714 0.1364793113764217 0 0.13589286364923 0 1:1 2:1 16:1 53:1 57:1 80:1 147:1 
0 0 0 0 0 0 0 1 0 0 0 0 0 0 5:1 13:1 27:1 55:1 
0 0 0 0 0 0 0 0.0001603317862115015 0 0 0 0 0 0 3:1 5:1 27:1 55:1 585:1 
0 0 0 0 0 0 0 1 0 0 0 0 0 0 1:1 3:1 5:1 27:1 55:1 
0 0 0 0 0 0 0 1 0 0 0 0 0 0 1:1 3:1 5:1 27:1 188:1 
0 0 0 0 0 0 0 1 0 0 0 0 0 0.0286990100566856 3:1 27:1 56:1 
0 0 0 0 0 0 0 1 0 0 0 0 0 0 1:1 9:1 11:1 16:1 18:1 24:1 95:1 
0 0 0 0 0 0 0 1 0 0 0 0 0 0 1:1 16:1 24:1 57:1 102:1 141:1 
0 0 0 0 0 0 0 1 0 0 0 0 0 0 3:1 5:1 13:1 27:1 
0 0 0 0 0 0.2201558060829371 0 1 0 0 0 0 0 0.1540168483116374 6:1 27:1 32:1 
0 0 0 0 0 0 0 1 0 0 0 0 0 0 24:1 53:1 57:1 141:1 198:1 
0 0 0 0 0 0 0 0.9915230322770398 0 0 0 0 0 0 1:1 3:1 27:1 77:1 
0 0 0 0 0 0 0 1 0 0 0 0 0 0 1:1 5:1 23:1 24:1 
0 0 0 0 0 0 0 1 0 0 0 0 0 0 16:1 24:1 26:1 162:1 
0.7175642663015463 1 0 0.1863176646449317 1 1 0.3247503425930855 1 0.8936552237763908 1 0 0.4048113507765745 0.1264454444080324 0 5:1 6:1 32:1 
0 0 0 0 0 0 0 1 0 0 0 0 0 0 1:1 3:1 5:1 27:1 77:1 
0 0 0 0 0 0 0 1 0 0 0 0 0 0 3:1 5:1 27:1 188:1 
0 0 0 0 0 0 0 1 0 0 0 0 0 0 1:1 5:1 6:1 25:1 27:1 
0 0 0 0 0 0 0 1 0 0 0 0 0 0 1:1 3:1 5:1 27:1 55:1 
0 0 0 0 0 0 0 1 0 0 0 0 0 0 1:1 5:1 6:1 27:1 77:1 
0 0 0 0 0 0 0 1 0 0 0 0 0 0 1:1 5:1 6:1 27:1 
0 0 0.0002304895811329959 0 0 0 0 0.8368264056471493 0 0 0 0 0 0 1:1 6:1 27:1 77:1 
0 0 0 0 0 0 0 1 0 0 0 0 0 0 1:1 23:1 24:1 57:1 
0 0 0 0 0 0 0 1 0 0 0 0 0 0 1:1 16:1 24:1 57:1 
1 1 0 0.4143434782240701 0.8508905691457253 0 0.5496037414798958 1 0.8557174927979894 1 0 0.2433385413113429 0.266816042529356 0.5175653572410028 13:1 57:1 
0 0 0 0 0 0 0 1 0 0 0 0 0 0 1:1 5:1 6:1 27:1 138:1 
0 0 0 0 0 0 0 1 0 0 0 0 0 0 1:1 3:1 5:1 27:1 77:1 
0 0 0 0 0 0 0 1 0 0 0 0 0 0 1:1 5:1 6:1 25:1 27:1 
0 1 0 0.7640282354494429 1 0.2788364446782106 1 1 0.3857109071479896 0.9468480643462283 0 0.4415348572601652 0 0 3:1 5:1 41:1 
0 0 0 0.06554706261051955 0 0 0 1 0 0.07486975292399356 0 0 0 0 1:1 2:1 18:1 23:1 24:1 53:1 88:1 123:1 
0.1789480303188916 1 0.07185669921091518 1 0.3138087496813202 0.3530839843268003 0.2913544091405715 1 0.413076314571421 0.7628802726434533 0.03261202004147613 0.2067702811189803 0.8115743624353705 0.01821948503509043 1:1 9:1 11:1 16:1 95:1 
0 0 0 0 1 0.4521439274486772 0 1 0 0 0 0.124908406831392 0 0 3:1 5:1 13:1 25:1 
0 0 0 0 0 0 0 1 0 0 0 0 0 0 3:1 5:1 13:1 27:1 
0 0 0 0 0 0 0 1 0 0 0 0 0 0 1:1 5:1 6:1 56:1 110:1 116:1 125:1 
0 0 0 0 0 0 0 1 0 0 0 0 0 0 1:1 5:1 6:1 27:1 56:1 
0 0 0 0 0 0 0 1 0 0 0 0 0 0 1:1 2:1 57:1 102:1 141:1 
0.263002465795809 0 0.01824432466978177 0.3522763384616341 0 0 0.2652317178570494 1 0.00616305264801279 0.5034027477925107 0.01191803950989464 0 0.2821150557672749 0.3494037178159994 16:1 24:1 26:1 162:1 
0 0 0 0 0 0 0 1 0 0 0 0 0 0 3:1 5:1 13:1 27:1 55:1 
0 0 0 0 0 0 0 1 0 0 0 0 0 0 3:1 5:1 10:1 27:1 56:1 
0 0 0 0 0 0 0 1 0 0 0 0 0 0 1:1 5:1 6:1 27:1 55:1 
0 0 0 0 0 0 0 0.6528639725839603 0 0 0 0 0 0 5:1 13:1 110:1 116:1 120:1 
0.1401906953681982 0 0 0 0 0 0 1 0 0 0 0 0 0.1056934306696656 1:1 24:1 95:1 
0 0 0 0 0 0 0 1 0 0 0 0 0 0 5:1 6:1 27:1 
0 0 0 0 0 0 0 1 0 0 0 0 0 0 1:1 5:1 6:1 27:1 55:1 
0 0 0 0 0 0 0 0.8132645917296142 0 0 0 0 0 0 1:1 3:1 5:1 27:1 77:1 
0 0 0 0 0 0 0 1 0 0 0 0 0 0 3:1 5:1 25:1 27:1 
0.1917375723733839 0.7264519390821228 0.01636647022766242 0.42737828648743 0.9761080057323711 0.5647243151336325 0.3629270378222096 1 0.6284550210042323 1 0.08220707089466335 0.2940122634678026 0.213079335027993 0.1336560945318847 3:1 11:1 18:1 970:1 
0 0 0 0 0 0 0 1 0 0 0 0 0 0 1:1 5:1 6:1 27:1 55:1 
0 0 0 0 0 0 0 1 0 0 0 0 0 0 5:1 6:1 13:1 27:1 56:1 
0 0 0 0 0 0 0 1 0 0 0 0 0 0 3:1 5:1 55:1 
0 0 0 0 0 0 0 1 0 0 0 0 0 0 3:1 5:1 24:1 41:1 
0 0 0 0 0 0 0 1 0 0 0 0 0 0 10:1 23:1 24:1 57:1 97:1 
0 0 0 0 0 0 0 1 0 0 0 0 0 0 1:1 3:1 5:1 27:1 56:1 
0.6677328916475642 1 0.05393318008234472 0.7027092757967542 1 0.5083562845020407 0.6338442270251076 1 0.4603517776498658 1 0.1123013522644657 0.06389657248174684 0.3144523575644589 0.3638441589538542 1:1 126:1 127:1 
0 0 0 0 0 0 0 1 0 0 0 0 0 0 5:1 6:1 27:1 
0 0 0 0 0 0 0 1 0 0 0 0 0 0 5:1 13:1 16:1 24:1 95:1 
1 0 0 0.731127547660626 0 0 0.8304179817186358 1 0 0 0 0 0.7453797076393348 0.05254409583038199 10:1 25:1 27:1 
0 0 0 0 0 0 0 0.6846927412804549 0 0 0 0 0 0 3:1 9:1 10:1 11:1 18:1 110:1 120:1 127:1 
0 0 0 0 0 0 0 1 0 0 0 0 0 0 5:1 13:1 16:1 24:1 95:1 
0 0 0 0 0 0 0 1 0 0 0 0 0 0 1:1 3:1 5:1 27:1 787:1 
0.9449026372742064 1 0 0.9420504822802647 0 0.7414510885761404 0 0.3653064121849197 1 1 0 0.4193906881518623 0.4262106427547501 0.4464957630348784 2:1 55:1 109:1 
0 0 0 0 0 0 0 1 0 0 0 0 0 0 3:1 5:1 10:1 25:1 27:1 
0 0 0 0 0 0 0 1 0 0 0 0 0 0 3:1 5:1 13:1 27:1 55:1 
0 0 0 0 0 0 0 0.9333971330608924 0 0 0 0 0 0 3:1 5:1 13:1 27:1 55:1 
0 0 0 0 0 0 0 1 0 0 0 0 0 0 10:1 16:1 24:1 57:1 97:1 
0 0 0 0 0 0 0 0.9458459640968655 0 0 0 0 0 0 5:1 6:1 25:1 27:1 
0 0 0 0 0 0 0 1 0 0 0 0 0 0 1:1 3:1 5:1 25:1 27:1 
0 0 0 0 0 0 0 1 0 0 0 0 0 0 3:1 27:1 55:1 
0 0 0 0 0 0 0 1 0 0 0 0.002151825294947109 0 0 5:1 10:1 25:1 127:1 
0 0 0 0 0 0 0 1 0.05246316349973493 0 0 0 0 0 3:1 5:1 10:1 110:1 116:1 125:1 
0 0 0 0 0 0 0 1 0 0 0 0 0 0 1:1 5:1 27:1 109:1 
0 0 0 0 0 0 0 1 0 0 0 0 0 0 1:1 5:1 6:1 27:1 55:1 
0 0 0 0 0 0 0 1 0 0 0 0 0 0 5:1 16:1 24:1 
0 0 0 0 0 0 0 1 0 0 0 0 0 0 5:1 6:1 13:1 27:1 55:1 
0.06577499492667546 0.01914127847834706 0 0 0 0.06172265281091559 0 1 0.07364842826042313 0 0 0.005294762153658127 0 0 1:1 2:1 18:1 24:1 53:1 88:1 123:1 165:1 
0 0 0 0 0 0 0 1 0 0.7254671367290675 0 0 0 0 5:1 6:1 23:1 24:1 
0 0 0 0 0 0 0 1 0 0 0 0 0 0 2:1 13:1 16:1 18:1 24:1 53:1 57:1 141:1 
0 0 0.02482658558258555 0 0 0 0 1 0 0 0 0 0 0 6:1 27:1 55:1 
0 0 0 0 0 0 0 1 0 0 0 0 0 0 3:1 5:1 27:1 55:1 
0.1001626469722963 0 0.03534241702951951 0 0.01985746165132826 0 0 0.000390060216279269 0 0 0.03964059326942593 0 0.1048070481626432 0 6:1 25:1 110:1 116:1 125:1 512:1 
0 0 0 0 0 0 0 0.9622776770607016 0 0 0 0 0 0 6:1 13:1 27:1 55:1 
0 0 0 0 0 0.3833410349308971 0 1 0 0 0 0.0507566085372165 0 0 2:1 13:1 90:1 97:1 
0 0 0 0 0 0 0 1 0 0 0 0 0 0 5:1 10:1 56:1 110:1 116:1 125:1 
0 0 0 0 0 0 0 0.6363299672545383 0 0 0 0 0 0 5:1 23:1 24:1 77:1 109:1 110:1 116:1 125:1 
0 0 0 0 0 0 0 0.8140408873771467 0 0 0 0 0 0 5:1 6:1 13:1 27:1 55:1 
0 0 0 0 0 0 0 0.4853957004693906 0 0 0 0 0 0 1:1 5:1 6:1 27:1 77:1 
0 0 0.04996377595915327 0.4465709906625162 0 0 0 1 0 0.1649351935820228 0.04490791019481086 0 0.2518276599731032 0 10:1 16:1 24:1 112:1 
0 0 0 0 0 0 0 1 0 0 0 0 0 0 1:1 5:1 25:1 27:1 
0 0 0 0 0 0 0 1 0 0 0 0 0 0 3:1 5:1 16:1 24:1 89:1 
0.1064607462604007 0.1732779607624066 0.005294652669210458 0.3152412423376103 0 0 0 1 0.02330620992274545 0.1310414974279846 0.01993768979144217 0 0 0.04132392960267059 1:1 23:1 24:1 102:1 119:1 
0 0 0 0 0 0 0 1 0 0 0 0 0 0 3:1 5:1 27:1 
0 0 0 0 0 0 0 0.3860029000489341 0 0 0 0 0 0 11:1 18:1 25:1 27:1 
0 0 0 0 0 0 0 1 0 0 0 0 0 0 1:1 3:1 5:1 24:1 77:1 
0 0 0 0 0 0 0 1 0 0 0 0 0 0 1:1 3:1 5:1 27:1 41:1 
0 0 0 0 0 0 0 0.9994962848043534 0 0 0 0 0 0 3:1 5:1 25:1 27:1 
0 0 0 0 0 0 0 1 0 0 0 0 0 0 5:1 10:1 16:1 24:1 112:1 
0 0 0 0 0 0 0 1 0.7906029485903411 0 0 0.2256627260644647 0 0 5:1 6:1 24:1 
0 0.5909975360177375 0 0.3644753050700206 0.7525154674950519 0.278882449329052 0.3768815141492365 1 0.8710703630905997 0.9459756312300576 0 0.4415348572601651 0 0 3:1 5:1 89:1 
0 0 0 0 0 0 0 1 0 0 0 0 0 0 5:1 6:1 24:1 77:1 
0.6547383649946554 1 0.01380290913398561 1 1 1 1 1 1 1 0.1463568442321888 1 1 0 5:1 6:1 
0 0 0 0 0 0 0 1 0 0 0 0 0 0 5:1 13:1 27:1 55:1 
0 0 0 0 0 0 0 0.9922618819952107 0 0 0 0 0 0 5:1 77:1 110:1 116:1 125:1 
0 0 0 0 0 0 0 1 0 0 0 0 0 0 1:1 6:1 27:1 56:1 455:1 
0 0 0 0 0 0 0 1 0 0 0 0 0 0 3:1 5:1 10:1 27:1 32:1 
0 0 0 0 0 -0 0 1 0 0 0 0 0 0 13:1 16:1 18:1 24:1 53:1 57:1 141:1 
-0.2514777964886327 0.6218558913780959 0 0.6761430706724079 0.2241851898420493 0.1851037854108624 0.06781055716228827 0.4068311388966667 0.4943500067246023 0.2181437135018047 0 0.105346132408291 0 0.0009502464053387463 45:1 397:1 
-1 1 0 1 1 1 1 1 1 1 0 0.1689288440170388 0.1840136856294592 0 1:1 2:1 
-0 0 0 0 0 0 0 0 0 0 0 0 0 0.1236790671925691 1:1 14:1 20:1 45:1 51:1 
-0.1499857091408534 0 0.006894018894781198 0.001803903399609709 0 0 0.1648028830699196 0.05055032077357523 0 0 0.01654804375259929 0 0 0.000551807488569121 1:1 82:1 244:1 
-0 0 0 0 0 0 0 0 0 0 0 0 0 0.1940074087607334 1:1 8:1 14:1 20:1 32:1 45:1 
-0 0 0 1 0 0 0 0 0 0.0001392765449948936 0 0 0 0 1:1 8:1 30:1 1156:1 
-0 0 0 0 0.6450430113655564 0 0.5906790676182302 0 0 0.8593173041135713 0 0.2467199574293668 0 0 26:1 62:1 
-0 0.3885747397631878 0.008921217529036088 0 0 0 0 0 0.3397542299712124 0 0.04904385506670505 0 0.6277702986800519 0 15:1 61:1 
-0.3641743698410985 0 0.06643906719717652 0.3502348574312665 0.5882730557529522 0 0.3721215147487955 0.7629488542629221 0 0 0.08877612156188558 0.3162306839946971 0.2078439563382589 0.1913540626948049 82:1 
-0.51434858999452 1 0.07396951904264848 0.113750134951126 0.5884228495408879 0.3695988804371599 0.135321965697363 0.8136622777933334 0.9881712683275702 0.4357773971134834 0.1052696615140765 0.3163727993908153 0 0 99:1 
-0 0 0 0 0 0.2505401039808604 0 0 0 0 0 0 0 0 3:1 14:1 15:1 150:1 
-0 0 0 0 0 0 0 0 0.05705931302431846 0.07512099975415573 0 0 0 0 2:1 46:1 
-0 0 0 0 0 0 0 0 0 0 0 0 0 0.0007816266459649598 1:1 8:1 14:1 45:1 131:1 
-0 0 0 0.1991611561430018 0 0 0 0 0 0 0 0 0 0 1:1 8:1 35:1 117:1 
-0 0 0 0 0 0 0 0 0 0 0 0 0 0.02564248635117813 14:1 15:1 26:1 178:1 
-0 0 0 1 0 0 0 0 0 0 0 0 0 0 8:1 25:1 
-1 1 0.08018631835718794 1 1 1 1 1 1 1 0.0867521387306187 1 1 0.2137401111739543 1:1 2:1 
-0 0 0 0 0 0 0 0 0 0 0 0 0 0.1509618991287494 8:1 14:1 32:1 45:1 
-0 0 0 0 0 0 0 0 0 0 0 0 0 0.0004943510867603796 1:1 62:1 82:1 260:1 
-0 0 0 1 0 0 0 0 0 1 0 0 0 0 1:1 8:1 30:1 
-0 0 0 0 0 0 0 0 0 0 0 0 0 0.19994731441861 14:1 45:1 199:1 346:1 
-0.6641950407698742 1 0.0402141636353623 0 0.5409049995781842 0.3390671677529189 0.3697544773654956 0.8633131013204672 0.2993165302010933 0.5540667808383637 0.06080234359419354 0 0.0719039906711834 0.08298828111304397 1:1 32:1 74:1 
-0 0 0 0 0 0 0 0 0 0 0 0.1055171534220497 0 1 45:1 74:1 
-0 0 0.03479226250818288 1 0 0 0 0.05167043332999689 0.0142825829908934 0 0.1612933848568905 0 0.02964441823694619 0.06021962146950972 1:1 8:1 35:1 
-0 0 0 0 0 0 0 0 0 0 0 0 0 0.0004847139493143645 8:1 13:1 14:1 129:1 
-0.9560847475303023 1 0.125864562196658 0.757675881352839 1 0.4739609644734661 0.5258610638251049 1 0.2752480735120986 0.01266948405566398 0.2167486329812195 0.04001904955416456 0.408298633665081 0 6:1 20:1 25:1 
-0 0 0 0 0 0 0 0 0 0 0 0 0 1 14:1 26:1 45:1 178:1 
-0 0 0.006833385863044562 0.001809727081118514 0 0 0.07629140927369274 0.01486634349851823 0 0 0.01637814064507285 0 0 0 1:1 84:1 208:1 
-0 0 0 1 0.0171319882385335 0 0 0 0.09419101230161978 0 0 0.01384853183140663 0.8485431614132657 0.5117420618539061 8:1 35:1 
-0 0 0 0.8369843634972439 0 0 0 0 0 0 0 0 0 0.003889022912644116 8:1 13:1 30:1 74:1 
-0 0 0.05580064191221275 0 0 0 0 0 0 0 0 0 0 0 1:1 8:1 14:1 15:1 20:1 30:1 33:1 
-0 0 0 0 0 0 0 0 0 0 0 0 0 0.0002356181485246633 1:1 8:1 15:1 
-0 0 0 1 0 0 0 0 0 0 0 0 0 0.07818870501145972 1:1 8:1 14:1 
-0 0 0 1 0 0 0 0 0 0 0 0 0 0.3978358747707431 1:1 8:1 35:1 62:1 
-0 0 0 0.2998894772997718 0 0 0 0 0 0 0 0.03519604148040435 0 0.0004446017749272022 8:1 51:1 478:1 
-0 0 0 0.9994034532951434 0 0 0 0 0 0 0 0 0 0 1:1 8:1 35:1 117:1 
-0 0 0 0.2387383959079544 0 0.0003453711027356908 0.0002765581218188066 0 0 0.000223080985894495 0 0 0.6277702986800519 0 61:1 99:1 
-0.008068796248507875 0 0.03610577830173461 0 0 0 0 0 0 0 0.044209443536643 0 0 0.00051460944817798 62:1 150:1 
-0 0 0 0 0 0 0 0 0 0 0 0 0 0.0003914227843605789 8:1 13:1 14:1 32:1 45:1 723:1 
-0 0 0 0 0 0 0 0 0 0 0 0 0 0.3150117815818596 8:1 20:1 35:1 
-0 0 0 0.19158013190121 0 0 0 0 0 0 0 0 0 0 8:1 25:1 62:1 278:1 
-0 0 0 0 0 0 0 0 0 0 0 0 0 0.5974758030161844 1:1 20:1 45:1 51:1 
-0 0 0 0 0 0 0 0 0 0 0 0 0 0.001453066753755462 1:1 8:1 15:1 30:1 74:1 
-0.1455366384034972 0.6981937285536814 0.0121349100458096 1 0.364768709626872 0 0.5915253973864867 0 0.6047457909334282 1 0.02430645817254124 0 0.3686189134558805 0 10:1 26:1 51:1 
-0.07705505219218921 0.3588392256107437 0 0 0 0 0 0 0.2557869767479947 0.2869171540166662 0.01747016004106209 0 0 0 2:1 10:1 62:1 
-0 0 0 0 0 0 0 0 0 0 0 0 0 0.7737367461781109 15:1 26:1 74:1 178:1 
-0.01135174946513773 0 0.1985222022565807 0 0.1403144025352741 0 0 0 0 0 0.31838507060425 0 0 5.891227083525407e-05 13:1 14:1 18:1 36:1 39:1 45:1 434:1 
-0 0.00020632159369228 0 0 0.005926205099849272 0 0.2411617267804742 0.03283207340228962 0.3025468481386077 0.6460287105283488 0 0.1233144192710021 0 0 26:1 117:1 644:1 
-0 0 0 0 0 0 0 0 0 0 0 0 0 0.1572786013002579 8:1 20:1 30:1 
-0 0 0 0 0 0 0 0 0 0 0 0 0 0.03699489237093325 1:1 8:1 14:1 51:1 
-0 0 0 0.2297099292490261 0 0 0 0 0 0 0 0 0 0 8:1 62:1 131:1 
-0 0 0 0.5996274516083269 0.01716344477297488 0 0 0.0008305550922304895 0.3811820658695404 0 0 0.07033720767328226 0.1351435620587612 0.0003668112441117161 8:1 395:1 
-0 0 0 1 0 0 0 0 0 0 0 0 0 0 8:1 99:1 
-0 0 0 0 0 0 0 0 0 0 0 0 0 0.03685538722606788 1:1 2:1 14:1 82:1 
-0 0.6004173592037901 0 0 0 0 0 0 0 0 0 0 0 0 1:1 20:1 32:1 
-0.01944114164359781 0 0.02577738977884967 0 0.2641972908611904 0.3472630441386103 0.513201762720521 0 0.2509181700951357 0.662504770254119 0.07922382602402549 0.4855766307348253 0 0 1:1 3:1 20:1 26:1 
-0 0.3903861961436253 0 0 0.7044297325860298 0 0.2999508587274777 1 0 0 0 0.2475209265958026 0 0 1:1 5:1 14:1 15:1 
-0 0 0 0.4542709236753723 0 0 0 0 0 0 0 0 0 0.1028864548592067 8:1 14:1 
-0 0 0 0 0 0 0 0 0 0 0 0 0 0.04203599396234392 13:1 20:1 
-0 0 0 1 0 0 0 0 0 0 0 0 0 0 8:1 10:1 20:1 35:1 
-0.2481888080291188 0 0 1 0 0 0.6965430497369065 0 0 0 0 0 1 0 8:1 10:1 25:1 
-0 0 0 0 0 0 0 0 0 0 0 0 0 1 15:1 26:1 178:1 
-0.2030470257160638 0 0 1 0 0.02822002052941485 0 0 0.2727076787232184 0.8218161249025706 0 0.05634932122552869 0 0.4601164288418617 8:1 13:1 35:1 
-0 0 0 0 0 0 0 0 0 0 0 0 0 0.1479380672837661 8:1 20:1 32:1 
-0 0 0 0 0 0 0 0 0 0 0 0.003960922600622146 0.2093479687566413 0 14:1 61:1 113:1 
-0.002182230948046732 0 0 1 0 0 0 0 0.1408020088363202 0 0.01790225588289707 0 0 0 2:1 10:1 46:1 
-1 1 0 1 1 1 1 1 1 1 0 1 1 0.1988035893016215 2:1 
-0 0.3417544161703582 0 0 0 0 0 0 1 0.6523687314874101 0 0 0 0 1:1 2:1 14:1 113:1 
-0 0 0 0 0 0 0 0 0 0 0 0 0 0.002256398786620613 1:1 8:1 20:1 45:1 51:1 
-0 0 0 0 0 0 0 0 0 0 0 0 0 0.2673256948882881 14:1 26:1 45:1 199:1 
-0 0 0 0 0 0 0 0 0 0 0 0 0 0.3674034603232577 1:1 2:1 14:1 45:1 82:1 
-0 0 0 0 0 0 0 0 0 0 0 0 0 0.001124787779708931 1:1 45:1 46:1 74:1 
-0 0 0 0 0 0 0 0 0 0 0 0 0 0.04097803887197161 1:1 8:1 15:1 20:1 51:1 74:1 
-0 0 0 0 0 0 0 0 0 0 0 0 0 0.0540073413112766 8:1 13:1 14:1 20:1 45:1 51:1 
-0 0 0 0 0 0 0 0 0 0.1419093961758209 0 0 0 0 1:1 20:1 30:1 
-0 0 0 0 0 0 0 0 0 0 0 0 0 0.007853207826691588 8:1 13:1 14:1 20:1 45:1 
-0 0 0 0 0 0 0 0 0 0 0 0 0 0.804064472663199 14:1 15:1 26:1 171:1 
-0 1 0 1 0 0.4068068993040805 0 0.08675468582532024 0.0809290975877435 0 0 0.07028017394210449 0.0632788899620769 0 8:1 32:1 
-0 0 0 0 0 0 0 0 0 0 0 0 0 1 15:1 26:1 74:1 171:1 
-0 0 0 0 0 0 0 0 0 0 0 0 0 0.09103352773839947 1:1 8:1 20:1 35:1 74:1 
-0 0.07559653333326465 0 0 0 0 0 0 0 1 0 0 0 0 15:1 26:1 
-0 0 0 1 0 0.0640763879701827 0 0 0 0.7219369045114636 0 0 0 0 2:1 10:1 82:1 
-0 0 0 0 0 0 0 0 0 0 0 0 0 0.2879356405668403 13:1 14:1 20:1 
-0.2594107607476208 0 0.02498053882128405 0 0 0.1372816334676815 0 0.4157295971881659 0.04079210084455034 0 0.04864602221763686 0 0 0 1:1 51:1 117:1 
-0 0 0 0 0 0 0 0 0 0 0 0 0 0.004785026263809679 1:1 14:1 15:1 82:1 
-0 0 0.0520180312011214 0.7898882026296044 0 0 0 0 0 0 0.04087772878866413 0 0.1226999074773136 0.0003278800023741594 84:1 
-0 0 0 0 0 0 0 0 0 0 0 0 0 0.000703364321104421 1:1 8:1 20:1 45:1 74:1 279:1 
-0 0 0 0 0 0 0 0 0.4619289009079075 0 0 0 0 0.07677681312036086 20:1 
-0.2454389018585599 0.8555132899506706 0 1 0.6448218740839792 0 0.5909472235823027 0.4812240067478884 0.6465150023724762 1 0 0.2467199574293666 0.312652487449384 0 26:1 150:1 
-0 0.0003988524300748248 0 0 0 0 0 0 0 0.1459191428453886 0 0 0 1 15:1 26:1 178:1 
-0 0 0 0.7504951660438407 0 0 0 0 0 0 0 0 0 0 8:1 30:1 117:1 167:1 
-0 0 0 0 0 0 0 0 0 0 0 0 0 0.9956804770990663 14:1 15:1 26:1 171:1 
-0 0 0.001431520366815519 0.2775172281194326 0 0 0 0 0 0 0 0 0.3282195300338761 0 26:1 37:1 62:1 
-0 0 0 0.1453405386625346 0 0 0 0 0 0 0 0 0 0 8:1 14:1 25:1 321:1 656:1 
-0 0 0 1 0 0 0 0 0 0 0 0 0 0 1:1 8:1 35:1 395:1 
-0 0.5178427965994109 0 0 0 0 0 0 0.275 0 0 0 0 0 1:1 2:1 82:1 
-0 0 0 1 0 0 0 0 0 0 0 0 0 0 8:1 15:1 25:1 
-0 0 0 0 0 0 0 0 0 0 0 0 0 0.8946284033496373 1:1 8:1 20:1 30:1 
-0 0 0 0 0 0 0 0 0 0 0 0 0 0.2760897053908246 8:1 14:1 20:1 45:1 
-0.5140818759727062 1 0.0732873414456115 1 0.682858885862053 0.3701189410350808 0.574729941295553 0.8131237542443357 0.9879829746861487 1 0.1053711451207402 0.3155163379527735 0.207619078897758 0.04246289027462128 81:1 
-0 0 0 0 0 0 0 0 0 0 0 0 0 0.0003397178029120873 1:1 14:1 20:1 845:1 
-0 0 0 0 0 0 0 0 0 0 0 0 0 0.00254438032455256 1:1 2:1 74:1 82:1 
-0 0 0 0 0 0 0 0 0.3085866845727169 0 0 0 0 0 1:1 2:1 15:1 74:1 
-0 0 0 0 0 0 0 0 0 1 0 0 0 0 13:1 20:1 30:1 
-0 0 0 0 0 0 0 0 0 0 0 0 0.2089875959097183 1 14:1 45:1 61:1 
-0 0 0.003461963752053989 0.1865531423608195 0 0 0 0 0 0 0.008421684457472333 0 0 0 1:1 84:1 148:1 234:1 
-0 0 0 0 0 0 0 0 0 0 0 0 0 0.0005858063931516318 14:1 26:1 113:1 178:1 
-0 0 0 0 0 0.08278902016201038 0 0 0 0 0 0 0 0 13:1 14:1 15:1 25:1 202:1 
-0 0.4226445013628412 0 0 0 0 0 0 0.5871997960637698 0 0 0 0 0 1:1 2:1 84:1 
-0.175667910058738 1 0 0 0 0.5789729247237531 0 0.5667257029641357 1 0.1460977640609705 0 0 0 0.6012075867956979 1:1 2:1 62:1 
-0.8590486062889163 0 0 0 0 0.3105642516404383 0.4068316010740247 0 0 0 0 0.1612379628114226 0 0 5:1 13:1 14:1 15:1 25:1 
-0 0 0 1 0.5062851998798372 0 0.2299013978893958 0.5187427467695356 0 0 0 0 0.1618785935605996 0 8:1 25:1 
-0 0 0 0 0 0 0 0 0 0 0 0 0 0.2034915653627925 1:1 2:1 14:1 15:1 82:1 
-0 0.04747919873110071 0 0 0 0 0 0 0 0 0 0 0 0 1:1 2:1 46:1 
-0.8171715042445981 0.1690297486161541 0.01109603669862893 0.3736580359738744 0.635609071053211 0.3719475698211082 0.5867182772165724 0.8349870509100733 0.3378648632544443 0.3411419447038617 0.03939182113601447 0.369498016869353 0.08467833813960127 0 5:1 10:1 84:1 177:1 
-0 0 0 0 0 0 0 0 0 0 0 0 0 0.0002569380051301228 8:1 10:1 14:1 45:1 
-0 0 0 0 0 0 0 0 0 0 0 0 0 0.0005105272260627625 13:1 14:1 15:1 
-0 0 0 0 0 0 0 0 0 0 0 0 0 0.0002313808483767795 10:1 20:1 45:1 74:1 515:1 
-0 0 0 0 0 0 0 0 0 0 0 0 0 0.0008375440747869716 1:1 14:1 45:1 82:1 261:1 
-0 0 0 0 0 0 0 0 0 0 0 0 0 0.0002537963401760753 1:1 8:1 20:1 366:1 
-0 0 0 0 0 0 0 0 0 0 0 0 0 0.0005733955743916219 8:1 13:1 15:1 74:1 1049:1 
-0 0 0 0 0 0 0 0 0 0 0 0 0 0.1861427218510631 1:1 2:1 14:1 45:1 
-0 0 0 0 0 0 0 0 0 0 0 0 0 0.1194604502627016 1:1 8:1 20:1 51:1 
-0 0 0 0 0 0 0 0 0 0 0 0 0 0.0004483150252827244 8:1 14:1 51:1 1145:1 
-0.5539535301439888 1 0 1 1 0.5467928278700567 0.8511120958655687 0.4230254373742653 1 1 0 0.2467696790118721 0.3281829906653157 0 13:1 26:1 37:1 
-0 0 0 0 0 0 0 0 0 0 0 0 0 0.2398225520571926 8:1 14:1 20:1 32:1 45:1 
-0 0.8550368810946832 0.01870386907444308 0 0.6331313590916267 0 0.1088341230712001 0 0 0 0 0 0.3276463573727148 0 1:1 26:1 37:1 117:1 
-0.1525154855448452 0.1862916184232984 0 0.6284143815844454 0.1424498080454463 0.08154860811131263 0.2930865915769288 0.2338347345560675 0.1300305216277173 0.170873545074095 0 0.002882445990736318 0 0 1:1 25:1 113:1 148:1 245:1 347:1 
-0 0.9243180006950212 0 0 0 0.3029660013197366 0 0 0.3315217915868015 0.9522322691351767 0 0 0 0 2:1 84:1 
-0 0 0 0 0 0 0 0 0 0 0 0 0 1 1:1 8:1 20:1 51:1 
-0.05329373491369158 0 0 1 0.01533338933204024 0 0 0.05188034038895294 0.3816601598128703 0.9949265170138414 0 0 0.6992009282979116 0.1277629448705467 1:1 8:1 30:1 
-0 0 0 0 0 0 0 0 0 0 0 0 0 0.000154476946789485 61:1 74:1 99:1 
-0.05322439666983848 0 0 1 0.01531331719577782 0 0 0.0518199089887845 0.381585514023124 0 0 0 0.1346523418173184 0.0005793442280641398 1:1 8:1 343:1 
-0 0 0 0 0 0 0 0 0 0 0 0 0 0.1841379088439195 14:1 45:1 83:1 
-0 0 0 0.09516854683999684 0 0 0 0 0 0 0 0 0 0.3334225652512626 1:1 8:1 15:1 25:1 233:1 1041:1 
-0 0 0 0 0 0 0 0 0 0 0 0 0 0.0006557304802332556 1:1 14:1 45:1 82:1 992:1 
-0 0 0 0 0 0 0 0 0 0 0 0 0 0.1422201386546895 8:1 13:1 14:1 20:1 32:1 
-0.05329172108815432 0.3000735322889124 0 0.3007068895249597 0 0 0 0.05086225692864587 0.0006177493558301847 0 0 0 0 0 1:1 8:1 32:1 313:1 
-0 0.2555998752511055 0 0 0 0 0 0 0 0.2283276085148475 0 0 0 0 14:1 83:1 
-0 0 0.000166925709857065 0.1760797678973062 0 0 0.0004112082442639802 0.0002114038081794545 0 0 0 0.0003465401429292672 0 0 81:1 83:1 
-0 0 0 0.1914535861444193 0 0 0 0 0 0 0 0 0 0.1644523809779658 1:1 8:1 20:1 35:1 
-0 0 0 0.307933812099801 0 0 0 0 0 0 0 0 0 0.8155292787349282 1:1 8:1 15:1 30:1 
-0 0 0 0 0 0 0 0 0 0 0 0 0 0.0006005468606430116 8:1 51:1 74:1 117:1 
-0 0 0 0 0 0 0 0 0 0 0 0 0 1 14:1 15:1 26:1 178:1 
-0 0.4681512837975069 0 0 0 0.674902347669016 0 0 1 1 0 0.09129391271963862 0 0 2:1 46:1 
-0 0 0 0 0 0 0 0 0 0 0 0 0 0.1416703946707899 14:1 45:1 81:1 
-0 0 0 0 0 0 0 0 0 0 0 0 0 0.0008697288810023598 1:1 14:1 45:1 82:1 714:1 
-0 0 0 0 0 0 0.4394786602249 0 0 0.6729279041994086 0 0 0 0.0002388502186564667 45:1 49:1 99:1 
-0 0.9983539969115598 0 0 0 0.5145876042631975 0.03812034695439448 0 0.981618904173833 0.5705427888769525 0 0 0 0.1901988245516574 1:1 2:1 82:1 
-0.005805081427033238 1 0 0.2963469675713113 0 0 0.5735952999868157 0.3193590631245904 0.05838541650433001 0.2177112454906983 0 0 0 0 1:1 2:1 46:1 
-0 0 0 0 0 0 0 0 0 0 0 0 0 1 8:1 20:1 62:1 
-0 0 0 0 0 0 0 0 0 0 0 0 0 0.02380443295678243 1:1 8:1 14:1 20:1 51:1 
-0 0 0 0.2979157822394309 0 0 0 0 0 0 0.007849302328950834 0 0 0 10:1 15:1 26:1 37:1 394:1 
-0 0 0 0 0 0 0 0 0 0 0 0 0 1 1:1 14:1 20:1 30:1 45:1 
-0.2528677357621103 0 0.0368436525096587 0.02807841976436403 0.2941638651829603 0 0.0008961810894749607 0.2471846626217333 0 0 0.04371095471579393 0.1123179566014461 0.1038928770034589 0 46:1 482:1 
-0 0 0 0 0 0 0 0 0 0 0 0 0 0.04202810932681708 8:1 14:1 32:1 
-0 0 0 0 0 0 0 0 0 0 0 0 0 0.8162556456332082 14:1 81:1 83:1 
-0 -0 0 0 0 0.02915397893411462 0 0 0 0 0 0 0 0 2:1 4:1 7:1 73:1 
-0 -0 0 0 0.00501046392249667 0 0.07327506786772776 0 0 0 0 0.001706873926391412 0 0 1:1 4:1 6:1 9:1 11:1 54:1 71:1 114:1 1035:1 
-0 -0 0 1 0 0 0 0 0 1 0 0 0 0 1:1 2:1 3:1 17:1 
-0.6388148912990876 -0.4845617818284597 0 0.5102262187127883 0 0 0 0.02948733766085771 1 0.7908688011281092 0 0.9996470193584557 0 0 2:1 164:1 
-0 -0.1279607602297947 0 0 0 0 0 0 0 0 0 0 0 0 1:1 2:1 32:1 1068:1 
-0 -0 0 0 0 0 0 0.2070917161790037 0 0 0 0 0 0 1:1 3:1 9:1 11:1 22:1 41:1 
-0 -0 0 0 0 0.2074329188188346 0 0 0 0 0 0 0 0 2:1 6:1 7:1 37:1 
-0.9600419472324975 -0 0 0 0.1185169364078209 0 0.3520271503219689 0.3575602569314927 0.5060289941234605 0.7833964014785102 0 0 0 0 1:1 6:1 9:1 11:1 120:1 
-0 -0 0 1 0 0 0.2687664774170457 0 1 1 0 0 1 0 9:1 10:1 11:1 22:1 
-0 -0 0 0 0 0 0 0 0.146575427773611 0.001564396882867326 0 0 0 0 2:1 71:1 86:1 191:1 
-0 -0 0 0 0 0.8732127358692303 0 0 0.08099302166148721 0 0 0.2055789923890894 0 0 2:1 4:1 66:1 
-0 -0 0 0 0 0 0 0 0 0 0 0.08513696748887853 0 0 7:1 9:1 17:1 22:1 134:1 
-0 -0 0 0 0 0.9979211817998836 0 0 0 0 0 0 0 0 1:1 2:1 3:1 4:1 7:1 54:1 71:1 
-0 -0 0 0 0 0 0 0 1 0 0 0 0 0 1:1 5:1 7:1 
-0 -0 0 0 0 0.3937552239753023 0 0 1 0 0 0.6531983517763522 0 0 1:1 2:1 4:1 58:1 
-0.08808971032884561 -0 0 0 0.5808358184331892 0 0.2601284744017897 0.1039971456854525 0.5143246318339367 0 0 0.4764310823361474 0 0 4:1 5:1 58:1 301:1 
-0 -0 0 0 0 1 0.05116197370163869 0 0.1261384164242956 0 0 0 0 0 1:1 2:1 4:1 101:1 
-0 -0 0 0 0 0 0 0 0 0 0 0.03136729677206546 0 0 7:1 9:1 11:1 22:1 113:1 120:1 
-0 -0 0 0 0 0.006970604393860429 0 0 0.5340643613094544 0 0 0 0 0 1:1 4:1 9:1 22:1 71:1 86:1 
-0 -0 0 0 0 1 0 0 0 0 0 0 0 0 4:1 7:1 9:1 10:1 11:1 22:1 101:1 
-0 -0 0 0 0 1 0 0 0 0 0 0 0 0 1:1 5:1 6:1 7:1 37:1 
-0 -0 0 0 0 0 0 0 1 0 0 0 0 0 2:1 7:1 
-1 -0.7555304592263382 0 0.8854287880679704 1 0 1 1 1 1 0 0.8179163530991114 0.392322167994029 0.2197563917456713 1:1 11:1 
-0.3337737722864762 -0 0.01441126306699965 0.07945605472301803 0.472279564696796 0 0.2151712217918908 1 0 0.01785256070057881 0.03018234060068773 0 0 0 1:1 3:1 41:1 236:1 
-1 -0 0 0.3194369689127272 0.07713148899001893 0.4193993002529811 0 0.8728408134010291 0 0 0 0 0 0 2:1 3:1 25:1 
-0 -0 0.03334949158704738 1 0 0.9732458008173044 0 0 1 1 0 0.1313844629210643 0 0 3:1 9:1 10:1 11:1 22:1 
-0 -0 0 0.2012004068200823 0 0 0 0 0.3377632031507225 0.7431714970316332 0 0 0 0 1:1 11:1 22:1 339:1 
-0 -0 0 0 0 1 0 0 0 0 0 0 0 0 4:1 9:1 10:1 11:1 22:1 101:1 
-0 -0 0 0 0 0.00214691615358821 0 0 0 0 0 0 0 0 6:1 7:1 9:1 11:1 18:1 428:1 
-0 -0 0 0 0 0 0 0.3512180360019535 1 0 0 0.4527105689260381 0 0 5:1 7:1 
-0 -0 0 0 0 0.1701141048431029 0 0 0.7295401711489775 0 0 0 0 0 1:1 4:1 7:1 9:1 11:1 
-1 -0 0.07750690812167095 0 1 1 0.3913767541414457 1 0.5103456814798816 1 0.07939872725309496 0.5044545879076768 0 0 3:1 5:1 163:1 
-0 -0 0 0 0 0.1537261263670124 0 0 0 0 0 0 0 0 1:1 2:1 3:1 7:1 149:1 
-0 -0 0 0 0 0.3139428591833741 0 0 0 0 0 0 0 0 3:1 7:1 10:1 32:1 
-0 -0 0 0 0 1 0 0 0 0 0 0 0 0 1:1 7:1 101:1 
-0 -0 0 0 0 0.9604214308965656 0 1 0 0 0 0.1494462770391042 0 0 3:1 5:1 7:1 41:1 
-0 -0 0 0 0 0 0 0 0.9948899232362453 0 0 0 0 0 7:1 
-0 -0 0 0 0.1412166609926766 0.2520929910997418 0 0 0 0 0 0 0 0 4:1 7:1 9:1 11:1 18:1 101:1 128:1 
-0 -0 0 0 0 1 0 0 0 0 0 0 0 0 4:1 7:1 9:1 10:1 11:1 22:1 101:1 
-0 -0 0 0 0 0 0 0 0.6817139738692082 0 0 0 0 0 4:1 9:1 10:1 11:1 22:1 73:1 191:1 
-0 -0 0 0 0 0.3562286747892353 0 0 0 0 0 0 0 0 1:1 4:1 7:1 22:1 73:1 
-0.1916016089539787 -0 0 1 1 0.2219197928302776 0.09728416338909399 0.8205808721576788 0.4722345102859313 1 0 0.3844586314952486 0 0.2030577209487948 1:1 3:1 5:1 30:1 
-0 -0 0 0 0 1 0 0 0 0 0 0 0 0 1:1 3:1 5:1 7:1 120:1 
-0 -0 0 0.0357057931931873 1 0.6229313792692905 0 0 0 0 0 0 0 0 2:1 3:1 37:1 
-0 -0 0 0.3087794035625361 0 0 0 0 0 1 0 0 0 0 1:1 2:1 6:1 17:1 
-0 -0 0 0 0 0 0 0 0 0 0 0.1148371938367301 0 0 2:1 7:1 36:1 134:1 
-0.2749153342519021 -0 0.001904489970110231 0.2368749739953395 0 0 0 0.4735438682708705 0.1263997571337961 0 0.06938307929682888 0 0 0 3:1 9:1 11:1 18:1 58:1 145:1 239:1 
-0 -0 0.0005000316674810823 0 0 0.3286703176454374 0 0 0 0 0 5.359369491488887e-05 0 0 3:1 9:1 10:1 11:1 22:1 32:1 
-0 -0 0 0 0 0.0006171818409636044 0 0 0 0 0 0 0 0 1:1 6:1 7:1 22:1 37:1 539:1 
-0 -0 0 0 0.2018987871648125 0 0 0 0 0 0 0 0 0.1511131561305842 1:1 71:1 
-0 -0 0 0 0 0.5768967305478715 0 0 0 0 0 0 0 0 1:1 3:1 7:1 9:1 11:1 22:1 
-0 -0.06908530034529482 0.07885389278268905 1 0.07802908306231408 0.6084420323926448 0.1251431492062834 0 1 1 0.02845986901194403 0 0 0 2:1 3:1 10:1 
-0 -0 0 0 0 0 0 0 1 0.7223703250247001 0 0 0.0001629834521559292 0.0002359796294292805 1:1 11:1 58:1 
-0 -0 0 0 0 0 0 0 0 0.02011594131169258 0 0 0 0 2:1 3:1 71:1 160:1 
-0 -0 0 0 0 0 0 0 0 0.2406944152243173 0 0 0 0 2:1 66:1 
-0 -0 0 0 0 1 0 0 0 0 0 0 0 0 2:1 4:1 7:1 101:1 
-0 -0 0.3426132959316966 0 0 0.0007485936121892268 0 0 0 0 0.4452987586718897 0 0 0 4:1 7:2 18:1 30:1 33:1 36:1 38:1 39:1 
-0 -0 0 0 0 0 0 0 0 0.4894177994683501 0 0 0 0 2:1 10:1 71:1 
-0 -0 0 0.868199547728287 0 0 0 0 0 1 0 0 0 0 3:1 9:1 11:1 30:1 
-0 -0 0 0 0 1 0 0 0.0591404129317652 0.7881501873474189 0 0 0 0 1:1 2:1 101:1 
-0 -0 0 0 0 1 0 0 0 0 0 0 0 0 1:1 2:1 4:1 101:2 
-0 -0 0 0 0 1 0 0 0 0 0 0.1069777182626978 0 0 2:1 3:1 4:1 7:1 
-0.5140539787641163 -1 0.06991159473436079 1 1 1 1 1 1 1 0.1039973506481059 1 1 1 26:1 
-1 -0.02475304992725846 0.01307070655992811 1 0.9076336936694034 0.6896315255239794 0.3232547706301659 0.8797108989105025 0.2987175924058381 0.6169511499143665 0.01289260769667533 0 0 0 2:1 3:1 25:1 
-0 -0 0 0 0 1 0 0 0 0 0 0 0 0 1:1 4:1 7:1 9:1 11:1 22:1 101:1 
-0 -0 0 0 0 0.1758226257842246 0 0 0 0 0 0 0 0 1:1 2:1 6:1 7:1 149:1 
-0 -0 0 0 0 0 0 0.0002916286279802671 0 0.000299982567012852 0 0 0 0 71:1 1190:1 
-1 -1 0 1 1 0 1 1 1 1 0 1 0 0.09823921904307779 1:1 5:1 
-0 -0 0 0 0.05661567283236879 1 0.00189965570336717 0 0.0002210680119707117 0 0 0.1206055449285161 0 0 4:1 7:1 9:1 11:1 18:1 201:1 
-0 -0 0 1 0 0 0 0 0 1 0.2835101675558014 0 0.5160590727122616 0 1:1 6:1 17:1 
-0 -0 0 0 0 0.000193902106195568 0 0 0 0 0 0 0 0 1:1 2:1 3:1 7:1 
-0 -0 0 0 0 0.09587425110062471 0 0 0 0 0 0 0 0 1:1 6:1 9:1 11:1 22:1 37:1 
-1 -0.7556681905944103 0 1 1 0 1 1 0 0.2360530123754033 0 0 0 0.3017481798807601 1:1 41:1 
-0.550901699258324 -0 0 1 0 0 0.00158933296241569 0.09059634161786921 0 0 0 0 0 0 1:1 9:1 11:1 22:1 41:1 109:1 
-0 -0 0 0 0 0.00525581875876662 0 0 0 0 0 0 0 0 2:1 3:1 7:1 32:1 
-0 -0 0 0 0 0.09663025509750833 0 0 0 0 0 0 0 0 1:1 2:1 6:1 32:1 
-0.4555753951602444 -0 0.6283444170209085 1 0.2563189528018245 0 0.03970178510162239 0.4848406249090328 0 1 0.9440378348161754 0 1 0 1:1 6:1 17:1 
-0 -0 0 0 0 1 0 0 0.6948203812943625 0 0 0 0 0 2:1 4:1 7:1 10:1 
-0 -1 0 0 0 0 0 0.5775592842410229 0 0 0 0 0 0 2:1 32:1 
-0 -0 0 0.03540122634995552 0 0.9975779672423654 0 0 0 0 0 0 0 0 7:1 9:1 10:1 17:1 22:1 217:1 
-1 -0 0 1 0.5732677834028669 0.7437956275391434 0.2940397334282189 1 0.03792113654334134 1 0 0 0 0 1:1 5:1 6:1 30:1 
-0 -0 0 0 0 0.2489010471485668 0 0 0 0 0 0 0 0 1:1 4:1 7:1 9:1 11:1 101:1 114:1 
-0.8734580121012978 -0.8781749140999665 0.0353235618875497 0.1858024500923622 0.3160862898188411 0 0 0.5755202400070761 0 1 0.05210168107921597 0 0.1710334649760705 0.3463973132722965 13:1 73:1 
-0 -0 0 0 1 1 1 0 0.7526989667690324 0 0 0.5110207005789295 0 0 4:1 7:1 9:1 11:1 13:1 18:1 
-0 -0 0 0 0 0 0 0 0 0 0 0 0 0.08176746446323276 1:1 7:1 11:1 22:1 30:1 109:1 307:1 
-0 -0 0 0 0 0.7891268100616228 0 0 0.02138751994837155 0 0 0 0 0 1:1 7:1 9:1 11:1 18:1 
-0 -0 0 0 0.1023638243366511 0 0 0 0.01101381195418742 0 0 0 0 0 2:1 4:1 13:1 66:1 
-0 -0 0 0 0 1 0 0 0.3255742786650986 0 0 0.5510633273692731 0.004297758050124638 0 9:1 11:1 22:1 86:1 94:1 101:1 
-0.7699709471485109 -0 0 0 0.9845533733245162 0.004827625302482137 0.1298911413718468 0 0 0.5887021077970298 0 0 0 0 4:1 5:1 126:1 204:1 
-0 -0 0 0.5194416062649969 0 0.05214730680644487 0 0 0.6772020270414738 0.8673071231674166 0 0 0 0 1:1 6:1 9:1 22:1 32:1 
-0 -0 0 0 0 0.04038745071901976 0 0 0 0 0 0 0 0 2:1 3:1 7:1 32:1 
-0 -0 0 0 0 0 0 0 0 1 0 0 0.3214383491970243 0 1:1 6:1 11:1 17:1 22:1 
-0 -1 0 1 0 0 0 1 1 1 0 0 0.03354199467327224 0.8114885571983645 2:1 
-0 -0 0 0 0 0.01668083869719192 0 0 0 0 0 0 0 0 1:1 4:1 7:1 11:1 22:1 73:1 
-0 -0 0 0 0.07499645841298412 0.09275097124933279 0 0.3100313857861476 0 0 0 0 0.3098556939668946 0 7:1 9:1 11:1 18:1 25:1 
-0 -0 0 0 0 1 0 0 0 0 0 0 0 0 1:1 3:1 5:1 7:1 25:1 
-0 -0 0 1 0 0 0 0 0 1 0 0 0 0 1:1 2:1 3:1 17:1 
-0 -0 0 0 0 1 0 0 0 0 0 0 0 0 4:1 7:1 9:1 10:1 11:1 22:1 101:1 
-0 -0 0 0 0.6856049186556189 0 0.2141733865844732 0.7851880986271411 0.5144762522081473 0 0 0 0 0 4:1 5:1 204:1 
-0 -0 0 0 0 0.1456559839711265 0 0 0 0 0 0 0 0 2:1 3:1 7:1 
-0 -0 0 0 0 1 0 0 0 0 0 0 0 0 3:1 4:1 7:1 9:1 18:1 163:1 
-0 -0 0 0 0 0 0 0 0 1 0 0 0 0 3:1 5:1 7:1 10:1 17:1 
-0 -0 0 0 0 0.0003179637366299934 0 0 0 0 0 0 0 0 1:1 6:1 7:1 11:1 22:1 138:1 
-0 -0.04829595493517085 0 0 0 0 0 0 0 0 0 0 0.0850125384942555 0.05307593637122809 7:1 26:1 145:1 
-0 -0 0 0 0 0.0002228153272872029 0 0 0 0 0 0 0.1749756726585623 0 3:1 9:1 11:1 22:1 37:1 160:1 
-0 -0 0 0 0 0.03690188711940347 0 0 0 0 0 0 0 0 7:1 9:1 10:1 11:1 22:1 73:1 86:1 
-0 -0 0 0 0 0.05161865206161888 0 0 0 0 0 0 0 0 4:1 7:1 26:1 184:1 
-0 -0 0 0.3557032526745683 0 0 0 0 0 0 0 0 0 0 2:1 10:1 73:1 
-0.3827174257336775 -0.4565713476540604 0 0.6903084530191175 0.4768105021736951 0 0.7560353824521502 1 0.1754345466484651 0.1918968140199339 0 0.3294149446241732 0.06161533042629935 0.1007027133992812 1:1 9:1 25:1 134:1 
-0 -0 0 0 0 0.9742694613073892 0.2157322572785127 0 0 0 0 0.01166464692247612 0 0 1:1 2:1 4:1 73:1 
-0 -0 0 0 0 1 0 0 0 0 0 0 0 0 4:1 7:1 163:1 363:1 
-0 -0 0 0 0 0.2398466306488052 0 0 0 0 0 0 0 0 4:1 5:1 7:1 10:1 155:1 
-0 -0 0 0.5165390270586472 0.02064981614717523 0 0.6072563946176464 0.05771150702588919 0 0.5313972818778178 0 0 0 0 3:1 9:1 10:1 11:1 22:1 41:1 
-0.9358407283427533 -1 0 0 0 0 0 1 0 0 0 0 0 0 2:1 32:1 
-0 -0 0 0 0 0.00107408789111186 0 0 0 0 0 0 0 0 2:1 3:1 7:1 37:1 
-0 -0.4844289509697377 0.04957559186521602 1 0 0 0 0 0.4313552716984546 1 0 0 1 0 2:1 17:1 
-0 -0 0 0 0 1 0 0 0.214528169258273 0 0 0 0 0 4:1 7:1 9:1 11:1 22:1 
-0.08846842485813684 -0 0 0 0.5811517997109462 1 0.2604735830025772 0.1039804270833505 0.5142737998133349 0 0 0.4763551792288109 0 0 4:1 5:1 58:1 146:1 
-0 -1 0 1 0 0 1 0.2773264361423231 1 1 0 0 0 0 1:1 2:1 
-0 -0 0 0 0 0 0 0 0.5144660991909606 0 0 0.3560752164254606 0 0 1:1 4:1 5:1 58:1 155:1 
-0 -0 0 0 0.1807730229930271 0 0 0 0 0 0 0 0 0 1:1 3:1 9:1 11:1 22:1 25:1 
-0.3842367307415586 -0.8544611694036164 0 1 1 0.05848432099886473 0.6403441245426692 0.4847591152633807 0 0 0 0 0.3840268516162799 0 1:1 6:1 37:1 
-0 -0 0 0 0 0 0 0 0 0 0 0 0 0.1326079839305445 1:1 7:1 30:1 249:1 
-0 -0 0 0.3926310040907952 0 0 0.0009899225926385717 0.1198723438944896 0.2757880896780384 0 0 0 0.08709157772866644 0 9:1 11:1 22:1 41:1 335:1 
-0 -0 0 0 0 0.1842665724155288 0 0 0 0 0 0 0 0 2:1 3:1 7:1 10:1 32:1 
-0 -0 0 0 0 0.03128300621303784 0 0 0 0 0 0 0 0 4:1 7:1 66:1 
-0 -0 0 0 0 0.9875664593492202 0 0 1 0 0 1 0 0 2:1 4:1 58:1 
-0 -0 0 0 0 0.6057049307037169 0 0 0 0 0 0 0 0 1:1 6:1 7:1 9:1 11:1 22:1 32:1 
-0 -0 0 1 0 0 0 0 0 1 0 0 0 0 1:1 2:1 3:1 17:1 
-0 -0 0 0 0 1 0 0 0 0 0 0 0 0 1:1 2:1 4:1 7:1 101:1 
-0 -0 0 0.5100227419743475 1 0.5278429564472535 0 0 0.2487451782300859 0 0.0505316765092745 0 0.5917617299539631 0 2:1 3:1 37:1 
-0 -0 0 0 0 1 0 0 1 0 0 0 0 0 2:1 4:1 7:1 
-0 -1 0 0 0 0 0.0007162524539790875 0 0 0 0 0 0 0 1:1 2:1 32:1 
-0 -0 0 0 0 1 0 0 0 0 0 0 0 0 4:1 7:1 9:1 10:1 11:1 101:1 
-0 -0 0 0 0 1 0 0 0 0 0 0 0 0 4:1 7:1 163:1 
-0 -0 0 0 0 0.7623999656123486 0 0 0 0 0 0 0 0 2:1 4:1 7:1 10:1 73:1 
-0 -0 0 0 0 0 0 0 0.0004023011487502645 0 0 0.3555203507106879 0 0 3:1 4:1 5:1 7:1 275:1 
-0 -0 0 0 0 1 0.2140321246387889 0 1 0 0 1 0 0 4:1 7:1 26:1 
-0 -0 0 0 0 0.001335947636364178 0 0 0 0 0 0.1494437922106363 0 0 3:1 5:1 7:1 297:1 
-0 -0 0 0 0 0 0 0 0.0001981938412206619 0 0 0 0 0 1:1 2:1 7:1 149:1 
-0 -0.0002198686729170569 0 0 0 0 0 0 0 0 0 0.07428549986153296 0.1258737522517916 0 1:1 11:1 22:1 37:1 94:1 1113:1 
-0 -0 0 0 0 1 0 0 1 0 0 0 0 0 2:1 4:1 7:1 13:1 
-0 -0 0 0 0 0.0001690089023455223 0 0 0 0 0 0 0 0 4:1 7:1 11:1 22:1 73:1 167:1 
-0 -0 0 0 0 0 0 0 0.9389528258167736 0 0 0 0 0 1:1 2:1 7:1 
-0 -0 0 0 0 0.5087192820008337 0 0 1 1 0 0 0 0 1:1 2:1 6:1 
-0 -0 0 0 0 0.1901570224217669 0 0 0 0 0 0 0 0 7:1 9:1 11:1 22:1 66:1 86:1 
-0 -0 0 0 0 0.0003562887952632067 0 0 0 0 0 0 0 0 1:1 7:1 9:1 22:1 69:1 73:1 86:1 
-0 -0.1284558448806814 0 0 0.3530376050566463 0.9987343909256687 0 0 0 0 0.05378159438235672 0 0 0.0002019811031452245 2:1 32:1 140:1 
-0 -0 0 1 0 0 0 0 0 1 0 0 0 0 1:1 2:1 3:1 17:1 
-0 -0 0 0 0 1 0 0 0 0 0 0 0 0 1:1 2:1 4:1 7:1 101:1 
-0 -1 0 1 0 0 1 0.1706681105777192 1 1 0 0 0 0.00076618704699027 2:1 10:1 
-0 -0 0 0 0 0.003659033547716674 0 0 0 0 0 0 0 0 2:1 7:1 17:1 126:1 
-0 -0 0 0 0 0 0 0 0.23493607195737 0 0 0 0 0 3:1 7:1 9:1 10:1 22:1 41:1 69:1 
-0 -0 0 0 0 0.0002070129242829566 0 0 0 0 0 0 0 0 3:1 7:1 9:1 10:1 22:1 120:1 
-0 -0.1368919194004891 0 0.5102429654210111 0 0 0 0.02924097103597037 0.1801433217078892 0.5500569917132545 0 0 0 0.0007061727895455339 2:1 66:1 
-0 -0 0 0 0 1 0 0 0 0 0 0 0 0 4:1 6:1 7:1 9:1 18:1 146:1 
-0 -0 0 0 0 0 0 0 1 0 0 0 0 0 1:1 2:1 7:1 
-0 -0 0 0 1 0.005012418190322956 1 0.1616607729507647 1 0.8315221081010741 0 0 0 0 3:1 4:1 9:1 11:1 18:1 145:1 
-0 -0 0 0 0 0.001689967105698353 0 0 0 0 0 0 0 0 2:1 4:1 7:1 66:1 
-0 -0 0 0 0 0.07098236650723329 0 0 0.01115600772542266 0 0 0 0 0 1:1 2:1 6:1 37:1 
-0 -0 0 0 0 0.236252104987838 0 0 0 0 0 0 0 0 1:1 2:1 4:1 7:1 73:1 
-0 -0 0 0 0 0 0 0 0 0 0 0.2037977680917383 0 0 2:1 4:1 71:1 
-0.7640888933172839 -0 0 0 0.6248726029642269 0.7988521629369353 0 0 0 0 0 0 0 0 3:1 5:1 7:1 10:1 25:1 
-1 -0 0 0 0 1 0 0 0.9994294916792821 0 0 1 0 0 3:1 5:1 7:1 13:1 
-0 -0 0 0 1 0 0 0 0 0 0 0 0 0 1:1 3:1 9:1 11:1 22:1 25:1 
-0 -0.7563712849091092 0 0.7270571411203619 1 1 1 0 1 1 0 1 0.3420929305861247 0.3026486198561318 4:1 
-0 -0 0 0 0 0.6955126889067015 0.2159350756588705 0 0.003034260642338809 0 0 0 0 0 1:1 2:1 4:1 66:1 
-0 -0 0 0 0 0 0 0 0.2354261574494085 0 0 0 0 0 2:1 4:1 13:1 58:1 66:1 
-0 -0 0 0 0 0.7442048048456057 0 0.2638532833567326 0 0 0 0 0 0 5:1 6:1 7:1 10:1 41:1 
-0 -0 0 0 0 0.7324943024459344 0 0 0 0 0 0 0 0 1:1 2:1 4:1 7:1 73:1 
-0 -1 0 1 0 0 0.7581751553174734 1 1 1 0 0.3611018727067585 0.991684735790347 1 2:1 
-0 -0 0 0 0 0 0 0 1 0 0 0 0 0 1:1 2:1 7:1 
-0 -0 0 0 0.3668016856630752 1 0.2545261141907186 0 0.506604472975818 0.1928453590487619 0 0.3063059297161717 0 0 4:1 6:1 180:1 
-0 -0 0 0 0 0.9984835294737926 0 0 0 0 0 0 0 0 1:1 3:1 7:1 30:1 262:1 
-0 -0 0 0 0 0.7194579971172753 0 0 0 0 0 0 0 0 1:1 6:1 7:1 9:1 11:1 22:1 37:1 
-0.673646846953466 -6.2553792381545e-05 0.05501992065789277 1 0.1547891748130538 0.0002202136460449463 0.0393891195169989 0.5136295427715314 0.5061059236058723 0.8256547204808304 0.09868379399397437 0.1005672329022287 0.08540848021409995 0.001149638053574316 6:1 351:1 
-0 -0 0 0 0 0.9190499801364469 0 0 1 0 0 1 0 0 1:1 2:1 4:1 58:1 
-0 -0 0 0 0 0.6321346061077204 0 0 0 0 0 0 0 0 1:1 3:1 7:1 32:1 
-0 -0 0 0 0 0.8506094302774633 0 0 0 0 0 0 0 0 3:1 7:1 11:1 22:1 32:1 
-0 -0 0 0 0 1 0 0 0.1445064336618337 0 0 0 0 0 4:1 7:1 9:1 10:1 11:1 22:1 
-0 -0 0 0 0 0.03630103344406539 0 0 0 0 0 0 0 0 1:1 5:1 6:1 7:1 30:1 
-0 -0 0 0 0 0.004217030731470599 0 0 0 0 0 0.2691761293328619 0 0 4:1 5:1 6:1 7:1 1111:1 
-0 -0 0 0 0 1 0 0 0 0 0 0 0 0 1:1 7:1 9:1 22:1 101:1 
-0 -1 0.0001940070128696335 1 1 0 1 0.129080120620212 0.2309480851959792 1 0 0 0.7437526091263398 0.4249543986412979 26:1 184:1 
-0 -0 0 0 0 0 0 0 1 0 0 0 0 0 1:1 2:1 7:1 
-0 -0 0 0 0 1 0 0 0 0 0 0 0 0 4:1 5:1 7:1 180:1 
-0 -0 0 0 0 1 0 0 0 0 0 0 0 0 7:1 9:1 11:1 18:1 180:1 
-0 -0 0 0 0.6245911095139328 1 1 0 1 1 0 1 0 0 2:1 4:1 
-0 -0 0 0 0 0 0 0 0.1673175918315362 0 0 0 0 0 3:1 7:1 9:1 10:1 22:1 138:1 
-0 -0 0 0 0 0 0 0 0.99810648463933 0 0 0 0 0 2:1 7:1 
-0 -1 0 0.374431054781792 0 1 0 0 0 0 0 0 0.1788946667608596 0.05205215982191217 1:1 7:1 26:1 37:1 
-0 -0 0 0 0 0 0 0 0.2798883866896435 0 0 0 0 0 4:1 184:1 
-0 -0 0 0 0 0.3484331047696764 0 0 0 0 0 0 0 0 4:1 7:1 66:1 
-0 -0 0 0 0 0.9659819559700191 0 0 0 0 0 0 0 0 1:1 2:1 3:1 7:1 32:1 
-0 -0 0 0 0 0.0831475827626026 0 0 0 0 0 0 0 0 4:1 7:1 10:1 11:1 22:1 66:1 
-0 -0 0 0 0 1 0 0 0 0 0 0 0 0 3:1 7:1 9:1 11:1 121:1 146:1 
-0 -0 0 0 0 0 0 0 1 0 0 0 0 0 2:1 7:1 13:1 
-0 -0 0.0181035759357635 0.6201616902817777 0.1385188690427243 0.0002691157690087656 0 0 1 0 0.02124586455458481 0.5266636895547294 0 0 3:1 9:1 10:1 22:1 37:1 94:1 
-0 -0.04817963676970747 0 0.2070822228474434 0 1 0 0 0 0 0 0 0.08500148688346672 0.05265416040585582 7:1 26:1 163:1 
-0 -0 0 0 0 0.9919053476718089 0 0 0 0 0 0 0 0 2:1 7:1 13:1 32:1 126:1 
-0 -0 0 0 0 0.2966284268546142 0 0.0153922474747061 0 0 0 0 0 0 1:1 3:1 5:1 7:1 41:1 
-0 -0 0 1 0 0 0 0 0 1 0 0 0 0 6:1 9:1 11:1 22:1 30:1 
-0 -0 0 0 0 0.9902879119818976 0 0 0 0 0 0 0 0 1:1 2:1 6:1 7:1 32:1 
-0 -0 0 0 0 0.6706845824380395 0 0 0 0 0 0 0 0 2:1 3:1 7:1 149:1 
-0 -0 0 0 0 1 0 0 0 0 0 0 0 0 1:1 4:1 7:1 9:1 11:1 101:1 
-0 -0 0 0 0 0.2502775156170698 0 0 0 0 0 0 0 0 4:1 7:1 10:1 11:1 22:1 101:1 339:1 
-0 -0 0 0 0 0.0001078335336275892 0 0 0 0 0 0 0 0 1:1 6:1 7:1 9:1 22:1 37:1 205:1 
-0 -0 0 0 0 0.7625234674082819 0 0 0 0 0 0 0 0 1:1 5:1 7:1 86:1 155:1 
-0 -0 0 0 0 1 0 0 0 0 0 0 0 0 1:1 4:1 7:1 9:1 11:1 22:1 101:1 
-0 -0 0 0.3280475405863445 0 0 0 0 0.07927445070343837 0.8426596208087325 0 0 0 0 6:1 7:1 9:1 17:1 22:1 69:1 
-1 -0.9016208203124856 0 1 1 0.2116557313395997 1 1 1 1 0.08872045194641152 0 0 0.3006353792413906 1:1 6:1 
-0.2959417493325686 -0.7558096333787825 0 0.6052544556450531 0.1738609994054029 1 0.164297091496184 0.5731915399205846 0 0 0.005451766363752662 0 0 0.3020711744924082 1:1 101:1 
-0 -0 0 0 0 0 0 0 0 0 0 0.07355968444880603 0 0 4:1 58:1 73:1 236:1 
-0.5140549600745894 -0.7565291334588085 0.07013606195677026 0.7271823214969473 0 0 0 0.6019674605829209 0 0.02182265783661818 0.1041683158317731 0 0.3421205186934526 0.1511375610117635 71:1 
-0 -0 0 0 0 1 0 0 1 1 0 0 0 0 1:1 2:1 6:1 
-0 -0 0 0 0 0.8993997065454881 0 0 1 0 0 0 0 0 2:1 4:1 10:1 58:1 
-0 -0 0 0 0 0.001349012467513896 0 0 0.000382096118386268 0 0 0 0 0 1:1 2:1 4:1 7:1 1203:1 
-0 -0 0 0 0 1 0 0 0 0 0 0 0 0 1:1 2:1 4:1 7:1 101:1 
-0 -0 0 0 0 0 0 0 1 0 0 0.6256644757912284 0 0 3:1 4:1 5:1 58:1 145:1 
-0 -0 0 0 0 0.01183016811974489 0 0 0 0 0 0.2688299921198556 0 0 4:1 5:1 6:1 7:1 184:1 
-0 -0 0 0 0 0.00408876298897129 0 0 0 0 0 0 0 0 4:1 5:1 6:1 7:1 275:1 
-0.0729604100470576 -0 0 0 0 0 0 0 0 0 0 0 0.2007166282976721 0 6:1 9:1 11:1 22:1 25:1 214:1 
-0 -0 0 0 0 1 0 0 0 0 0 0 0 0 1:1 2:1 6:1 7:1 32:1 
-1 -0.1578326856397528 0 0.4830832664819318 1 0 0.5667300846270797 1 0 1 0 0 0 0.0005861679087394073 1:1 5:1 155:1 
-0 -0 0 0 0 0.002370681309307834 0 0 0.0005948284295877614 0 0 0.03174155580319081 0 0 4:1 7:1 26:1 316:1 775:1 
-0 -0 0 0.2184633231639472 0 0 0 0 0.3426401990920573 0 0 0 0 0 7:1 22:1 69:1 109:1 
-0 -0 0 0 0 1 0 0 0 0 0 0 0 0 2:1 3:1 7:1 32:1 
-0 -0 0 0 0 0.00428033075866296 0 0 0 0 0 0 0 0 3:1 4:1 5:1 7:1 301:1 
-0 -0 0 0 0.07286512475312862 0 0.4368801446661889 0 0 0.1127020628437781 0 1 0 0 4:1 9:1 11:1 18:1 94:1 204:1 
-0 -0 0 0 0 1 0 0 0 0 0 0 0 0 4:1 7:1 10:1 11:1 22:1 66:1 
-0 -0 0 0 0 0.9751663613001906 0 0 0 0 0 0 0 0 1:1 2:1 6:1 7:1 37:1 
-0 -0 0 0 0 0.9433852895403675 0 0 0 0 0 0 0 0 1:1 2:1 3:1 7:1 32:1 
-0 -0.3473558921623098 0 0 0 0 0 0 0 0 0 0 0 0 1:1 2:1 66:1 
-0 -0 0 0 0 0.778007615475114 0 0 0 0 0 0 0 0 2:1 4:1 7:1 10:1 66:1 
-0.07186160373693179 -0.5477368353112458 0 0 1 0 0.7463871789756021 0 0.03263428758745032 0 0 0 0 0 1:1 2:1 3:1 25:1 
-0.07131803879907513 -0 0 0 0.8737138525095762 0.008700060497101494 0 0 0.2445925163028172 1 0 0 0 0 2:1 6:1 13:1 37:1 
-0 -0 0 0 0 0.8564623965166878 0 0 0 0 0 0 0 0 1:1 4:1 7:1 11:1 22:1 73:1 
-0 -0 0 0 0 1 0 0 0 0 0 0 0.03578802365408894 0 9:1 10:1 11:1 22:1 101:1 
-0 -0 0 0 0 0 0 0 0 0.2550383418410592 0 0 0 0 1:1 2:1 71:1 
-0 -0 0 0 0 0.9407113353161727 0 0 0 0 0 0 0 0 4:1 7:1 26:1 184:1 
-0 -0 0 0 0.1087445621333636 0 0.2739574008993143 0 0.0004511921930314262 0 0 0 0 0 1:1 4:1 9:1 71:1 86:1 677:1 
-0 -0 0 0 0 0.7108490954934067 0 0 0 0 0 0 0 0 1:1 2:1 3:1 7:1 37:1 
-0 -0 0 0 0 1 0 0 0 0 0 0 0 0 1:1 4:1 7:1 9:1 11:1 18:1 155:1 
-0.08798411378565191 -0.1448145866877067 -0.2336209462930017 0.1241832936643208 0.2865926367501 0.09177227167191858 0.3156325959815773 0.0621557217160812 0.1653286857229374 0.2164327533647732 1 0.09902657423342741 0 0.05544469447126405 1:1 6:1 12:1 18:1 36:1 38:1 39:1 43:1 
-0 -0 -0 0 0 0 0 0 0 0 0.9954969903189844 0 0 0 16:1 17:1 33:1 36:1 38:1 39:1 80:1 192:1 
-0 -0.004204843632703565 -0 0 0 0 0.001303138899891981 0 0 0 1 0 0 0 3:1 33:1 36:1 39:1 80:1 130:1 256:1 
-0 -0 -0 0 0 0 0 0 0 0 1 0 0 0 1:1 3:1 12:1 16:1 17:1 33:1 36:1 38:1 48:1 
-0.2978969010312322 -0.1595320515403283 -0.2299174645330727 0.5801434275875682 0.2432684922959056 0.1870175654855075 0.1847686062629184 0.3161145483244031 0.1607327316971278 0.3099417493560945 1 0.1659329525325149 0.262157415770514 0.1686709194404889 1:1 6:1 16:1 36:1 38:1 48:1 130:1 
-0.0945066798998947 -0.1009917153766667 -0.1206778741398116 0.1516045321804873 0.216515594361168 0.07679493927202989 0.1803497693532787 0.09049700790935175 0.09126447489402288 0.07947606067142271 1 0.09666462161748836 0 0.08301243843794026 3:1 33:1 36:1 38:1 193:1 305:1 
-0 -0 -0 0 0 0 0 0 0 0 0.4909298190989028 0 0 0 6:1 23:1 33:1 36:1 38:1 39:1 80:1 93:1 193:1 
-0 -0 -0 0 0 0 0 0 0 0 1 0 0 0 6:1 17:1 23:1 33:1 36:1 38:1 39:1 80:1 218:1 
-0 -0 -0.0510066340014718 0.2572135353011087 0 0.004313135741890827 0 0 0 0 1 0 0.02983602765807203 0 1:1 6:1 12:1 17:1 18:1 23:1 38:1 39:1 48:1 403:1 
-0.04371289738433693 -0.0605336595305322 -0.08352630388412097 0.2066902911635617 0.3097556127562577 0.04326152258701747 0.1432279386281929 0.04309454600836106 0.09575501299075156 0.03592565369087916 1 0.06331853434214356 0 0.05764516855449439 3:1 33:1 36:1 38:1 68:1 192:1 
-0 -0 -0 0 0 0 0 0 0 0 1 0 0 0 6:1 17:1 23:1 33:1 36:1 38:1 80:1 295:1 
-0 -0 -0 0 0 0 0 0 0 0 1 0 0 0 6:1 12:1 13:1 16:1 17:1 18:1 33:1 36:1 37:1 38:1 39:1 
-0 -0 -0.03980642030793891 0 0 0.01894515038040316 0 0.001039481338465722 0 0.08173892216360179 1 0 0.03726767788420888 0 6:1 17:1 23:1 36:1 38:1 80:1 215:1 
-0 -0 -0.03948146509837681 0.1195398651599657 0 0.01949118226399701 0 0.0009724465812003804 0 0.0817180943022762 0.6845366664521266 0 0.03714920370263309 0 6:1 17:1 23:1 36:1 38:1 80:1 159:1 
-0.1013208793926243 -0.0812642064115484 -0.07200119057785549 0.1169684129235239 0.1180183652750313 0.06675323064182763 0.0741450985479532 0.09471823181472606 0.1074330353305642 0.08689469636834923 1 0.06692563680181007 0.0441357411637557 0.05079331146917801 6:1 23:1 33:1 36:1 68:1 93:1 242:1 416:1 
-0.27178614559689 -0.1891169275343846 -0.2782369882518565 0.5038714511929867 0.2763273083374932 0.1709833212154415 0.2372070064756179 0.2648029285690545 0.2544170818149606 0.2519866785714747 1 0.1421103390573476 0.3375122886966441 0.15502651280818 16:1 17:1 33:1 39:1 80:1 
-0 -0 -0 0 0 0 0 0 0 0 1 0 0 0 3:1 16:1 17:1 33:1 36:1 38:1 39:1 80:1 
-0 -0 -0 0 0 0 0 0 0 0 1 0 0 0 1:1 6:1 12:1 17:1 18:1 33:1 36:1 39:1 43:1 
-0 -0 -0 0 0 0 0 0 0 0 1 0 0 0 3:1 16:1 33:1 36:1 38:1 39:1 80:1 130:1 193:1 
-0.01372205292587533 -0.04159558160338001 -0 0.1457745245233315 0 0 0.02678816481396587 0.06130398804722873 0 0.04274876189993958 1 0 0.06292101789375341 0.0115518652900327 12:1 16:1 18:1 36:1 37:1 38:1 39:1 
-0 -0 -0 0.4974060079657417 0 0 0 0 0 0 1 0 0 0 1:1 12:1 16:1 17:1 33:1 36:1 37:1 38:1 68:1 
-0 -0 -0 0 0 0 0 0 0 0 1 0 0 0 6:1 17:1 18:1 23:1 33:1 38:1 39:1 48:1 
-0 -0 -0.002254149519459465 0.2754623256162551 0.01516915292750403 0 0 0 0 0 1 0 0.06457800282336411 0 1:1 6:1 12:1 17:1 23:1 33:1 38:1 68:1 197:1 
-0 -0 -0 0 0 0 0 0 0 0 1 0 0 0 3:1 16:1 17:1 33:1 36:1 38:1 39:1 80:1 192:1 
-0 -0 -0 0 0.02123726578949982 0 0 0 0 0 1 0 0 0 3:1 23:1 33:1 38:1 39:1 80:1 93:1 
-0.06321398178844834 -0.0448631742258055 -0.1179055744307057 0.4367839244005197 0 0.08292160091472117 0.002248767867284693 0.0280008940190491 0.02754121228035399 0.1586080903822256 1 0.05414359279151331 0.197123134266012 0.05008937435230559 3:1 10:1 12:1 17:1 33:1 35:1 36:1 170:1 
-0 -0 -0 0 0 0 0 0 0 0 1 0 0 0 6:1 23:1 33:1 36:1 38:1 68:1 192:1 
-0 -0 -0 0 0 0 0 0 0 0 1 0 0 0 3:1 16:1 17:1 33:1 36:1 38:1 39:1 80:1 
-0 -0 -0 0 0 0 0 0 0 0 1 0 0 0 3:1 16:1 17:1 33:1 36:1 39:1 80:1 
-0 -0 -0 0 0 0 0 0 0 0 1 0 0 0 1:1 3:1 12:1 16:1 17:1 33:1 36:1 39:1 48:1 170:1 198:1 
-0 -0 -0 0 0 0 0 0 0 0 1 0 0 0 12:1 17:1 23:1 33:1 36:1 38:1 39:1 141:1 264:1 
-0 -0 -0 0 0 0 0 0 0 0 1 0 0 0 3:1 17:1 33:1 36:1 38:1 39:1 80:1 256:1 
-0 -0 -0 0 0 0 0 0 0 0 1 0 0 0 3:1 17:1 33:1 36:1 38:1 39:1 80:1 
-0.08747598347434271 -0.1675285705556837 -0.2203837997212826 0.3757148867541296 0.2190951204940471 0.1527514839662115 0.2043943476621807 0.1370874252896811 0.1872636042632129 0.2362367373939292 1 0.1277833888980165 0.1749383795526541 0.1463560367107423 17:1 23:1 33:1 39:1 420:1 456:1 
-0 -0 -0 0 0 0 0 0 0 0 1 0 0 0 10:1 12:1 16:1 17:1 18:1 33:1 36:1 37:1 39:1 170:1 
-0 -0 -0 0 0 0 0 0 0 0 1 0 0 0 17:1 23:1 33:1 38:1 39:1 80:1 192:1 
-0 -0 -0 0 0 0 0 0 0 0 0.5557327031615795 0 0 0 3:1 23:1 33:1 36:1 38:1 39:1 80:1 93:1 192:1 
-0 -0 -0 0 0 0 0 0 0 0 1 0 0 0 3:1 16:1 17:1 33:1 36:1 38:1 80:1 215:1 
-0 -0 -0 -0 0 0 0 0 0 0 0 0 1 0 16:1 17:1 26:1 173:1 
-0 -0 -0 -0 0 0 0 0 0 0 0 0 0.001056302073167842 0 3:1 9:1 10:1 11:1 12:1 22:1 37:1 
-0.03951147510829948 -0.1470516874773101 -0 -0 0 0 0 0.398229557874034 0.1919091944658653 0.3758856739740001 0 0 1 0 23:1 61:1 92:1 
-1 -0.4461484854296696 -1 -0 1 1 1 1 1 1 0 1 0.233320043292387 0.003281852260006388 3:1 5:1 
-0 -0 -1 -0 0.2175544197662077 0 0 0 0.07683326684880785 1 0 0 0 0 1:1 5:1 6:1 17:1 44:1 
-0 -0 -0 -0 0 0 0 0 0 0 0 0 0.4591402885910049 0 8:1 12:1 128:1 
-0 -0 -0 -0.8190850889146689 0 0 0 0 0 0 1 0 0.1250214126254412 0 12:1 13:1 16:1 17:1 33:1 36:1 38:1 39:1 48:1 109:1 121:1 
-0.3825426166484542 -0 -1 -0.05467571978992429 0.6791510278919544 0.07642810258314475 0.5017233036723781 0.1694274089548584 0.01011357882913349 1 0 0.3636178899296179 0 0 6:1 9:1 11:1 17:1 18:1 187:1 
-0 -0 -0 -0 0 0 0 0 0 0 0 0 0.003206967444013595 0 3:1 9:1 10:1 11:1 12:1 22:1 41:1 
-0 -0 -0.07918693839500644 -0 0.09368228180006635 0.2662771749227801 0 0.0008595648972463136 0 0.2249650581137503 0 0 0 0 3:1 9:1 11:1 17:1 18:1 187:1 276:1 
-0 -0 -0 -0.05881715049399323 0 0 0 0 0 0 0.1851088010411669 0 0.07127364735876157 0 1:1 6:1 8:1 12:1 
-0 -0 -0 -0 0 0 0 0 0 0 0 0 0.03115332064873418 0 3:1 8:1 10:1 43:1 
-0.3859262165630455 -0.3469341533588701 -1 -0 0.3406979838337776 0 0.4313215164976327 0.5365842137150474 0.8807804526806965 1 0 0.01747845688032536 0 0 10:1 903:1 
-0 -0 -0 -0 0 0 0 0 0 0 0 0 0.009827547394450298 0 10:1 12:1 41:1 
-0 -0 -0 -0 0 0 0 0 0 0 0 0 1 0 16:1 17:1 26:1 173:1 
-0 -1 -0 -0 0 0 0 0 0 1 0 0 0 1 8:1 30:1 
-0 -0 -0 -0 0 0 0 0 0 0 0 0 0.1217338434981897 0 9:1 11:1 16:1 17:1 22:1 78:1 
-0 -0 -0 -0 0 0 0 0 0 0 0 0 0.4707166939245576 0 2:1 10:1 16:1 17:1 
-0 -0.1801957115760735 -0 -0 0 0 0 0 0 0 0 0 0 0 8:1 12:1 13:1 131:1 
-0.4568530988765943 -0.2737916131791919 -0 -0 0 0 0 0.02688222145181599 0 0.1632141690555991 0 0 0 0 2:1 13:1 16:1 78:1 130:1 
-0 -0 -0 -0 0 0 0 0 0 0 0 0 1 0 9:1 11:1 17:1 22:1 23:1 133:1 
-0 -0.3985710743453567 -1 -0 0 0 0 0.6967955909462638 0 0 0 0 0.06885886241987632 0 1:1 8:1 41:1 
-0 -0 -0 -0 0 0 0 0 0 0 0 0 1 0 17:1 23:1 61:1 92:1 
-0.2082227264156987 -0 -0 -0 0 0 0 0.2222625429756003 0 0 0 0 0.4990762684463185 0 5:1 16:1 44:1 103:1 186:1 221:1 
-0 -1 -0 -0 0 0 0 0 0 0 0 0 0 0 1:1 8:1 35:1 
-0 -0 -0 -0 0 0 0 0 0.3289103152502456 0 0 0 0 0 2:1 78:1 
-0 -0 -0.0006064167996940428 -0 0 0 0 0 0 0 0 0 0 0 1:1 8:1 41:1 143:1 
-0 -0 -0 -0.07711520655035603 0 0 0 0 0 0.7323062111321437 0.2388136213288704 0 0 0 3:1 9:1 11:1 16:1 17:1 18:1 181:1 
-0 -0 -0 -0 0 1 0 0 0 0 0 0 0 0 1:1 9:1 11:1 12:1 22:1 37:1 
-0 -0 -0.001629897611110886 -0 0 0 0 0 0 0 0 0 0 0 2:1 16:1 17:1 
-0 -0 -1 -0 0 0.08792243577527566 0 0 0 1 0 0 0.649349390572343 0.001004915808420769 6:1 9:1 11:1 22:1 30:1 
-1 -1 -1 -0 1 1 1 1 1 1 0 0.8396014332346344 0 0 1:1 2:1 
-0 -0 -0 -0 0.01574357982621543 0 0.07968911578693159 0 0 0 0 0 0 0 23:1 26:1 93:1 181:1 
-0 -1 -0 -0 0 0.6890957539281787 0.3946312383870281 0.1369035111308893 1 1 0 0 0 0.3298430415486099 1:1 2:1 35:1 
-0 -0 -0 -0 0 0 0 0 0.1475123756422035 0 0 0 0 0 1:1 9:1 11:1 12:1 22:1 113:1 
-0.1496403353596311 -0.7374594121040349 -0 -0.1017983656276247 0.06987491942824799 0 0.03660214381415992 0.3995391246989234 0 1 0 0 0.5494247734418768 0 10:1 35:1 
-0 -0 -0 -0 0 0 0.5483895960064298 0 0 0 0 0 0.8979022958849512 0 1:1 12:1 25:1 
-0 -0 -0 -0 0 0 0 0 0 0 0 0 0 0.06948641251108212 1:1 12:1 26:1 
-0 -1 -0 -0 0 0 0 0 0 0 0 0 0 0 8:1 25:1 
-0 -0 -0 -0 0 0 0 0 0 0 0 0 0.1168469816864351 0 9:1 10:1 11:1 22:1 23:1 78:1 93:1 
-0 -0.003368982605527115 -1 -0 0 0.1141915161098238 0 0 0.3887157554165293 0.9149950850965061 0 0 0 0 1:1 2:1 17:1 798:1 
-0 -0 -1 -0 0.2707301288100896 0 0 0 0 1 0 0 0 0 1:1 2:1 3:1 35:1 
-0.1893851607173287 -0.3502095272877857 -0.3758158686027226 -0 0.4029068172093412 0.03143067457001591 0.3538668335539201 0.3833399841885501 0.3238978746745364 0.8983374515055005 0 0 0 0.1505858049084282 1:1 26:1 1086:1 1188:1 
-0 -0 -0 -0 0 0 0 0 0 0.1598695110852012 0 0 0 0 16:1 17:1 26:1 
-0 -0 -0 -0 0 0 0 0 0 0 0 0 0.09389276123132792 0 8:1 12:1 41:1 
-0 -0 -0 -0 0 0 0 0 0 0 0 0 0.9992255644067033 0 1:1 8:1 12:1 142:1 
-0 -0 -0 -0 0 0 0 0 0 0 0 0 0.9955834707383872 0 10:1 12:1 43:1 
-0 -1 -0 -0 0 0 0 0 0 0 0 0 0 0 8:1 10:1 
-0 -0 -0.4412874287073397 -0 0 0 0 0.04734768902147344 0.02650769289192839 0.7048668353463725 0 0 0.499896149327524 0 2:1 3:1 10:1 139:1 243:1 
-0 -0 -0 -0 0 0 0 0 0 0 0 0 1 0 17:1 23:1 173:1 
-0 -0 -0 -0 0 0 0 0 0 0.209387693584504 0 0 0.1851899839017878 0 1:1 6:1 9:1 11:1 12:1 22:1 30:1 
-0 -0 -0.01504255217774647 -0 0 0 0 5.551115123125783e-17 0 0 0 0 0.0002584603008749586 0 1:1 8:1 41:1 143:1 
-0 -0 -0 -0 0 0 0 0 0 0.381489469811567 0 0 0 0 1:1 17:1 23:1 26:1 44:1 
-0 -1 -0 -0 0 0 0 0 0 0 0 0 0.09246518400319105 0.1905670409837473 1:1 8:1 35:1 
-0.006287344233708499 -0.07699919470100124 -0.4965049086398361 -0 0 0.1497734172290388 0.07892385166799117 0 0.3405375463857686 0 0 0.07756506138948735 0.9991382254684963 0 2:1 93:1 133:1 370:1 
-0 -0 -0.1082860013377948 -0 0 0 0 0 0 0 0 0 0 0 1:1 6:1 9:1 11:1 12:1 22:1 25:1 
-0 -0 -0 -0 0 0 0 0.1135724893839024 0 0 0.08985395325041064 0 0 0 9:1 17:1 18:1 23:1 69:1 187:1 
-0.4456972404186442 -0 -0 -0 0.3816489438184108 0.01988533643329094 0 0.6228438559000264 0 1 0 0.1167604109791881 0 0 1:1 5:1 6:1 23:1 44:1 103:1 
-1 -0 -1 -0 1 0.52462092112557 1 1 0.7836405122883972 1 0 0 0 0 2:1 3:1 10:1 41:1 
-0 -0 -0 -0 0 0 0 0 0 0 0 0 0.02595889094652613 0 10:1 17:1 23:1 44:1 103:1 122:1 
-0 -1 -0 -0 0 0 0 0 0 0 0 0 0 0 8:1 25:1 
-0 -0 -0.8064947772700546 -0 0 0 0 0 0 0 0 0 0.1490570324437892 0 1:1 6:1 9:1 11:1 12:1 22:1 25:1 
-0 -0.4002296744635636 -0 -0 0 0 0 0 0 0 0 0 0 0.5646128726105727 8:1 48:1 
-0.3865744414618544 -0 -1 -0.2922654711366303 0.7605127724537482 0.2373244065749385 0.2272825640898828 0.4882100776443107 0.2783902318641108 0.3836188988249785 0.104030645093207 0.06749534333167108 0.000626681249002673 0.002554379011878309 6:1 37:1 613:1 
-0 -0 -0 -0 0 0 0 0 0 0 0 0 1 0 16:1 17:1 61:1 92:1 
-0 -0 -0 -0 0 0 0 0 0 0 0 0 1 0 17:1 23:1 
-0 -0 -0 -0 0 0 0.2064921670628405 0 0.05376120237904287 0 0 0 0 0 9:1 10:1 11:1 12:1 114:1 
-0 -0 -0 -0 0 0 0 0 0 0 0 0.004667659046933901 0 0 9:1 11:1 17:1 18:1 23:1 113:1 187:1 
-0 -0 -0 -0 0 0 0 0 0 0 0 0 2.996606354395813e-05 0 1:1 12:1 35:1 245:1 
-0 -0 -0 -0.0007891203332110758 0 0 0 0 0 0 0 0 0 0 3:1 8:1 10:1 12:1 120:1 
-0 -1 -0 -0 0 0 0 0 0 0 0 0 0 0 1:1 8:1 
-0 -0 -0 -0 0 0 0 0.5326406086506428 0 0 0 0 0 0 2:1 16:1 78:1 
-0 -0 -0.03118933595849205 -0 0 0 0 0 0 0 0 0.03154961004132702 0 0 5:1 6:1 17:1 44:1 103:1 122:1 
-0 -0 -0 -0 0 0 0 0 0 0.1752258825485357 0 0 0 0 2:1 16:1 17:1 
-0 -0 -0 -0 0 0 0 0 0 0 0 0 0.01503210834050056 0 1:1 6:1 9:1 11:1 12:1 22:1 
-0 -0 -0 -0 0 0 0 0 0 0 0 0 1 0 1:1 2:1 23:1 93:1 133:1 
-0.6751409551022327 -0 -0 -0 0.1303255059492552 0 0 0.7350270212441341 0 0 0 0 0 0 1:1 5:1 12:1 43:1 
-0 -0 -0 -0 0 0 0 0 0.01925059577607043 0 0 0 0.03646561032103754 0 5:1 17:1 23:1 187:1 
-0 -0 -0 -0 0 0 0 0 0 1 0 0 0 0 2:1 16:1 17:1 
-0 -1 -0 -0 0 0 0 0 0 0.005546308359692692 0 0 0 0.0007210733794208802 8:1 30:1 167:1 
-0 -0 -0 -0 0 0.03493153732119269 0 0 0 0 0 0 0 0 1:1 5:1 17:1 44:1 103:1 148:1 165:1 
-0 -0 -0 -0 0 0 0 0 0 0 0 0 0.03639788760268325 0 1:1 5:1 6:1 16:1 17:1 44:1 103:1 122:1 
-0 -0 -0 -0 0 0 0 0.05722515616490591 0 0 0 0 0.05807243746727864 0 23:1 78:1 
-0.055067883099689 -0 -1 -0 0.297957306988625 1 0.2785407284546889 1 1 1 0 0.2749377055019286 0 0 2:1 3:1 10:1 
-0 -0.09927617468528822 -0 -0 0 0 0 0 0 0 0 0 0 0 8:1 10:1 1095:1 
-0 -0.1292620548104997 -1 -0 0.2609559318666295 1 0 0 0 1 0 0 0 0 1:1 2:1 3:1 30:1 
-0 -0 -0 -0 0 0.03856337620543895 0 0 0 0 0 0 0 0 10:1 11:1 12:1 22:1 37:1 
-0 -0 -0 -0 0 0 0 0 0 0 0.0003750982594971451 0 0 0 1:1 3:1 12:1 30:1 209:1 
-0 -0 -0 -0 0 0 0 0 0 0 0.53553279110463 0 0 0 1:1 2:1 6:1 12:1 48:1 
-0 -0 -0 -0 0 0 0 0 0 0 0 0 0.8201204785217221 0 16:1 17:1 78:1 
-1 -1 -1 -0 1 1 1 1 1 1 0 0.4141304125990692 0 1 1:1 
-0 -1 -0 -0 0 0 0 0 0.7883129414480536 0.38864499003027 0 0 0 0.5988295626707637 1:1 8:1 
-0 -0 -0.6022475640935293 -0 0 0 0 0 0 0 0 0 1 0 17:1 61:1 92:1 
-0 -0.03007972090418614 -0.5614456095419803 -0 0 0 0 0 0 0.7175352982651817 0 0 0.9484906600644458 0.06702544599598402 17:1 26:1 173:1 
-0 -0 -0 -0 0 0 0 0 0 0 0 0 0.05673081907710734 0 12:1 37:1 
-1 -0 -1 -0.1164650658948467 1 0.681166208269755 0.8540692853402234 1 1 1 0 0.8221559546072938 0.1522920704753213 0 3:1 5:1 16:1 
-0 -0 -0 -0 0 0 0 0 0 1 0 0 0 0 1:1 2:1 6:1 12:1 30:1 
-0 -0 -0 -0 0 0 0 0 0 0 0 0 0.0424181686794455 0 1:1 5:1 6:1 17:1 23:1 44:1 103:1 122:1 
-0 -1 -0 -0 0 0 0 0 1 0 0 0.3101072444283017 0 0.734676259675567 8:1 
-0 -0 -0 -0 0 0 0 0 0 0 0 0 0.0007738992251699144 0 17:1 23:1 26:1 187:1 
-0 -0.1083574149506083 -0 -0 0 0 0 0 0 0 0 0 0 0 1:1 8:1 25:1 1123:1 
-0 -0 -0 -0 0 0 0 0 0 1 0 0 0 0 1:1 2:1 6:1 12:1 30:1 
-0.3787513453685047 -1 -0.7516961992892891 -0 0.8052493405681436 0.02793612222186946 1 0.7666806634121223 0.6477957493490728 1 0 0 0 0.300958710361604 1:1 26:1 148:1 
-0 -0.7019359893498436 -0.6298453826921966 -0 0.6765220928912632 0 0.7081613134885664 0.032474453545304 0.7547399826902355 1 0 0.3071667214168112 0 0.3021999605335872 26:1 43:1 
-0 -0 -0 -0 0 0 0 0 0 0 0 0 0.06590904377174157 0 1:1 3:1 9:1 12:1 43:1 
-0 -1 -0 -0 0 0 0 0 0 0 0 0 0 0 8:1 10:1 
-0 -0 -0 -0 0 0 0 0 0 0 0 0 0.0002627595042711385 0 3:1 9:1 11:1 16:1 17:1 18:1 103:1 122:1 
-0 -0 -0 -0 0 0 0 0 0.2801688189663954 0 0 0 0 0 2:1 10:1 12:1 308:1 
-0 -0.1906496859436108 -0 -0 0 0.1460299387209598 0 0.3544402955650381 0.2636720528767972 1 0 0 1 0 1:1 2:1 23:1 133:1 
-0 -0.05618684804052106 -0 -0 0 0 0 0 0.03775121979966782 0 0 0.01633394995236632 0 0 12:1 245:1 332:1 
-0 -1 -0.009566914378343533 -0 0 0.3101245733782425 0.5299028353395899 0 0 0 0 0 0 0 1:1 8:1 25:1 
-0 -1 -0 -0 0 0 0 0 0 0 0 0 0 0 8:1 35:1 
-0 -0 -0 -0 0 0 0 0 0 0 0 0 0.001640101340990212 0 3:1 9:1 10:1 11:1 12:1 30:1 114:1 
-0 -0 -0 -0 0 0 0 0 0 0 0 0 1 0 23:1 61:1 92:1 93:1 
-0 -1 -0 -0 0 0 0 0 0 0 0 0 0 0 8:1 25:1 
-0 -0 -0 -0 0 0 0 0 0 0 0 0.01614913217886594 0 0 12:1 148:1 174:1 
-1 -1 -1 -0 1 1 1 1 1 1 0 1 0 1 1:1 
-0 -0 -0 -0.03674678139956609 0 0 0 0 0 0 0.03167209776216066 0 0 0 1:1 6:1 9:1 12:1 22:1 35:1 
-0 -0.2334677192998482 -0.3446070601005011 -0 0.2118562203820121 0.004063685304337723 0.1859664903940089 0 0.2043050696771073 0 0 0 0.003235644925144005 0.08585281790053129 1:1 26:1 103:1 122:1 
-0 -0 -0 -0.1257628720598755 0 0 0 0 0 0 0.1852413555009401 0 0.102514478756016 0 1:1 6:1 12:1 25:1 
-0 -1 -0 -0 0 0 0 0 0 0 0 0 0 0 8:1 35:1 
-0 -0 -0 -0 0 0 0 0 0 0 0 0 0.05032686769486075 0 8:1 10:1 12:1 37:1 
-0.06872024740095757 -0 -0.7833100566910542 -0 0.3409154028336477 0 0.03671604014034495 0.1802747497672877 0 0 0 0 0 0.004024187526763001 1:1 78:1 351:1 
-0 -0 -0.4216153953138065 -0 0 0 0 0 0 1 0 0 0 0 2:1 17:1 23:1 
-0 -0 -0 -0 0 0 0 0 0 0 0 0 1 0 16:1 17:1 61:1 92:1 
-0 -0 -0 -0 0 0 0 0 0.07574109305151192 0 0 0.03239339959568798 0 0 12:1 1092:1 
-0 -1 -0 -0 0 0 0 0 0 0 0 0 0 0 8:1 25:1 
-0 -0 -0 -0 0 0 0 0 0 0 0 0 1 0 17:1 23:1 61:1 92:1 
-0 -0 -0 -0 0 0 0.1675791821869177 0 1 0 0 0.3099993955543225 0 0 2:1 78:1 
-0 -0 -0 -0 0 0 0 0 0 0 0 0 0 0.2321808257200833 1:1 12:1 26:1 30:1 
-0 -0 -0 -0 0 0 0 0 0 0 0 0 0.2084227028821129 0 2:1 6:1 12:1 43:1 
-0.3417864776856134 -0.124573513115447 -0 -0 0 0 0 0.6193318476365715 0.00097398202599908 0 0 0 0 0.3362246164872055 16:1 181:1 409:1 
-0 -0 -0 -0 0 0.08541847635689435 0 0 0 0 0 0 0.124434417144556 0 11:1 12:1 37:1 294:1 
-0 -0 -0 -0 0 0 0 0 0 0 0 0 0.3776978728390362 0 1:1 8:1 9:1 11:1 12:1 37:1 114:1 
-0 -0 -0.08981883067625766 -0 0 0 0 0 0 0.8544651501349837 0 0 0 0 2:1 16:1 17:1 
-0 -0 -0 -0 0 0 0 0.1045114664590613 0 0 0 0 0.4922159127132087 0 9:1 10:1 11:1 16:1 17:1 18:1 122:1 
-0 -0 -0 -0 0 0 0 0 0 0 0 0 0.05106583178940437 0 8:1 10:1 37:1 
-0 -1 -1 -0 0.07995809695900592 0 0.4061094803828185 0.05675126960098882 0 1 0 0 0.0007931770579839403 0 10:1 30:1 
-0 -0 -0 -0 0 0 0 0 0 0 0 0 0.1256558907240617 0 1:1 6:1 9:1 11:1 16:1 17:1 44:1 103:1 122:1 198:1 
-0 -0.2987814566245183 -0 -0 0 0 0 0 0 0.2030993924131096 0 0 0 0.0002653332213696214 1:1 8:1 30:1 143:1 
-0 -0 -0 -0 0 0 0 0 0.2950605502367114 0 0 0 0 0 1:1 2:1 12:1 142:1 
-0.184435253469364 -0 -0.4096442549593244 -0 0.3741030652523748 0 0.03608848599001965 0.4402491831782629 0 0.3924185018336168 0.3967945120219425 0 0 0.0021482009151264 1:1 3:1 48:1 314:1 
-0.2366415281509157 -1 -1 -0 0 0 0 0 0 1 0 0.02409419191576107 0.009826868328758105 0 1:1 2:1 6:1 35:1 
-0 -0 -0 -0.07565332752538929 0 0 0 0 0 0 0 0 0 0 1:1 2:1 6:1 12:1 37:1 
-0 -0 -1 -0 0 0 0 0 0.1688270004911859 0.5180434442647729 0 0 0 0 17:1 805:1 
-0 -0 -0 -0 0 0 0 0 0 0 0 0 0.07844998593743757 0 8:1 10:1 41:1 
-0 -0 -0 -0 0 0 0 0 0 0 0 0 1 0 23:1 61:1 92:1 93:1 
-0 -0 -0 -0 0 0 0 0 0 0 0 0 0.9106369229045422 0 2:1 17:1 23:1 92:1 
-0.106219613454102 -0.09205659832690927 -0 -0 0.1668220148765402 0 0.05771413942399333 0 0 0 0 0.03870052433285456 1 0.02876874723987752 61:1 92:1 93:1 370:1 
-0 -0.1992542882501996 -0 -0 0 0 0 0 0 0 0 0 0.0004737069954607747 0 1:1 8:1 142:1 207:1 
-0 -0 -0 -1 0 0 0 0 0 0 1 0 0 0 1:1 17:1 23:1 33:1 36:1 38:1 68:1 78:1 
-0.2934848701138854 -0 -0 -0 0 0 0 0.5460917177434359 0 0 0 0 0.8094146890968794 0 9:1 11:1 16:1 17:1 18:1 173:1 
-0 -0 -0 -0 0 0 0 0 0 0 0 0 0.07122011275090503 0 8:1 12:1 37:1 
-0 -0 -0 -0 0 0 0 0 0 0 0 0 0.0005706949284343846 0 8:1 16:1 17:1 181:1 
-0 -0 -0 -0 0 0 0 0 0 0 0 0 0.002144520057101362 0 8:1 10:1 35:1 
-0 -0.5933472180212643 -0 -0 0 0.8555813975439449 0 0 0 0.8737186945945766 0 0 0 0 2:1 13:1 17:1 78:1 
-0 -0 -0.7534645820577084 -0 0 0 0 0 0 0 0 0 0 0 1:1 2:1 6:1 12:1 41:1 
-0 -0 -0 -0 0 0 0 0 0 0 0 0 0.0009390082342770713 0 1:1 17:1 23:1 26:1 103:1 122:1 965:1 
-0 -0 -0 -0.03016852267342131 0 0 0 0 0 0 0 0 0.000707218484114315 0 3:1 10:1 12:1 41:1 209:1 
-0 -0 -0 -0 0 0 0 0 0 0 0 0 0.01385437658287725 0 3:1 9:1 10:1 11:1 12:1 22:1 35:1 
-0 -0.02993575789332172 -0.5613330103535671 -0 0 0 0 0 0 0.7177182310992234 0 0 0 0.06706926582905057 17:1 26:1 159:1 
-0 -0 -0 -0 0 0 0 0 0 0 0 0 1 0 16:1 17:1 61:1 92:1 
-0 -0 -0 -0 0 0 0 0 0 0 0 0 0.01288283758573523 0 1:1 3:1 9:1 12:1 22:1 30:1 69:1 
-0 -0 -0 -0 0 0 0 0 0 0 0 0 0.7997023809523809 0 8:1 10:1 12:1 30:1 
-0 -0.01504669201177573 -0 -0 0 0 0 0 0 0 0 0 0 0.03361163831830388 17:1 26:1 185:1 187:1 
-0 -0 -0 -0 0 0 0 0 0 1 0 0 0.1819104490722809 0 16:1 17:1 26:1 
-0 -0 -1 -0 1 1 0 0 0.3293151775544483 1 0 0.001859983568976375 0.5410243853866344 0 3:1 9:1 11:1 22:1 37:1 128:1 
-0 -0.05804283595287238 -0 -0 0 0 0 0 0 0 0 0 0 0 8:1 37:1 
-0.4130407232979563 -0 -0.3297804742348699 -0.07375257768103803 0 0 0 0.546988515033519 0 0.6700650346785891 0.2968897781978045 0 0.000477337711479113 0 3:1 5:1 16:1 17:1 194:1 
-0 -0 -0 -0 0 0 0 0 0 0 0 0 1 0 23:1 92:1 93:1 
-0 -0 -0 -0.1625186566179259 0 0 0 0 0 0 0.2427345724627545 0 0.0005537493150814697 0 16:1 17:1 159:1 
-0 -0 -0 -0.1506981261723201 0 0 0 0 0 0 0.114204734785888 0 0.02198658872033714 0 1:1 3:1 12:1 37:1 
-0 -0.5671244200901286 -0 -0 0 0 0 0 0 1 0 0 0 0 8:1 10:1 30:1 
-0 -0 -0 -0 0 0 0 0 0 0 0 0 0.02497361670305753 0 9:1 10:1 11:1 16:1 17:1 22:1 78:1 
-0 -0 -0 -0 0 0 0 0 0 1 0 0 0.2997162336632042 0.06713925705892641 17:1 23:1 26:1 
-0 -0 -0 -0 0 0 0.09727699278878926 0 0 0 0 0 0 0 1:1 12:1 26:1 41:1 
-0 -0 -0 -0 0 0 0 0 0 0 0 0 0.0005240947334136138 0 17:1 23:1 78:1 352:1 
-0 -0 -0 -0 0 0 0 0 0 0 0 0 0.2780615974480639 0 1:1 6:1 8:1 12:1 43:1 
-0 -0.07270145569323898 -1 -0 0 0 0.03672284302888967 0 1 1 0 0 0.1169472756658735 0 9:1 10:1 22:1 69:1 
-0 -0 -0 -0 0 0 0 0 0 0 0 0 0.1184948710346772 0 8:1 12:1 35:1 
-0 -0 -0 -0 0 0 0 0 0 0 0.03152473196434814 0 0 0 10:1 12:1 48:1 
-0 -0 -0 -0 0 0 0.1493844122881782 0 0.112115347042985 1 0 0 0.004968103523054789 0.04339696188614126 10:1 26:1 44:1 122:1 
-0.1212737247904283 -0 -0 -0 0.01929864335460757 0 0.001681122555936632 0.1054852588987923 0.09963078324782111 0.5523646716271204 0 0.04765671119906974 0 0 5:1 17:1 23:1 295:1 
-0 -1 -0 -0 0 0 0 0 0 0 0 0 0.01453449716244887 0.8824251619319358 8:1 35:1 
-0 -0 -0 -0 0 0 0 0 0 0 0 0 0.3496456820844332 0 2:1 17:1 78:1 165:1 
-0.1028641614015055 -0 -0 -0 0 0 0 0 0 0 0 0 0 0 1:1 12:1 120:1 
-0 -0 -0 -0 0 0 0 0 0 0 0 0 0.07162205823188728 0 8:1 10:1 12:1 35:1 
-0 -0 -0 -0 0.1918489840425476 0.2275599974537961 0.3309659599484709 0 0 0 0 0.0876756489938791 0.2412938326996272 0 9:1 11:1 17:1 18:1 23:1 173:1 
-0.4101123379351421 -1 -1 -0 0 1 0.0253987880279478 0.4800013262657591 1 1 0 0.3101342907599966 0 0.7656800887768818 2:1 30:1 
-0 -0 -0 -0.04845455978972278 0 0 0 0 0 0 0 0 0.03158604715673904 0 1:1 2:1 6:1 12:1 35:1 
-0.9829210793736204 -1 -0 -0 0.8818345912608554 0 0.3224650737107634 0.4079991658183281 0 0 0 0 0 0 8:1 25:1 
-0 -0 -0 -0 0 0 0 0 0 0 0 0 0.01596001572809797 0 8:1 10:1 12:1 41:1 
-0 -0 -0 -0 0 0 0 0 0 0.06986337106818825 0 0 0 0 2:1 17:1 23:1 804:1 
-0 -0 -0 -0 0 0 0 0 0 0 0 0 0.9565260639810226 0 8:1 10:1 12:1 30:1 
-0 -0 -0.4548912771482025 -0 0 0.2988440366242284 0 0 0 0 0 0 0.01339515457618285 0 1:1 8:1 37:1 
-0.7842718117155675 -0.06465833110142066 -1 -0 0.433824570695435 1 0.6713799753281813 0.7017414365875583 1 1 0 0.2142543183454495 0.09402902282066734 0 1:1 6:1 9:1 11:1 22:1 
-0 -0 -0.8282898882509631 -0 0 0 0.2271177071913907 0 0 0.7587998235922455 0 0 0 0 1:1 2:1 78:1 
-0 -0 -1 -0 0.09500269398267804 0.7515584445003861 0 0 0.7305348451305624 1 0 0.2683415015995411 0 0 3:1 9:1 11:1 22:1 139:1 
-0.1252779294853297 -0 -1 -0 0 0.5840029456700052 0.001797988736863645 0.09588321039165013 0.9050178024019294 1 0 0.2927476844764078 0 0 2:1 3:1 48:1 
-0 -0 -0 -0.1250086737684749 0 0 0 0 0 0 0.1572690021462127 0 0.0002327221790853467 0 1:1 6:1 12:1 43:1 246:1 
-0 -0 -0 -0 0 0 0 0 0 0 0 0 1 0 1:1 8:1 12:1 25:1 
-0.2940760169216183 -0 -1 -0 0.09228126248825112 0.2411252257277507 0.2152697875051769 0.2871684508829181 0.3715891405791363 0.5361506920135445 0 0 0 0.001204892878200692 1:1 9:1 22:1 25:1 109:1 207:1 
-0.1817680322806373 -0 -0 -0 0 0 0 0.3700676324975139 0 0 0 0 0.01635359190048079 0 1:1 12:1 41:1 
-0 -0 -1 -0 0 0 0 0 0 1 0 0 0 0 1:1 2:1 17:1 23:1 
-0 -0 -0 -0.02155036251147147 0 0 0 0 0 0 0.1214471837626653 0 1 0 16:1 17:1 61:1 92:1 
-0 -0 -0.08326328479868524 -0 0 0 0 0 0 0 0 0 0 0 1:1 3:1 9:1 11:1 12:1 114:1 
-0 -0 -0 -0 0 0 0 0 0 1 0 0 1 0 16:1 17:1 26:1 
-0 -0.9906368735308979 -0 -0 0 0 0 0 0 0 0 0 0.6902959123879209 0 8:1 37:1 
-0 -0 -0 -0 0 0 0 0 0 0 0 0 0.2665613816215568 0 10:1 17:1 23:1 26:1 44:1 103:1 122:1 
-0 -0 -0.06249201422155389 -0 0 0 0 0 0.0700355850071761 0 0 0 0 0 17:1 187:1 227:1 
-0 -0 -0 -0.1409966367783298 0 0 0 0 0 0 0.3030899827233335 0 0 0 1:1 6:1 11:1 16:1 17:1 18:1 44:1 103:1 122:1 
-0 -0 -0 -0 0 0 0 0 0 0 0.6317217866520453 0 0 0 1:1 12:1 48:1 
-0 -0.148646595078754 -0 -0 0 0 0 0 0 0 0 0 0 0 8:1 10:1 131:1 
-0 -0 -0 -0.04453545760319161 0 0 0 0 0 0 0.07661366908813048 0 0 0 1:1 6:1 12:1 22:1 241:1 
-0 -0 -0 -0 0 0 0 0 0 0 0 0 0.8504524459943071 0 1:1 8:1 12:1 25:1 
-0 -0 -0.3004599139823345 -0 0 0.09611524015729236 0 0 0 0.1363794587171731 0 0 0.1244979986295771 0 1:1 2:1 3:1 9:1 11:1 12:1 1182:1 
-0 -0 -0 -0.04308381426235004 0 0 0 0 0 1 0.242902391338798 0 0.9148303570021257 0 16:1 17:1 26:1 
-0 -0 -0 -0 0 0 0 0 0 0 0 0 0.998953332862651 0 2:1 16:1 17:1 78:1 
-0 -0 -0 -0 0 0 0 0 0 0 0 0 0.3938446858498623 0 1:1 8:1 12:1 30:1 
-0 -0 -0 -0 0 0 0 0 0 0 0 0 0.9627669262428536 0 16:1 17:1 26:1 187:1 
-0 -0.2335236387989594 -0 -0 0 0 0.1862076641493566 0 0.1272275804661695 0.5282943949081882 0 0 0 0.0859443953091774 1:1 26:1 44:1 103:1 
-0 -0 -0 -0 0 0 0 0 0 0 0 0 0.03621440484977109 0 9:1 10:1 11:1 22:1 78:1 
-0 -0 -0 -0 0 0 0 0 0.03703736623238521 0 0 0 0 0 1:1 2:1 6:1 12:1 
-0 -0 -0 -0.1257120594274907 0 0 0 0 0 0 0 0 0 0 2:1 3:1 10:1 12:1 35:1 
-0 -1 -0 -0 0 0 0 0 0 0 0 0 0.8325052819354067 0 8:1 10:1 
-0 -0 -0 -0 0 0 0 0 0 0 0 0.01551344781544476 0 0 2:1 3:1 12:1 308:1 
-0 -0 -0 -0 0 0 0 0 0 0 0 0 0.09585598231597027 0 1:1 8:1 12:1 35:1 
-0 -0 -0 -0 0 0 0 0 0 0 0 0 0.4730484665449335 0 2:1 16:1 17:1 78:1 
-0 -0 -0 -0.06570286142167742 0 0 0 0 0 0 0 0 0 0 8:1 12:1 36:1 41:1 
-0 -0 -0.1183480607833732 -0 0 0 0 0 0 0 0 0 0.71233617411515 0 3:1 10:1 11:1 12:1 22:1 41:1 
-0 -0.4001935408857396 -0 -0 0 0 0 0 0.1071652466688925 0 0 0 0 0.0002544933795082249 8:1 172:1 
-0 -0 -0 -0 0 0 0 0 0 0 0 0 0.4207539376945952 0 8:1 10:1 12:1 43:1 
-0 -0.9271671848192364 -0 -0 0.8907015302275257 0.03370570283805389 0 0 0 0 0 0.1971606048641542 0 0 12:1 13:1 26:1 37:1 
-0.1789605232305466 -0.07046780021408471 -0 -0 0 0 0 0.7965269273566229 0.04384963254775077 0.7520454929881714 0 0 1 0 23:1 93:1 
-0 -0 -0 -0 -0 0 0 0.2351061020290936 0 0 0 0 0 0 5:1 6:1 28:1 41:1 
-0 -0 -0 -0 -0 0 1 0 0 0 0 0 0 0 4:1 5:1 10:1 47:1 115:1 
-0.2063025243950397 -0.1383534729278316 -0 -0 -0 0 0 0.4436191734239334 0.1578659769259705 0.4662609897695376 0.04589240296640291 0 0 0 1:1 18:1 69:1 383:1 
-0 -0 -0 -0 -0 0 1 0 0 0 0 0 0 0 2:1 4:1 13:1 29:1 47:1 111:1 298:1 
-0 -0 -0 -0 -0 0 0.5391864091467925 0 0 0 0 0 0 0 25:1 26:1 28:1 
-0.08733842700766101 -0 -0 -0 -0.0777760518203985 0 0.1633527077212925 0.008555794796345054 0 0.2208203256155019 0 0 0.2212945679868355 0 3:1 11:1 29:1 121:1 213:1 372:1 
-0 -0 -0 -0 -0 0 0.9343374147060817 0 0 0 0 0 0 0 1:1 3:1 28:1 37:1 244:1 
-1 -0 -1 -0.04117255531127276 -0.1793350029176462 1 1 1 1 0.7626880259248271 0 0.5465194679235708 0 0 3:1 5:1 37:1 
-1 -0.8851066345206418 -1 -0.05809160017612258 -1 0.4850333391416011 1 0.4131964066040917 1 1 0 0.6790504122571084 0.2193612013163125 0.3184773671877181 3:1 13:1 40:1 
-0 -0 -0 -0 -0.07470814386025484 0 0 0 0 0 0 0 0 0 3:1 10:1 28:1 41:1 
-1 -0.4488393342941671 -0.4690542588397525 -0 -0.1707779344670599 0.2757526910321876 1 1 1 0.8795952798120674 0 0.5600916536406773 0.1914271647341426 0.2014900147153102 5:1 156:1 
-0 -0 -0 -0 -0 0 1 0 0 0 0 0 0 0 1:1 2:1 4:1 29:1 47:1 104:1 200:1 
-0.9699119663465628 -0 -0 -0 -0 0 1 0.3884056023545627 0.3033268867150336 1 0 0 0 0 1:1 5:1 42:1 
-0 -0 -0 -0 -0 0 0.8135206078610814 0 0 0 0 0 0 0 1:1 3:1 5:1 28:1 
-0 -0 -0 -0 -0 0 0.2149370953837862 0 0 0 0 0 0 0 1:1 3:1 9:1 11:1 18:1 28:1 324:1 
-0 -0 -0 -0 -0 0 1 0 0 0 0 0 0 0 2:1 4:1 13:1 29:1 104:1 132:1 
-1 -1 -1 -0.5623744195557635 -1 1 1 1 1 1 0.9998534437115287 1 1 0.674756757428092 6:1 
-1 -0 -1 -0 -0.1729642376314327 0 1 1 0.914633534646009 1 0 0 0 0 1:1 5:1 6:1 25:1 
-1 -1 -1 -0 -1 0.1186690706875338 1 1 0.1089666759492439 0 0 0.4300919621956399 1 0.5604810014216079 25:1 26:1 
-0 -0 -0 -0 -0 0 1 0 0 0 0 0 0 0 1:1 3:1 5:1 29:1 40:1 
-0 -0 -0 -0.00606353855001082 -0 0 0.08408479917697322 0 0 0 0.1011255045417068 0 0 0 1:1 6:1 9:1 25:1 28:1 80:1 205:1 
-0 -0 -0 -0 -0 0 0 0.08311407770849706 0 0 0 0 0 0 3:1 5:1 10:1 28:1 41:1 
-0 -0 -0 -0 -0 0 0.3988971643975234 0 0 0 0 0 0 0 1:1 3:1 9:1 11:1 18:1 28:1 40:1 
-0 -0 -0 -0 -0 0 0.9616223126474618 0 0 0 0 0 0 0 5:1 6:1 28:1 
-0 -0 -0 -0 -0 0 1 0 0 0 0 0 0 0 1:1 4:1 28:1 29:1 
-0 -0 -0.5129025241209266 -0 -0 0 1 0 0 0 0 0 0.05114815631389402 0 1:1 6:1 11:1 25:1 28:1 
-0 -0 -0 -0.4508176487859957 -0 0 1 0 0 0 0.5338808409670076 0 0 0 1:1 4:1 29:1 33:1 36:1 38:1 39:1 91:1 
-0 -0 -0 -0 -0 0 0 0 0 0 0.02035102764061891 0 0 0 3:1 9:1 13:1 18:1 37:1 
-0 -0.142436857102453 -0 -0 -0 0 1 0 0 0 0 0 0 0 1:1 2:1 29:1 47:1 
-0 -0 -0 -0 -0 0 1 0 0 0 0 0 0 0 2:1 4:1 13:1 29:1 47:1 111:1 
-0 -0 -0 -0 -0 0 1 0 0 0 0 0 0 0 4:1 29:1 32:1 
-0 -0 -0 -0 -0 0 1 0 0 0 0 0 0 0 1:1 2:1 4:1 29:1 47:1 
-1 -0 -0 -0 -0 0 0 0 0 0 0 0 0 0 3:1 5:1 13:1 25:1 28:1 
-0 -0 -0 -0 -0 0 1 0 0 0 0 0 0 0 1:1 3:1 4:1 5:1 28:1 29:1 
-0 -0 -0 -0 -0 0 1 0 0 0 0 0 0 0 4:1 29:1 195:1 
-0 -0 -0 -0 -0 0 1 0 0 0 0 0 0 0 4:1 5:1 29:1 220:1 
-0 -0 -0 -0 -0 0 1 0 0 0 0 0 0 0 2:1 3:1 4:1 10:1 28:1 29:1 40:1 
-0 -0 -0 -0 -0 0 1 0 0 0 0 0 0 0 4:1 29:1 49:1 154:1 
-0 -0 -0 -0 -0 0 1 0 0 0 0 0 0 0 1:1 2:1 4:1 29:1 47:1 
-0 -0 -0 -0 -0 0 1 0 0 0 0 0 0 0 4:1 5:1 6:1 29:1 157:1 179:1 
-0 -0 -0.006390257848415914 -0 -0 0 1 0.3884635393133737 0 0 0 0 0 0 1:1 5:1 96:1 
-0 -0 -0 -0 -0 0 0.0002132995956189321 0 0 0 0 0 0 0 1:1 6:1 9:1 11:1 18:1 28:1 124:1 
-0 -0 -0 -0 -0 0 1 0 0 0 0 0 0 0 10:1 29:1 47:1 
-0 -0 -0 -0 -0 0 1 0 0 0 0 0 0 0 3:1 4:1 9:1 10:1 11:1 18:1 28:1 40:1 115:1 
-0 -0 -0 -0 -0 0 1 0 0 0 0 0 0 0 1:1 2:1 4:1 29:1 91:1 
-0 -0 -0 -0 -0 0 1 0 0 0 0 0 0 0 2:1 4:1 10:1 29:1 91:1 
-0 -0 -0 -0 -0 0 1 0 0 0 0 0 0 0 1:1 5:1 6:1 28:1 
-0 -0 -0 -0 -0 0 1 0 0 0 0 0 0 0 2:1 4:1 29:1 91:1 234:1 
-0 -0 -0.891515203315301 -0.02234251214091626 -0.1267727911275875 0.3431714191229812 1 0 0.5926704664435271 1 0 0.4240090257752943 0 0 3:1 26:1 42:1 
-0 -0 -0 -0 -0 0 1 0 0 0 0 0 0 0 1:1 9:1 11:1 28:1 29:1 41:1 113:1 
-0 -1 -0.9473925421214802 -0 -1 0.1790505733840076 0.4950221774130058 0.5626940503968192 1 0.9772315717794318 0 0.4300946477140706 0.4771034087523351 0.5603330439187947 26:1 661:1 
-0 -0 -0 -0 -0 0 0.5003484565825121 0.2947408685042348 0 0.3407011223483759 0 0 0 0 3:1 5:1 28:1 49:1 138:1 
-0 -0 -0.6801442265127369 -0 -0 0.1635600126666316 1 0 0.4661951428435395 0 0 0 0 0 1:1 2:1 4:1 29:1 
-0 -0 -0 -0 -0 0 1 0 0 0 0 0 0 0 1:1 2:1 4:1 29:1 47:1 104:1 132:1 
-0 -0 -0 -0 -0 0 0.2938579898047858 0 0 0 0 0 0 0 6:1 9:1 18:1 29:1 86:1 954:1 
-0 -0 -0 -0 -0 0 1 0 0 0 0 0 0 0 1:1 3:1 9:1 11:1 28:1 40:1 
-0 -0 -0 -0 -0 0 0.9946441523175775 0 0 0 0 0 0 0 3:1 4:1 5:1 29:1 220:1 
-0 -0 -0 -0 -0 0 0.2996617555301804 0 0 0 0 0 0 0 9:1 11:1 13:1 18:1 28:1 42:1 
-0.3062103101983965 -0 -0 -0 -0 0 0 0 0 0 0 0 0 0 5:1 6:1 25:1 28:1 
-0 -0.03896784601073969 -0 -0 -0 0 1 0 0 0 0 0 0.06348236607931095 0.1154922569383831 1:1 28:1 41:1 
-0 -0 -0 -0 -0 0 0.4817199679950717 0 0 0 0 0 0 0 4:1 26:1 29:1 195:1 
-0 -0 -0 -0 -0 0 1 0 0 0 0 0 0 0 1:1 9:1 11:1 18:1 28:1 42:1 
-0 -0 -0 -0 -0 0 1 0 0 0 0 0 0 0 1:1 2:1 4:1 29:1 47:1 104:1 111:1 
-0 -0 -0 -0 -0 0 0.1676976382073472 0 0 0 0 0 0 0 4:1 29:1 195:1 285:1 
-0 -0.3042865367584844 -1 -0 -0 0.9303330217745288 1 0 1 1 0 0 0 0 1:1 2:1 4:1 91:1 
-0 -0 -0.08861611408933127 -0 -0.03654115030303295 0 1 0 0 0 0 0.07513396403170525 0.05712341997571529 0 1:1 4:1 9:1 11:1 22:1 91:1 115:1 
-0.1304010734019527 -0 -0 -0 -0 0 0 0 0 0 0 0 0 0 3:1 5:1 10:1 25:1 28:1 
-0 -0 -0 -0 -0 0 1 0 0 0 0 0 0 0 1:1 4:1 5:1 6:1 10:1 28:1 29:1 
-0 -0 -0 -0 -0 0 0.8463121678558736 0 0 0 0 0 0 0 4:1 26:1 29:1 195:1 
-0 -0.1608461990654796 -0.2177125015341412 -0 -0 0 1 0 0 0.02837452800296349 0 0 0 0 2:1 4:1 13:1 29:1 
-0 -0 -0 -0 -0 0 1 0.4815731797761144 1 0 0 0.6310593013945325 0 0 1:1 9:1 11:1 18:1 40:1 
-0 -0 -0 -0 -0 0 0.002220455724069613 0 0 0 0 0 0 0 1:1 3:1 9:1 11:1 18:1 28:1 42:1 
-0 -0 -0 -0 -0 0 0.03411834930135075 0 0 0.08769951651940518 0 0 0 0 3:1 10:1 28:1 42:1 216:1 246:1 
-0 -0 -0 -0 -0 0 0.002609123259413294 0 0 0 0 0 0 0 1:1 25:1 26:1 28:1 
-0 -0 -0 -0 -0 0 0.2786576484262799 0 0 0 0 0 0 0 4:1 5:1 6:1 29:1 220:1 
-0 -0 -0 -0 -0 0 1 0 0 0 0 0 0 0 1:1 4:1 9:1 18:1 29:1 96:1 
-0 -0 -0 -0 -0 0 0.1108519084451822 0 0 0 0 0 0 0 1:1 6:1 9:1 11:1 18:1 28:1 41:1 
-0 -0 -0 -0 -0 0 0.008124193975528524 0 0 0 0 0 0 0 3:1 4:1 5:1 29:1 220:1 
-0 -0 -0 -0 -0 0 1 0 0 0 0 0 0 0 1:1 4:1 47:1 
-0 -0 -0 -0 -0 0 1 0 0 0 0 0 0 0 1:1 2:1 4:1 29:1 91:1 
-0 -0 -0 -0.1147404727005549 -0 0 0 0 0 0 0.1965104892377235 0 0 0 1:1 3:1 18:1 28:1 
-0 -0 -0 -0 -0 0 1 0 0 0 0 0 0 0 4:1 29:1 49:1 96:1 
-0 -0 -0 -0 -0 0 0.2644915640983536 0 0 0 0 0 0 0 1:1 3:1 9:1 11:1 18:1 28:1 41:1 
-0.9649791199510503 -0.7057223719549169 -1 -0 -1 1 0.4951335005765043 1 1 1 0 0.1409010363929137 0.480166350860455 0.0002781811870620538 6:1 202:1 
-0 -0 -0 -0 -0 0 1 0 0 0 0 0 0 0 1:1 4:1 5:1 29:1 96:1 
-0 -0.7207246568401077 -0.1552334106461805 -0 -0.4433115260745237 0.6171880239306865 0.1850613152270461 0 0 0.04506231084916647 0 0 0.3884503011259902 0.1273628613506644 2:1 10:1 28:1 37:1 831:1 
-0 -0 -0 -0 -0 0 1 0 0 0 0 0 0 0 1:1 4:1 9:1 22:1 29:1 69:1 91:1 
-0.2823012246932293 -0.4767232754161868 -0.08254088784427509 -0 -0.2657187013349127 0 1 0.3335486727510659 0 0.386837888786733 0 0 0.1537970944617675 0.2214454646723495 1:1 2:1 47:1 104:1 111:1 
-0 -0 -0 -0 -0 0 1 0 0 0 0 0 0 0 1:1 2:1 4:1 47:1 115:1 
-0 -0 -0 -0 -0 0 0 0 0 0 0 0 0.08283776069233005 0 1:1 3:1 9:1 11:1 28:1 37:1 121:1 
-0.9699119663465627 -0.4505902157859957 -0.3611025093053027 -0 -0.1717360748147453 0.04224133490757599 1 1 0.9319246083486915 0.8790207262290461 0 0.1275794722090418 0.09971569061588818 0.1340749362887965 1:1 5:1 96:1 
-1 -0 -1 -0 -1 0 1 1 0.8412398284372649 0.5126843314342067 0 0.07450747280407786 0 0 1:1 3:1 5:1 41:1 
-0 -0 -0 -0 -0 0 1 0 0 0 0 0 0 0 4:1 25:1 26:1 29:1 
-0 -0 -0 -0 -0 0 0.2815503193453796 0 0 0 0 0 0 0 3:1 4:1 5:1 29:1 153:1 
-1 -0 -0.3720265357012774 -0 -0 0.4003808741547274 1 1 0 0 0.004114736763072902 0 0 0 1:1 3:1 9:1 11:1 18:1 41:1 
-0 -0 -0 -0 -0 0.8265522799365053 1 0 0 0 0 0 0 0 3:1 9:1 11:1 13:1 18:1 37:1 
-0 -0 -0 -0 -0 0 0 0.2294793703344006 0 0 0 0 0 0 1:1 5:1 28:1 138:1 
-0 -0 -0 -0 -0 0 1 0 0 0 0 0 0 0 4:1 5:1 29:1 277:1 
-0 -0 -0 -0 -0 0 1 0 0 0 0 0 0 0 4:1 6:1 9:1 11:1 18:1 29:1 37:1 
-0 -0 -0 -0.07180276730016091 -0 0 1 1 0 1 0.04042705062166067 0 0 0 3:1 9:1 18:1 42:1 
-0 -0 -0 -0 -0 0 1 0 0 0 0 0 0 0 1:1 3:1 5:1 28:1 
-0 -0 -0 -0 -0 0 1 0 0 0 0 0 0 0 4:1 10:1 18:1 47:1 111:1 115:1 
-0 -0 -0.01191109418046927 -0 -0 0 0 0 0 0 0 0 0 0 1:1 6:1 28:1 383:1 
-0 -0 -0 -0 -0 0 1 0 0 0 0 0 0 0 1:1 3:1 9:1 11:1 28:1 29:1 42:1 
-0 -0 -0 -0 -0 0 1 0 0 0 0 0 0 0 2:1 4:1 10:1 18:1 47:1 53:1 132:1 189:1 
-0 -0 -0 -0 -0 0 1 0 0 0 0 0 0 0 4:1 11:1 18:1 29:1 96:1 307:1 
-0.2632354663490503 -0 -0.08569276233798752 -0 -0 0.02299459098471208 1 0.09646798395554634 0.4377681364682698 0 0 0.2919242835361673 0 0 4:1 5:1 109:1 158:1 220:1 
-0 -0 -0 -0 -0 0 0 0 1 0 0 0 0 0 3:1 5:1 10:1 28:1 40:1 
-0 -0 -0 -0 -0 0 0.000868967237559736 0 0 0 0 0 0 0 1:1 4:1 5:1 6:1 28:1 29:1 908:1 
-0 -0 -0 -0 -0 0 1 0 0 0 0 0 0 0 1:1 3:1 5:1 28:1 
-0 -0 -0 -0 -0 0 1 0 0 0 0 0 0 0 1:1 2:1 4:1 29:1 47:1 132:1 1007:1 
-0 -0 -0 -0 -0 0 0.9962230091782335 0 0 0 0 0 0 0 3:1 4:1 9:1 10:1 11:1 18:1 28:1 29:1 42:1 
-0.4757092614743964 -0 -0 -0 -0 0 1 0.2217646081391689 0.2374881062032815 0 0 0 0 0 5:1 6:1 29:1 86:1 
-0 -0 -1 -0 -1 0.6691323524325434 1 0 0 0 0 0 0 0 1:1 2:1 3:1 28:1 37:1 
-0 -0 -0 -0 -0 0 1 0 0 0 0 0 0 0 1:1 4:1 6:1 9:1 11:1 18:1 28:1 29:1 
-0 -0 -0 -0 -0 0 0.167886085742168 0 0 0 0 0 0 0 1:1 4:1 9:1 11:1 18:1 28:1 29:1 41:1 134:1 
-0 -0 -0 -0 -0 0 0.1993443611830909 0 0 0 0 0 0 0 3:1 9:1 11:1 18:1 28:1 41:1 
-0 -0 -0 -0 -0 0 0.1507284620891214 0 0 0 0 0 0 0 1:1 25:1 26:1 28:1 
-0 -0 -0 -0 -0 0 1 0 0 0 0 0 0 0 4:1 10:1 29:1 
-0 -0 -0 -0 -0 0 0.0004668338107569938 0 0 0 0 0 0 0 1:1 6:1 9:1 11:1 18:1 25:1 28:1 
-0.8166365377284319 -0 -0.2218076981915006 -0.01526803770358582 -0 0 1 1 0 0.4646598715464618 0.0616338928438489 0.04691161912994486 0 0 6:1 11:1 18:1 41:1 293:1 
-0 -0 -0 -0 -0 0 1 0 0 0 0 0 0 0 1:1 2:1 4:1 29:1 47:1 132:1 
-0 -0 -0 -0 -0 0 0.4758010209024577 0 0 0 0 0 0 0 3:1 4:1 9:1 11:1 18:1 29:1 32:1 
-0 -0 -0 -0 -0 0 1 0 0 0 0 0 0 0 2:1 4:1 13:1 29:1 91:1 
-0 -0 -0 -0 -0 0 1 0 0 0 0 0 0 0 3:1 4:1 5:1 29:1 156:1 
-0 -0 -0 -0 -0 0 0.3353522062476595 0 0 0 0 0 0 0 1:1 9:1 28:1 42:1 140:1 
-0 -0.09425905005405318 -0 -0 -0 0 1 0 0 0 0 0 0 0.2177425923668304 4:1 29:1 81:1 154:1 
-0 -0 -0 -0 -0 0 0 0.9735278794383704 0 0 0 0 0 0 3:1 5:1 10:1 28:1 41:1 
-0 -0 -0 -0 -0 0 1 0 0 0 0 0 0 0 3:1 4:1 5:1 25:1 29:1 
-0 -0 -0 -0 -0 0 0.5870545026234528 0 0 0 0 0 0 0 1:1 6:1 9:1 11:1 18:1 28:1 40:1 
-0 -0 -0 -0 -0 0 1 0 0 0 0 0 0 0 2:1 4:1 13:1 29:1 47:1 
-1 -0 -1 -0.02424176870015555 -1 1 1 1 1 1 0.1051473128846725 1 0 0 1:1 3:1 5:1 
-0 -0.4549088153633066 -0.5510736736283421 -0 -0.06712025122403913 0 0 0 0.0906941514713189 0 0 0 0.07498968088702965 0 1:1 5:1 37:1 140:1 
-0 -0 -0 -0 -0 0 0.4963837515657591 0 0 0 0 0 0 0 3:1 4:1 9:1 11:1 18:1 29:1 129:1 
-0 -0 -0 -0 -0 0 1 0 0 0 0 0 0 0 1:1 3:1 5:1 28:1 
-0 -0 -0 -0 -0 0 1 0 0 0 0 0 0 0 4:1 10:1 29:1 154:1 
-0 -0 -0 -0 -0 0 1 0 0 0 0 0.2662756792391148 0 0 4:1 6:1 9:1 11:1 18:1 32:1 115:1 
-0 -0.4532738887915415 -0.2998108366363813 -0 -0.0661379278191829 0 0 0.2887162635167745 0.1826049002544234 0 0 0.006780100915308725 0.1667116915182533 0.037008373124395 5:1 37:1 499:1 
-0 -0 -0 -0 -0 0.1245210970674902 1 0 0 0 0 0 0 0 4:1 9:1 10:1 11:1 22:1 29:1 91:1 
-0 -0 -0 -0 -0 0 0 0 0 0.09715004645900427 0 0 0 0 1:1 28:1 42:1 126:1 
-0 -0 -0 -0 -0 0 0.7025333404619818 0 0 0 0 0 0 0 1:1 4:1 9:1 11:1 28:1 29:1 383:1 
-0 -0 -0 -0 -0 0 1 0 0 0 0 0 0 0 1:1 2:1 29:1 47:1 86:1 
-0 -0 -0 -0 -0 0.000135597821935063 1 0 0.0001524216908388521 0 0 0 0 0 1:1 2:1 4:1 29:1 104:1 111:1 338:1 
-0 -0 -0 -0 -0 0 1 0 0 0 0 0 0 0 1:1 2:1 4:1 29:1 91:1 
-1 -0.494854501284052 -0.3667379835073377 -0 -0.06699600352491823 0.6426972408876732 0.0206923934071195 1 0.5120279232526824 0.4397247539212987 0 0 0.06723646933066507 0.100899092445122 5:1 32:1 115:1 
-1 -0 -1 -0 -0 0.7539729079366086 0 1 0 0 0 0 0 0 3:1 5:1 13:1 25:1 
-0.2720337421650498 -0 -0 -0 -0 0 0 0.4985634675466913 0 0 0 0 0 0 5:1 29:1 195:1 
-0 -0 -0 -0 -0 0 0.5877710144479098 0 0 0.1584720906882107 0 0 0 0 1:1 6:1 28:1 42:1 
-0 -0 -0.01737634374498258 -0 -0 0 0.2141191738902427 0 0 0 0 0 0.02498603743430709 0 1:1 3:1 9:1 11:1 28:1 121:1 149:1 
-0.01894175277974662 -0 -0 -0 -0 0 0 0 0 0 0 0 0 0 3:1 5:1 13:1 28:1 149:1 
-0 -0 -0 -0 -0 0 0.1670941715703116 0 0 0 0 0 0 0 1:1 9:1 11:1 18:1 28:1 41:1 302:1 
-0 -0.6141104543215183 -0 -0 -0 0 1 0 0 0 0 0 0 0 1:1 25:1 26:1 28:1 
-1 -0.1211078173331645 -1 -0 -0.4937445672594556 1 1 1 0.5664416418006982 1 0 0 0.5941419779234955 0 1:1 9:1 11:1 18:1 
-0 -0 -0 -0.01002767988765432 -0 0 0 0 0 0 0 0 0 0 3:1 11:1 18:1 25:1 28:1 
-0 -0 -0 -0 -0 0 0.07583548411529506 0 0 0 0 0 0.02511217833558524 0 3:1 11:1 25:1 28:1 489:1 564:1 
-0 -0 -1 -0 -0 1 1 0 1 0.5363114397444061 0 0.9288424302345473 0 0 2:1 4:1 29:1 
-0 -0 -0 -0 -0 0 0.04803614125517577 0 0 0 0 0 0 0 3:1 9:1 11:1 13:1 18:1 28:1 120:1 
-0 -0.1528960521384325 -0.5247334203697746 -0.3197850532427735 -0.06593240116913736 0.1245910447293423 0.2209595777523232 0.005200827962476652 0.6257296937240882 0.09170280842644607 0.4537401912245436 0.1978916435207449 0.05920610808863912 0.0549610455063728 4:1 33:1 38:1 68:1 
-0.194369227874298 -0 -0 -0 -0 0 1 0.3427992447114672 0 0.05709433177506946 0.01838619332014494 0 0 0 1:1 2:1 18:1 47:1 53:1 132:1 189:1 
-0 -0 -0 -0 -0 0 0.6519479408878597 0 0 0 0 0 0 0 1:1 26:1 28:1 42:1 
-0 -0 -0 -0 -0 0 1 0 0 0 0 0 0 0 1:1 3:1 5:1 28:1 
-0 -0 -0 -0 -0 0 1 0 0 0 0 0 0 0 1:1 4:1 5:1 29:1 96:1 
-0 -0 -0 -0 -0 0 0.6503958568059651 0 0 0 0 0 0 0 11:1 18:1 25:1 28:1 
-0 -0 -0 -0 -0 0 0.2402440375247566 0 0 0 0 0 0 0 1:1 5:1 6:1 9:1 11:1 28:1 121:1 
-0 -0 -0 -0 -0 0 0.8146408366268993 0 0 0 0 0 0 0 4:1 11:1 29:1 977:1 
-0 -0 -0.5425065523170223 -0 -0.08830955640432198 0.0726676107815047 1 0.008355171740592164 0.7358064820817618 0.1368417508230061 0 0.2080515808444945 0 0 4:1 6:1 9:1 69:1 157:1 179:1 
-0 -0 -0 -0 -0 0 1 0 0 0 0 0 0 0 1:1 28:1 42:1 
-0 -0 -0 -0 -0 0 0.0004724201381381673 0 0 0 0 0 0 0 1:1 6:1 9:1 11:1 18:1 28:1 42:1 
-0 -0 -0 -0 -0 0 1 0 0 0 0 0 0 0 1:1 2:1 4:1 29:1 47:1 
-0 -0 -0 -0 -0 0 0.0004310900735036313 0 0 0 0 0 0 0 1:1 5:1 6:1 28:1 1039:1 
-0.06895368283175257 -0.555482270743389 -0 -0 -0.713301317191809 0 1 0.07766273299516671 0 0 0 0 0.3202813269888695 0.283055421831484 1:1 2:1 29:1 91:1 
-0 -0 -0.862539640285914 -0 -0.9284476214124789 1 1 0 1 0.7825232548633438 0 0.3463437051141461 0.4778616159845732 0 4:1 9:1 10:1 11:1 22:1 47:1 
-0 -1 -0 -0 -1 0 1 0 0.03604706419633213 1 0 0 0.3852939828427159 0.4921906135625466 1:1 26:1 42:1 
-0 -0 -0 -0 -0 0 1 0 0 0 0 0 0 0 4:1 10:1 29:1 154:1 
-0 -0 -0 -0 -0 0 1 0 0 0 0 0 0 0 5:1 6:1 28:1 
-0.018694914351366 -0 -0 -0 -0 0 0 0 0 0 0 0 0 0 3:1 5:1 13:1 28:1 124:1 
-0 -0 -0 -0 -0 0 1 0 0 0 0 0 0 0 5:1 28:1 
-0.06858568453414865 -0 -0.4553642036176415 -0 -0 0.2333245736387195 1 0.08330237070220099 0.3982535870472144 0.02579037205364476 0 0.4268508966336345 0.0199601486685464 0.05883816898085761 2:1 4:1 91:1 1085:1 
-0 -0 -0 -0 -0 0 1 0 0 0 0 0 0 0 1:1 4:1 5:1 29:1 42:1 
-1 -1 -1 -0 -0.7892314956007269 0 1 1 1 1 0.1717698567200897 0.6422702177278674 0.3261070544118382 0.6749023270818363 18:1 
-0 -0 -0 -0 -0 0 1 0 0 0 0 0 0 0 1:1 4:1 6:1 9:1 11:1 18:1 25:1 28:1 29:1 
-0 -0 -0 -0 -0 0 1 0 0 0 0 0 0 0 1:1 3:1 9:1 18:1 28:1 
-0 -0 -0 -0 -0 0 0 0.04831395173440802 0 0 0 0 0 0 3:1 5:1 25:1 28:1 
-0 -0 -0 -0 -0.184377350003935 0 1 0 0 0.2658602268785898 0 0 0 0 6:1 29:1 86:1 220:1 
-0 -0 -0 -0 -0 0 1 0 0 0 0 0 0 0 3:1 9:1 10:1 11:1 18:1 28:1 
-0 -0 -1 -0 -1 0 0.8433456922310537 0.1027122184234764 0.3167265006876702 0.1698747835843902 0 0 0 0 1:1 3:1 5:1 37:1 
-0 -0 -0 -0 -0 0 0.1673677197393181 0 0 0 0 0 0 0 1:1 9:1 11:1 18:1 28:1 40:1 109:1 
-0 -0 -0 -0 -0 0 0.2146936659912537 0 0 0 0 0 0 0 3:1 4:1 10:1 28:1 29:1 124:1 
-0 -0 -0 -0 -0 0 1 0 0 0 0 0 0 0 1:1 6:1 9:1 11:1 25:1 28:1 
-0 -0 -0 -0 -0 0 0.102639991869323 0 0 0 0 0 0 0 1:1 4:1 9:1 11:1 18:1 28:1 29:1 37:1 248:1 
-0 -0.2399853889847235 -1 -0 -0 0.5214081917613331 1 0 0.7963255584539128 0 0 0.582756447660335 0 0.1787953948316175 2:1 4:1 47:1 
-0 -0 -0.06520539131813079 -0 -0 0.2318210937858347 0.1498060417206845 0.215376752268547 0.3573001126514809 0 0 0.3310351504314501 0 0 3:1 4:1 5:1 9:1 217:1 678:1 1018:1 
-0 -0 -0 -0 -0 0 0.09729154569633831 0 0 0 0 0 0 0 1:1 3:1 28:1 42:1 
-0 -0 -0 -0 -0 0 1 0.2228413636840192 0 0 0 0 0 0 1:1 5:1 29:1 41:1 86:1 
-0 -0 -0 -0 -0 0 1 0 0 0 0 0 0 0 1:1 4:1 6:1 9:1 11:1 18:1 25:1 28:1 158:1 
-0 -0 -0.03319256241442074 -0.009251494932040211 -0 0.260397566300545 0.2152563256641648 0 0 0 0 0 0 0 3:1 9:1 11:1 18:1 37:1 1194:1 
-0 -0 -0 -0 -0 0 1 0 0 0 0 0 0 0 4:1 9:1 22:1 29:1 47:1 
-0.2467190671978 -0 -0.1421678568312369 -0 -0 0 0 0 0 0 0 0 0 0 3:1 5:1 13:1 37:1 943:1 
-0 -0 -0 -0 -0 0 1 0 0 0 0 0 0 0 1:1 3:1 9:1 11:1 18:1 28:1 
-0.5598935321676295 -0 -0.3995076753816641 -0 -0.9987200234958566 0.4692943140052317 0.6628974590378776 1 0.09215693477549619 1 0 0.4295398385598414 0.09238930842597104 0 9:1 11:1 18:1 128:1 
-0 -0 -0 -0 -0 0 1 0 0 0 0 0 0 0 1:1 3:1 4:1 28:1 29:1 42:1 
-0 -0 -0 -0 -0 0 1 0.1525008479692921 0 0 0 0 0 0 1:1 9:1 18:1 29:1 41:1 205:1 
-0 -0 -0 -0 -0 0 0.0635946959972182 0 0 0 0 0 0 0 1:1 6:1 9:1 18:1 28:1 69:1 
-0 -0 -0 -0 -0 0 1 0 0 0 0 0 0 0.2491006596552894 1:1 26:1 28:1 
-0.7093829739528522 -0 -1 -0 -0 0.6741663219260685 1 0.9825472757556905 1 1 0 1 0 0 1:1 3:1 4:1 5:1 
-0 -0 -0 -0 -0 0 1 0 0 0 0 0 0 0 1:1 2:1 4:1 29:1 47:1 104:1 132:1 
-0 -0 -0 -0 -0 0 1 0 0 0 0 0 0 0 4:1 5:1 13:1 29:1 47:1 104:1 132:1 
-0 -0 -0 -0 -0 0 1 0 0 0 0 0 0 0 1:1 47:1 104:1 111:1 499:1 
-0 -0 -0 -0 -0 0 0.2098598892175056 0 0 0 0 0 0 0 1:1 3:1 9:1 11:1 18:1 28:1 42:1 
-0 -0 -0 -0 -0 0 0.002907305233885752 0 0 0 0 0 0 0 3:1 9:1 11:1 18:1 25:1 28:1 
-0 -0 -0 -0 -0 0 1 0 0 0 0 0 0 0 3:1 4:1 9:1 10:1 11:1 18:1 28:1 29:1 40:1 
-1 -0.01725200983610056 -0.985070111749869 -0 -0 0.3068471059095446 0.7086851799258737 1 0 0.165674622435815 0 0 0 0 1:1 9:1 11:1 18:1 25:1 126:1 
-0 -0 -0 -0 -0 0 0.1289568562330032 0 0 0.7543019705692008 0 0 0 0 3:1 5:1 10:1 28:1 
-0 -0 -0 -0 -0 0 0.2929585686598685 0 0 0 0 0 0 0 1:1 6:1 9:1 11:1 18:1 28:1 41:1 
-0 -0 -0 -0 -0 0 1 0 0 0 0 0 0 0 5:1 6:1 28:1 
-0 -0 -0 -0 -0 0 0.06158423374463881 0 0 0 0 0 0 0 1:1 5:1 28:1 40:1 113:1 
-0 -0 -0 -0 -0 0 1 0 0 0 0 0 0 0 1:1 5:1 6:1 28:1 
-0 -0 -0.03421171941337815 -0 -0 0 0.3674574148048319 0 0 0 0 0 0 0 3:1 9:1 11:1 13:1 28:1 572:1 
-0 -0 -0 -0 -0 0 1 0 0 0 0 0.5771028152570575 0 0 9:1 11:1 13:1 18:1 28:1 134:1 
-0 -0 -0 -0 -0 0 1 0 0 0 0 0 0 0 1:1 4:1 5:1 29:1 
-0 -0 -0 -0 -0 0 0 0 0.1984055034577185 0 0 0 0 0 1:1 5:1 6:1 28:1 40:1 
-0 -0 -0 -0 -0 0 1 0 0 0 0 0 0 0 1:1 6:1 9:1 11:1 18:1 28:1 41:1 
-0 -0 -1 -0 -0 -0 0 0 0 0 0 0 0 0 1:1 3:1 7:1 11:1 22:1 37:1 
-0 -0 -1 -0 -0 -0 0 0 0 0 0 0 0 0 4:1 9:1 11:1 22:1 101:1 
-0 -0 -1 -0 -1 -0 0 0 0 1 0 0 0 0 1:1 2:1 3:1 7:1 30:1 
-0 -0 -1 -0 -0 -0 0 0 0 0 0 0 0 0 1:1 2:1 7:1 101:1 
-0 -0 -0.9933724872779759 -0 -0 -0 0 0 0 0 0 0 0 0 4:1 5:1 6:1 7:1 180:1 
-0 -0 -1 -0 -0 -0 0 0 0 0 0 0 0 0 4:1 5:1 7:1 140:1 180:1 
